{"version":"0.5.4","metadata":{"date":{"year":2025,"month":4,"day":9,"hour":11,"minute":26,"second":29},"loudness":-23.62732696533203,"gain":0.8467356315777111,"name":"Laney Lead Top, Boosted, Bright Switch","modeled_by":"avedismutter","gear_type":"amp","gear_make":"tz-make","gear_model":"tz-model","tone_type":"overdrive","input_level_dbu":null,"output_level_dbu":null,"training":{"settings":{"ignore_checks":false},"data":{"latency":{"manual":null,"calibration":{"algorithm_version":1,"delays":[-63],"safety_factor":1,"recommended":-64,"warnings":{"matches_lookahead":false,"disagreement_too_high":false}}},"checks":{"version":3,"passed":true}},"validation_esr":0.05109593622578514}},"architecture":"WaveNet","config":{"layers":[{"input_size":1,"condition_size":1,"head_size":8,"channels":16,"kernel_size":3,"dilations":[1,2,4,8,16,32,64,128,256,512],"activation":"Tanh","gated":false,"head_bias":false},{"input_size":16,"condition_size":1,"head_size":1,"channels":8,"kernel_size":3,"dilations":[1,2,4,8,16,32,64,128,256,512],"activation":"Tanh","gated":false,"head_bias":true}],"head":null,"head_scale":0.02},"weights":[-0.19055092334747314,0.6973475813865662,-1.129002332687378,-0.9358373880386353,-0.5904555320739746,0.6563122272491455,-0.18267078697681427,0.9884982109069824,-0.33295658230781555,0.41990232467651367,-0.5449942946434021,-0.35172024369239807,-1.2160062789916992,-0.8724575042724609,-0.881257176399231,0.16099567711353302,0.5402973890304565,0.23752981424331665,-0.18916773796081543,-0.5055439472198486,-0.10701104998588562,0.2513442635536194,0.41379261016845703,0.2750387489795685,-0.16949979960918427,0.4574386477470398,0.29278135299682617,-0.27354753017425537,0.35581275820732117,0.12502127885818481,-0.1965308040380478,-0.3424244821071625,-0.26045113801956177,0.08804628998041153,0.3787837028503418,0.00956686306744814,-0.19090722501277924,-0.3152278959751129,-0.09764601290225983,0.20849360525608063,0.48910462856292725,0.08751173317432404,-0.11819396913051605,-0.5816165804862976,-0.2548355460166931,0.062312182039022446,0.5400621891021729,0.2428833246231079,-0.20553775131702423,0.44265469908714294,0.2509739398956299,0.011726005002856255,0.4983336925506592,0.18311557173728943,-0.043601665645837784,0.35522186756134033,0.1867411583662033,-0.2496418058872223,0.36122462153434753,0.09699423611164093,-0.08428462594747543,-0.4154019355773926,-0.23190593719482422,0.16900601983070374,-0.16415533423423767,-0.23651310801506042,-0.03667023777961731,0.30202558636665344,0.3492310047149658,0.17480455338954926,-0.3866312801837921,-0.33278191089630127,0.02331504598259926,-0.15115460753440857,-0.14191000163555145,0.09368867427110672,-0.23696359992027283,-0.3884522318840027,-0.01679983176290989,0.1886417120695114,0.15030108392238617,0.1563761681318283,-0.13532112538814545,-0.36581769585609436,-0.01239732000976801,0.2463037669658661,0.24457517266273499,-0.031818825751543045,-0.21346041560173035,-0.3511579930782318,0.028845254331827164,0.3380128741264343,0.3558306097984314,0.08320020139217377,-0.4117409586906433,-0.3585503101348877,0.03942151367664337,-0.23255158960819244,-0.36843404173851013,-0.11636080592870712,-0.13562417030334473,-0.17306818068027496,-0.09657453000545502,-0.3051045835018158,-0.40158042311668396,-0.03625223785638809,-0.386942982673645,-0.3978165090084076,-0.03930888697504997,0.26754331588745117,0.1728328913450241,0.10869090259075165,0.06152809411287308,-0.07056174427270889,0.15849930047988892,-0.24643634259700775,0.14767910540103912,0.013606649823486805,0.14638541638851166,-0.1510925590991974,0.045376069843769073,0.13235537707805634,-0.25645115971565247,0.05513469874858856,-0.0075447577983140945,-0.2697450816631317,-0.03696903586387634,-0.2087690830230713,0.13369329273700714,-0.12227559089660645,0.10954649746417999,-0.18516963720321655,-0.023111363872885704,-0.1297888606786728,0.288091242313385,-0.0009342361590825021,0.154402956366539,-0.1957852989435196,0.056475862860679626,-0.042931582778692245,0.3122484087944031,0.0860913023352623,0.2661764323711395,-0.19830557703971863,-0.12802022695541382,0.06291601806879044,-0.08928018808364868,0.00495107052847743,0.05196002870798111,-0.295254111289978,-0.1490807980298996,0.0025722451973706484,-0.21392188966274261,0.06817252933979034,0.21494972705841064,-0.32418715953826904,0.09009493142366409,-0.2561573088169098,0.1761908233165741,-0.1772526502609253,-0.006138333119452,0.16682709753513336,-0.33555057644844055,-0.17959819734096527,-0.2266930341720581,0.1324499249458313,-0.005988382268697023,0.26355960965156555,-0.258998304605484,0.04756779223680496,0.33399492502212524,-0.18637198209762573,0.1822083294391632,0.25756657123565674,-0.2714206874370575,0.03637164458632469,-0.2247360795736313,0.0890619233250618,0.14400959014892578,0.0891147255897522,-0.2001453936100006,-0.08818680793046951,-0.10321015864610672,0.16411717236042023,0.11103507876396179,0.25209543108940125,-0.2183782160282135,-0.07836990803480148,-0.31447964906692505,0.2264067679643631,0.1686946600675583,0.3059850335121155,-0.24355444312095642,0.05538490414619446,0.10367530584335327,-0.22559840977191925,-0.026086147874593735,0.2563369870185852,-0.21063101291656494,0.05298943817615509,0.21176783740520477,-0.03382256627082825,-0.05315921828150749,0.11190745234489441,-0.22540919482707977,0.059360235929489136,-0.2659243643283844,0.3668579161167145,-0.08256496489048004,0.29696348309516907,-0.0836520716547966,0.08427265286445618,-0.2534851133823395,-0.013215125538408756,-0.11362341791391373,0.2930474281311035,-0.1284821480512619,-0.18689775466918945,0.3915189504623413,-0.1306794136762619,-0.12755650281906128,0.41681888699531555,0.02506166137754917,0.12405752390623093,-0.4037106931209564,0.10214853286743164,-0.2312881052494049,0.24724271893501282,-0.14339855313301086,0.09002017229795456,-0.27055343985557556,0.131724551320076,-0.11128338426351547,0.4067251980304718,0.03390746936202049,0.02907424420118332,-0.2000098079442978,-0.07007959485054016,-0.17696218192577362,0.31937897205352783,0.019027674570679665,-0.009792016819119453,0.22951672971248627,-0.03390145301818848,-0.03763845935463905,0.13334015011787415,0.09173085540533066,-0.2321660816669464,0.2745959162712097,-0.04009721055626869,-0.19741056859493256,0.29638123512268066,0.09202083945274353,0.09226155281066895,-0.35471588373184204,0.09176738560199738,-0.004410190973430872,-0.06465422362089157,-0.08755481243133545,-0.21292030811309814,0.045204564929008484,0.16509447991847992,0.19507671892642975,-0.01744554191827774,-0.03708363696932793,0.06764188408851624,-0.17109714448451996,-0.047514658421278,0.23938997089862823,-0.09032917022705078,-0.14842557907104492,-0.1978893280029297,-0.01052099745720625,0.10911916941404343,0.04857534170150757,-0.26819753646850586,0.11743735522031784,-0.20951606333255768,0.11231910437345505,0.1314571052789688,0.14347808063030243,-0.2221507877111435,-0.1737784594297409,-0.009633978828787804,0.14637088775634766,0.19303804636001587,0.07133518159389496,-0.08815617114305496,-0.11028877645730972,0.11545400321483612,-0.21705670654773712,-0.020910188555717468,0.16231463849544525,-0.1319422423839569,-0.12339285761117935,0.027524113655090332,-0.029588744044303894,-0.1954161673784256,0.18807463347911835,-0.17422781884670258,-0.15122680366039276,-0.09807080775499344,0.06511420756578445,0.01273187156766653,0.14339777827262878,-0.3065789043903351,0.1532783955335617,-0.02483389340341091,0.25884318351745605,-0.07921764254570007,-0.03359830379486084,-0.22837163507938385,0.10907622426748276,0.03183130919933319,-0.1507100760936737,0.15195301175117493,0.016003306955099106,-0.20166930556297302,0.129009410738945,-0.08787126839160919,0.2122117280960083,-0.0619720034301281,-0.008660883642733097,-0.20069359242916107,0.24282777309417725,0.046908460557460785,0.2892167568206787,-0.03480803966522217,0.1805218607187271,-0.2637380063533783,-0.015328940935432911,-0.22269174456596375,0.33358317613601685,0.016513658687472343,-0.01134433876723051,-0.14986994862556458,0.18088240921497345,0.23593245446681976,-0.07888387143611908,0.18767982721328735,0.05142107978463173,-0.2549842596054077,0.17324897646903992,0.16593435406684875,-0.2908843159675598,0.18672606348991394,0.1640748381614685,-0.12684781849384308,-0.017604125663638115,-0.06564528495073318,0.1480037420988083,-0.08121925592422485,0.2637139856815338,-0.015591436065733433,-0.1750505119562149,-0.20316588878631592,0.04708874970674515,0.330899715423584,0.16808626055717468,-0.06362470239400864,-0.3743318021297455,0.1226775199174881,-0.21329258382320404,-0.156602680683136,0.3511260747909546,0.044955044984817505,-0.14553841948509216,-0.4079500436782837,-0.005427486728876829,0.25576072931289673,0.20322462916374207,0.03384610265493393,-0.30254581570625305,-0.33369845151901245,-0.04110904037952423,0.18953022360801697,0.4077029228210449,0.03680838271975517,-0.15346595644950867,-0.15802791714668274,0.21869203448295593,0.21813234686851501,0.3354240357875824,0.03322945535182953,-0.21506322920322418,0.4163440763950348,-0.01586323045194149,-0.16207265853881836,0.2144615352153778,-0.028625700622797012,-0.25651097297668457,0.23211652040481567,-0.1771971434354782,-0.34674543142318726,0.17071539163589478,0.0038831159472465515,-0.17540700733661652,-0.3253444731235504,-0.040035080164670944,0.28034934401512146,0.18739357590675354,0.033912669867277145,-0.2431402951478958,0.06550534069538116,0.03685859218239784,0.11315000057220459,0.20373456180095673,0.13558371365070343,-0.2870689630508423,0.1473485380411148,-0.05898655951023102,-0.25259822607040405,0.1953115016222,0.032798945903778076,-0.3245251476764679,-0.12942375242710114,-0.07557619363069534,0.206724613904953,0.09512001276016235,0.14480343461036682,-0.1630261391401291,-0.15369917452335358,-0.014507795684039593,0.2985788583755493,0.16834187507629395,-0.08986422419548035,-0.24222105741500854,-0.18737900257110596,-0.0924176275730133,0.26920202374458313,-0.03521391376852989,0.07612142711877823,-0.10242293030023575,0.08194760978221893,-0.07196889072656631,-0.26538047194480896,0.09713119268417358,-0.08676134794950485,-0.15941114723682404,-0.06478781253099442,-0.11575694382190704,-0.36675044894218445,0.04553966224193573,0.1325857937335968,-0.3699379563331604,0.044027987867593765,-0.07510564476251602,0.18686483800411224,-0.13019035756587982,-0.18101035058498383,0.21710236370563507,0.22383449971675873,0.2011258751153946,0.012225260026752949,-0.24418441951274872,0.06361827254295349,0.06922489404678345,-0.07961716502904892,-0.17588631808757782,0.01574484445154667,-0.28774315118789673,-0.1156640350818634,0.0961635485291481,0.034274064004421234,0.1006058007478714,0.0007703991723246872,-0.12530727684497833,-0.15068668127059937,0.0013043507933616638,0.10265067964792252,0.1223406195640564,0.0862349271774292,-0.0585784874856472,-0.06959708780050278,0.14148984849452972,-0.001036164932884276,-0.06989867240190506,-0.002332087606191635,-0.23067748546600342,0.013667265884578228,-0.031847890466451645,-0.2160203754901886,-0.17602697014808655,0.1467706710100174,-0.16232094168663025,0.05161440372467041,0.1454259306192398,-0.06771521270275116,-0.05427471175789833,0.012531259097158909,-0.18184183537960052,-0.03477019816637039,0.14212600886821747,0.049347735941410065,0.16669201850891113,-0.16213683784008026,-0.21654459834098816,-0.2056111842393875,0.24491643905639648,0.25401782989501953,0.01602092757821083,0.02931114099919796,-0.05267294496297836,-0.066867396235466,0.19446825981140137,-0.20141252875328064,-0.10667921602725983,0.1295371651649475,-0.1619182676076889,-0.10146751254796982,0.03861215338110924,0.2127496302127838,0.11123428493738174,-0.14117005467414856,-0.06309199333190918,-0.07941087335348129,0.0577954463660717,0.13519728183746338,0.2335103154182434,-0.08495207875967026,-0.07041259855031967,-0.1794307976961136,0.15466873347759247,0.011221421882510185,0.056827206164598465,-0.15790967643260956,0.013005240820348263,-0.1852540373802185,0.08424098789691925,-0.18629378080368042,-0.0032486682757735252,0.2258840799331665,-0.23231470584869385,-0.2686687707901001,-0.03972839564085007,-0.12241137027740479,-0.1861554980278015,-0.02259136736392975,-0.1756364107131958,-0.12414237856864929,0.00605750223621726,0.1313171237707138,0.08973677456378937,-0.22413398325443268,-0.05925733968615532,0.33121493458747864,-0.16903845965862274,0.06991186738014221,-0.252719521522522,0.14105884730815887,-0.20165900886058807,0.0620584599673748,0.15070469677448273,-0.15373094379901886,0.22916367650032043,-0.004530072677880526,-0.09877719730138779,0.1675288826227188,0.08529467135667801,0.07964159548282623,-0.33905982971191406,-0.0741446241736412,-0.12245970219373703,0.2907244861125946,-0.18451525270938873,0.19807422161102295,-0.23286668956279755,-0.03662816807627678,0.032232191413640976,0.2683461010456085,0.08049340546131134,0.15522068738937378,-0.23318421840667725,-0.07988810539245605,-0.07687743008136749,0.32352662086486816,-0.05539894104003906,-0.200495645403862,0.2649410665035248,0.12817548215389252,-0.10429486632347107,0.08052964508533478,-0.1204972118139267,-0.027844568714499474,0.18899716436862946,-0.0668293684720993,-0.04374656826257706,0.2559354305267334,0.11270052194595337,0.19216057658195496,-0.2190331220626831,0.013743223622441292,-0.2417227327823639,-0.21022015810012817,0.3691830635070801,0.16903799772262573,0.1858626902103424,-0.11905290931463242,0.02844732068479061,-0.1836422085762024,0.1372528225183487,-0.16291621327400208,-0.41429388523101807,0.3876963257789612,-0.16759651899337769,-0.3826698064804077,0.34020209312438965,0.04325786978006363,0.2517128586769104,-0.30050891637802124,-0.13547837734222412,-0.4707857370376587,0.4390503764152527,0.04396018013358116,0.3628690838813782,-0.12463163584470749,-0.03665551170706749,-0.3106551170349121,0.42957109212875366,0.12165018171072006,0.23927021026611328,-0.13376745581626892,-0.07333346456289291,-0.4582831561565399,0.22756065428256989,-0.2040049284696579,-0.19348715245723724,0.2422335296869278,-0.2388957291841507,-0.32160812616348267,0.34205198287963867,-0.06933814287185669,-0.2666682004928589,0.2643994390964508,-0.05356728658080101,-0.35573461651802063,0.2190060168504715,-0.026169825345277786,0.2182289958000183,-0.3193175792694092,-0.3691149353981018,0.12247665971517563,0.26873987913131714,0.283367782831192,-0.18953371047973633,-0.14181041717529297,-0.358845055103302,0.2138688713312149,0.17999039590358734,-0.30793297290802,0.17467555403709412,0.2298554629087448,-0.15727820992469788,-0.004554331302642822,0.15944115817546844,0.21974779665470123,-0.07339482754468918,-0.1638466715812683,-0.3430064916610718,0.16733278334140778,0.1831083744764328,0.24084298312664032,0.011696762405335903,-0.39996591210365295,-0.27849701046943665,0.2321288138628006,0.25645509362220764,0.3922765254974365,-0.13807472586631775,-0.15996487438678741,-0.4149450361728668,0.07769126445055008,0.2565228343009949,-0.23209938406944275,0.1509244441986084,0.3783765733242035,-0.2945101261138916,0.08922317624092102,0.3894041180610657,-0.31262096762657166,0.22116591036319733,0.1887246072292328,-0.30008506774902344,0.08478043228387833,0.35869917273521423,0.3740142583847046,-0.14338457584381104,-0.3320058286190033,0.2754902243614197,0.03360211104154587,-0.21835213899612427,-0.27536940574645996,0.10331360995769501,0.46263912320137024,0.19986271858215332,-0.1430903524160385,-0.24252597987651825,0.07876329123973846,0.022174829617142677,-0.3157939612865448,0.1242690458893776,0.04203407093882561,-0.4574887156486511,-0.16730834543704987,-0.08853677660226822,0.3296712338924408,0.20989108085632324,0.10470850020647049,-0.3379271626472473,-0.09236765652894974,-0.007830106653273106,0.2676376402378082,0.08448225259780884,-0.1326507329940796,-0.1848999559879303,-0.23196938633918762,0.011691678315401077,0.36019301414489746,0.28572550415992737,0.11194879561662674,-0.21346773207187653,0.08406949043273926,-0.032425250858068466,-0.40165311098098755,0.1038963794708252,0.02470255270600319,-0.20268088579177856,0.07089557498693466,0.07792606204748154,-0.4071393311023712,0.16981521248817444,0.11427921056747437,-0.37682706117630005,-0.18258950114250183,-0.09591900557279587,0.3698092997074127,0.2269137054681778,-0.16039204597473145,-0.18242736160755157,-0.3412562906742096,-0.04088098555803299,0.3051232397556305,0.3568681478500366,-0.11427312344312668,-0.24588054418563843,0.3624937832355499,0.019333506003022194,-0.38501688838005066,0.22564908862113953,-0.11877761781215668,-0.41509607434272766,-0.2499481588602066,0.17831234633922577,0.4324519634246826,0.24591082334518433,-0.02937675453722477,-0.27879583835601807,-0.13066396117210388,0.013996843248605728,0.20780541002750397,0.27566978335380554,0.022024061530828476,-0.4191063642501831,-0.11328698694705963,0.1210884153842926,0.1910378336906433,0.2084634006023407,0.05093532055616379,-0.4082755446434021,0.19963297247886658,-0.02125748060643673,-0.4069935083389282,0.31930676102638245,0.00020941722323186696,-0.22137610614299774,0.14762838184833527,0.06948868930339813,-0.39034128189086914,0.3959971070289612,-0.20595984160900116,-0.43869441747665405,-0.14141440391540527,0.06676918268203735,0.20277252793312073,-0.05646563693881035,-0.10419768840074539,-0.07646402716636658,-0.10499539226293564,0.004275879822671413,-0.020558293908834457,-0.019307808950543404,0.030002471059560776,0.06926660984754562,0.011260810308158398,0.009484197944402695,-0.061626214534044266,-0.10524463653564453,-0.015132554806768894,-0.008574126288294792,-0.05110995098948479,0.5775710344314575,-0.3896675705909729,0.8225903511047363,-0.5943944454193115,0.0031060343608260155,0.9985024333000183,0.9540861248970032,-0.305912584066391,0.4111119210720062,0.07319299131631851,-0.5280742645263672,-0.3695538640022278,0.03836828097701073,-0.9874666333198547,0.5040329098701477,0.7465440630912781,-0.19218546152114868,0.31885868310928345,-0.14430923759937286,0.14386750757694244,0.3663302958011627,-0.08245129138231277,-0.0026104755233973265,0.13204018771648407,0.00020569998014252633,-0.05007452890276909,-0.03729990869760513,-0.06433713436126709,-0.10761458426713943,0.018249139189720154,0.15639138221740723,-0.02639077417552471,0.5139186978340149,-0.3985450565814972,-0.15548132359981537,0.3233124911785126,0.1112632006406784,0.022920740768313408,-0.1016450822353363,0.27721911668777466,0.03678194433450699,-0.11596037447452545,-0.3465007245540619,0.1361979991197586,-0.004751581698656082,-0.37395179271698,0.19041220843791962,0.47176826000213623,-0.0654558390378952,0.19660906493663788,-0.140487939119339,0.2629825472831726,0.16286897659301758,-0.3617691397666931,-0.09666584432125092,-0.35727187991142273,-0.142165869474411,-0.15891103446483612,0.2018914371728897,0.008857717737555504,0.097904272377491,0.5832412838935852,-0.0773141086101532,-0.3880283832550049,0.24208851158618927,-0.1684512048959732,-0.03332303836941719,-0.11523029953241348,-0.0602334663271904,0.018284490332007408,0.02935022860765457,0.036213453859090805,-0.2431434690952301,-0.03642828390002251,-0.0023227983620017767,-0.01675044558942318,0.22719113528728485,0.21652643382549286,-0.20921757817268372,-0.07389972358942032,-0.2214006930589676,-0.26491814851760864,-0.3026861250400543,0.25109681487083435,0.4030925929546356,-0.053917963057756424,0.01924959011375904,-0.42854031920433044,-0.1556185781955719,0.2300722450017929,-0.13705570995807648,0.3484036326408386,0.04858872666954994,0.572791337966919,-0.40891608595848083,-0.33749330043792725,-0.2850976586341858,0.059463080018758774,0.3194434642791748,-0.0947939082980156,-0.14927223324775696,0.4271426796913147,0.47324469685554504,0.11814602464437485,0.3019339442253113,0.1829739660024643,0.027845511212944984,-0.2716703712940216,0.170188307762146,-0.3804079294204712,0.365247905254364,0.40964871644973755,0.1198238730430603,0.10477814078330994,0.19167323410511017,0.13218103349208832,-0.22459563612937927,-0.18608906865119934,0.0708804503083229,0.17652933299541473,0.07337893545627594,-0.299234002828598,-0.2700170874595642,0.18328414857387543,0.1310100555419922,-0.23475098609924316,0.07739507406949997,-0.09091409295797348,0.18262729048728943,0.061829835176467896,0.3718225657939911,-0.38116586208343506,-0.4171106517314911,0.27354854345321655,0.3561951518058777,0.09767227619886398,0.268703818321228,-0.0689220055937767,0.23473551869392395,-0.3459372818470001,0.18149755895137787,-0.380990207195282,0.02506042644381523,0.24366801977157593,-0.11346683651208878,0.10688064247369766,-0.4011974334716797,-0.09748368710279465,0.3172968924045563,-0.3341119885444641,-0.31404057145118713,-0.13391733169555664,-0.4086017608642578,-0.37035709619522095,0.07220347225666046,0.27517709136009216,-0.07988699525594711,0.19580033421516418,-0.2065645307302475,-0.395000696182251,-0.30890387296676636,0.08304762840270996,0.28758475184440613,-0.3982382118701935,-0.39507004618644714,-0.0011923019774258137,0.300869882106781,-0.452309250831604,-0.003041404765099287,0.4351811707019806,0.4500715434551239,0.04692620784044266,0.513884961605072,0.23753491044044495,-0.19504113495349884,-0.08178631961345673,0.06784398853778839,0.25515642762184143,-0.3860935866832733,0.19613495469093323,0.0942203551530838,-0.32059600949287415,-0.09133787453174591,-0.009866472333669662,-0.015064234845340252,-0.22699852287769318,-0.21616891026496887,0.07528644800186157,-0.22165675461292267,0.2294289916753769,-0.06013748049736023,0.10250331461429596,0.11799651384353638,-0.16353954374790192,0.12557682394981384,-0.03887118026614189,-0.02750738337635994,-0.008807765319943428,-0.01319919340312481,0.22307360172271729,0.04652560502290726,-0.20642238855361938,-0.04490002244710922,-0.2755667269229889,-0.13590972125530243,-0.004003772046416998,-0.16200527548789978,-0.07107894122600555,-0.1495203822851181,0.0758141279220581,-0.1216547042131424,0.13557617366313934,0.3202575743198395,-0.4039291739463806,-0.2090894877910614,-0.009934667497873306,0.05453874170780182,-0.11824215203523636,-0.10889193415641785,0.25505152344703674,0.12726259231567383,0.11128632724285126,-0.3680942952632904,-0.1605864018201828,0.2556866407394409,-0.37450042366981506,-0.4083673357963562,0.45397910475730896,0.3712388277053833,-0.18496885895729065,-0.12316861748695374,-0.11636456102132797,-0.38110142946243286,-0.5477656126022339,-0.4449292719364166,0.44681721925735474,-0.3879358768463135,0.38628292083740234,-0.6530827283859253,-0.2757937014102936,-0.40565162897109985,0.4561156630516052,-0.1530933827161789,-0.29399123787879944,0.024136273190379143,-0.41168689727783203,0.11513065546751022,-0.37181708216667175,-0.6607567071914673,0.11315588653087616,0.22870774567127228,0.0021848278120160103,0.3944045305252075,0.7571734189987183,-0.6783450245857239,-0.7021142244338989,0.48779597878456116,-0.019448483362793922,0.29498252272605896,-0.007894887588918209,-0.2969658374786377,0.18660955131053925,0.16281414031982422,0.2343636304140091,-0.15423406660556793,-0.33504173159599304,-0.12329326570034027,-0.2390090674161911,0.12714433670043945,0.09313985705375671,0.03151831775903702,0.01499870140105486,0.14373165369033813,-0.2644214630126953,0.16316857933998108,-0.2823842465877533,-0.34135663509368896,-0.0686040073633194,0.18178121745586395,0.11740662157535553,0.03670596331357956,-0.21917690336704254,0.08865558356046677,0.04920704662799835,0.04251803085207939,-0.00007866469968575984,0.09243064373731613,-0.050685588270425797,0.022008320316672325,-0.021584194153547287,-0.05178552120923996,0.0203566737473011,-0.11592339724302292,0.03954736143350601,-0.0646616667509079,-0.008206609636545181,0.07297734916210175,-0.16688290238380432,-0.0002020729152718559,0.014782999642193317,-0.05992908403277397,-0.08570362627506256,0.1494397222995758,0.23480480909347534,-0.25898852944374084,0.055397264659404755,-0.1530730277299881,-0.13431571424007416,-0.010129899717867374,0.08047173172235489,-0.20868799090385437,-0.20777128636837006,-0.09262685477733612,0.11463964730501175,-0.06079457327723503,-0.13890370726585388,-0.06238701567053795,-0.18459321558475494,-0.2004529982805252,0.12088746577501297,0.03358028456568718,-0.26547643542289734,-0.002682850696146488,-0.001001112861558795,-0.160389706492424,0.06716729700565338,0.008310583420097828,-0.10722222179174423,0.1052379235625267,-0.02684730477631092,-0.05451562628149986,0.10792327672243118,0.10108251124620438,0.06596024334430695,-0.06246603652834892,-0.17202839255332947,0.3846583366394043,0.461511492729187,0.7666788697242737,-0.3954233229160309,-0.20705609023571014,-0.38887879252433777,0.16673311591148376,0.1305985301733017,0.3388216495513916,-0.3947800397872925,-0.3288831114768982,-0.4722405970096588,-0.10495956987142563,-0.34001579880714417,-0.201518252491951,-0.2332257181406021,-0.12062735855579376,-0.10393812507390976,0.6734904646873474,0.35927072167396545,0.3936440646648407,0.1014881357550621,0.003040931886062026,0.019017910584807396,-0.01395302265882492,-0.0022871377877891064,0.06168944388628006,-0.11216949671506882,-0.18861645460128784,-0.330671101808548,0.24516132473945618,0.1922120749950409,0.21358437836170197,0.030582917854189873,-0.07518551498651505,0.16930484771728516,0.057361871004104614,-0.0028048281092196703,0.11046522855758667,0.14395615458488464,0.15214677155017853,0.09625579416751862,0.0011060998076573014,-0.1527196317911148,0.09273781627416611,-0.2760516107082367,-0.1366729885339737,-0.537726879119873,-0.3314715027809143,-0.5029515624046326,-0.29987016320228577,0.16247853636741638,0.42243438959121704,0.24597914516925812,-0.09162868559360504,-0.19276784360408783,-0.08249737322330475,0.31061407923698425,0.12432760745286942,0.1429167538881302,0.18076175451278687,0.08173267543315887,0.28837165236473083,0.026093794032931328,0.3153172731399536,0.12716899812221527,-0.07779078930616379,-0.39947497844696045,-0.3322364091873169,-0.033319491893053055,0.04421757906675339,0.047344405204057693,-0.05150804668664932,-0.2699751555919647,-0.07204057276248932,0.126822829246521,0.28781768679618835,-0.019475294277071953,-0.28203317523002625,-0.4338803291320801,-0.058239974081516266,0.08128207921981812,-0.3095426559448242,0.027395205572247505,0.039565857499837875,-0.1617976874113083,-0.07612654566764832,-0.07846862822771072,-0.12690649926662445,0.10057062655687332,0.07527818530797958,-0.23297901451587677,-0.01886366866528988,0.12258349359035492,0.41997194290161133,0.498430997133255,-0.12439769506454468,-0.11818324774503708,0.08049453049898148,-0.05772990360856056,0.2040000855922699,0.0041822707280516624,0.07730696350336075,-0.3336392045021057,0.019860370084643364,0.16161935031414032,0.01963900960981846,-0.018088210374116898,0.03236867114901543,-0.18685421347618103,0.05952274054288864,-0.08956826478242874,0.13974499702453613,-0.2658305764198303,0.0501173697412014,0.09046952426433563,-0.03850705549120903,-0.1878901869058609,0.06456118822097778,-0.1895277500152588,0.15865367650985718,-0.26376041769981384,0.2518344223499298,0.10609368979930878,-0.22596552968025208,-0.021263867616653442,0.07537337392568588,-0.13681915402412415,0.17849013209342957,0.0818919837474823,0.014249982312321663,0.2729092538356781,0.11777553707361221,-0.013100819662213326,0.09456989169120789,0.16221904754638672,-0.15356136858463287,0.014404387213289738,0.08299390971660614,-0.5046911239624023,0.5814372897148132,0.001978796673938632,0.1789119392633438,0.011413680389523506,-0.004627746529877186,-0.10219309478998184,0.15749706327915192,0.05282328650355339,0.21820175647735596,-0.15383994579315186,0.1290419101715088,-0.13565266132354736,0.042586907744407654,-0.05534571409225464,-0.06954988837242126,0.007040222641080618,0.040947943925857544,-0.14604510366916656,-0.19833609461784363,-0.30519574880599976,0.2886383831501007,-0.11460661888122559,0.2071862518787384,-0.024097947403788567,0.0746135413646698,-0.1372814178466797,0.2710796892642975,0.14059314131736755,0.2636256217956543,-0.11725502461194992,-0.02620447613298893,-0.220521941781044,-0.1374390572309494,0.06103699654340744,0.27934274077415466,-0.18403491377830505,-0.017385300248861313,0.122767873108387,-0.11393531411886215,0.1883968859910965,-0.018033592030405998,-0.28395718336105347,0.06252499669790268,0.16070592403411865,-0.06784084439277649,-0.016312846913933754,0.27897560596466064,-0.7741628885269165,0.16454152762889862,0.011246317066252232,0.05136078596115112,-0.04843531921505928,0.4054349660873413,0.4592800438404083,0.3683605194091797,-0.2924896776676178,-0.32983672618865967,-0.4739258885383606,0.08044213056564331,0.2795730233192444,0.21716932952404022,-0.2518768012523651,-0.1025431677699089,-0.20869134366512299,-0.1156318336725235,-0.11999151110649109,-0.20795747637748718,0.1092577651143074,-0.3566567599773407,0.08044440299272537,0.17254573106765747,0.08282153308391571,0.16125565767288208,0.10883059352636337,-0.2252330482006073,0.311087429523468,0.15655691921710968,0.3257802724838257,-0.07782252877950668,-0.02264687418937683,-0.3133820593357086,-0.1658754199743271,0.17861022055149078,0.3915998637676239,0.1901889592409134,0.12824830412864685,0.2586323916912079,0.07765334844589233,0.09645531326532364,0.30543509125709534,0.07301635295152664,0.000976980896666646,-0.004706906620413065,0.0734398365020752,0.05262662470340729,0.4446737468242645,-0.05744924396276474,-0.36883261799812317,-0.34895840287208557,-0.41101446747779846,0.05830850824713707,-0.06185081601142883,0.09824389964342117,0.014617068693041801,0.1485500931739807,-0.20042090117931366,0.0033951150253415108,-0.2760377824306488,0.25044819712638855,0.11482301354408264,-0.15189455449581146,-0.08437807857990265,-0.18888317048549652,-0.08696717023849487,-0.09601037204265594,0.08278513699769974,0.37124115228652954,-0.002209082478657365,0.25387611985206604,-0.0085971774533391,0.14707034826278687,-0.04626045748591423,0.41502273082733154,-0.01972203142940998,-0.004858595319092274,-0.3466845452785492,-0.08109662681818008,-0.04586419835686684,0.1079273372888565,-0.007444960996508598,0.13957305252552032,-0.32173535227775574,0.10695666819810867,0.12469594925642014,-0.13853926956653595,0.12114401906728745,0.12126684933900833,-0.09393520653247833,0.15057224035263062,0.08782088756561279,-0.004268859513103962,-0.10102733969688416,-0.28485390543937683,-0.3609296977519989,0.1999947726726532,-0.02279682084918022,0.0626903548836708,-0.031589575111866,-0.18249474465847015,-0.05856354534626007,0.09771071374416351,0.003841941710561514,0.09973862767219543,-0.0332053080201149,-0.049442388117313385,-0.06423786282539368,0.048773542046546936,0.0045103030279278755,-0.059562522917985916,-0.0665070042014122,-0.038349322974681854,-0.10226863622665405,-0.17653688788414001,0.06469839811325073,-0.0662129819393158,-0.12635163962841034,-0.019628899171948433,-0.10267123579978943,0.00041507947025820613,0.03949807956814766,-0.06848067045211792,-0.05266889929771423,-0.0035324960481375456,-0.1303369700908661,0.12897664308547974,0.1741371750831604,0.0034914594143629074,-0.09737569838762283,0.10640473663806915,-0.10490018874406815,0.019165098667144775,0.032673489302396774,-0.08223465085029602,0.10417366027832031,-0.06333697587251663,-0.03147492930293083,-0.09674126654863358,-0.1660740226507187,0.07558729499578476,-0.11630292981863022,0.2719477117061615,-0.15089407563209534,0.11164052784442902,-0.010115621611475945,0.04072952643036842,0.06266854703426361,0.23878873884677887,0.20455875992774963,-0.02749847248196602,-0.2069867104291916,-0.21094027161598206,-0.13631966710090637,0.27691876888275146,0.09507600963115692,0.13203904032707214,0.07764238864183426,-0.03174196556210518,-0.17021474242210388,0.12802071869373322,0.06055598333477974,-0.0569075271487236,-0.19418863952159882,-0.11367416381835938,-0.0037268223240971565,0.09408751875162125,0.08303242176771164,0.10243739187717438,-0.20557810366153717,-0.22397637367248535,0.13096927106380463,0.0666230097413063,-0.021913357079029083,0.10002735257148743,-0.14420273900032043,-0.03648354485630989,-0.22930878400802612,0.11897173523902893,0.12614725530147552,-0.06850610673427582,0.1695050150156021,0.16271381080150604,0.23021574318408966,0.1008254811167717,0.21957039833068848,0.02636081539094448,0.07419829070568085,-0.00010612539335852489,-0.11903086304664612,0.166523739695549,-0.10879909992218018,-0.06356822699308395,-0.1408056914806366,-0.1722669154405594,-0.1386231780052185,0.09699570387601852,0.14657650887966156,-0.026372093707323074,-0.005618976429104805,0.052174363285303116,0.07788439095020294,-0.16552510857582092,0.013783348724246025,-0.0054879747331142426,-0.07777752727270126,0.13853570818901062,-0.017605464905500412,0.15908050537109375,0.022956719622015953,-0.004852402489632368,-0.0013955187750980258,-0.10479825735092163,0.009819419123232365,0.013648870401084423,-0.04497120529413223,0.08941908925771713,-0.06651965528726578,-0.02611604519188404,0.08740326762199402,-0.013201569207012653,0.17997044324874878,0.026404865086078644,-0.13945049047470093,-0.09163149446249008,0.08861207216978073,-0.10938571393489838,0.06834661960601807,0.14008045196533203,-0.11663198471069336,-0.06938551366329193,-0.03856884688138962,-0.08582168072462082,-0.048847272992134094,-0.06706669926643372,-0.09882624447345734,0.04761466011404991,0.0029160892590880394,-0.23966021835803986,-0.04091103374958038,0.11746558547019958,-0.1326018124818802,-0.05815546587109566,-0.17140112817287445,-0.0766250267624855,0.1679343432188034,-0.2197282314300537,-0.004853135906159878,-0.12325132638216019,-0.020202336832880974,-0.026371505111455917,0.17546018958091736,-0.0025266390293836594,-0.14237463474273682,0.043518662452697754,0.010592754930257797,0.031211141496896744,-0.02153569459915161,-0.13814862072467804,0.09908442199230194,-0.0031798859126865864,-0.03590012341737747,-0.1405143290758133,0.11605755239725113,0.13404564559459686,-0.011895997449755669,0.08659034222364426,0.0716799944639206,0.025649869814515114,0.06712359189987183,0.13352075219154358,-0.11124897748231888,-0.09447236359119415,-0.10358314216136932,0.09385491162538528,-0.037833571434020996,-0.03352599963545799,-0.03581993281841278,0.0716874897480011,-0.14006249606609344,0.06708958745002747,0.08436666429042816,0.06550988554954529,0.1066809892654419,-0.06329962611198425,0.08412010967731476,-0.1284714639186859,0.5720056295394897,-0.35779863595962524,-0.1169515997171402,-0.15040840208530426,0.00859892275184393,0.12819190323352814,0.028945082798600197,-0.03554895520210266,-0.1994781494140625,-0.0390409380197525,-0.08202869445085526,-0.16295774281024933,0.11964010447263718,0.22232934832572937,-0.07335758209228516,-0.03930657356977463,-0.017263449728488922,-0.15494398772716522,-0.02947121299803257,-0.04536580666899681,0.16800086200237274,0.15162841975688934,-0.19671694934368134,-0.0029810573905706406,-0.017945539206266403,0.16937945783138275,0.3918241858482361,0.23102882504463196,-0.10499110072851181,-0.02256264165043831,-0.12037569284439087,0.10816434770822525,-0.018262235447764397,0.02987630106508732,-0.23724736273288727,-0.2956480383872986,-0.01678500324487686,0.0862206295132637,-0.14985822141170502,0.07447837293148041,0.16670089960098267,-0.24841143190860748,-0.1439729779958725,0.2129027396440506,-0.030333636328577995,0.06067816540598869,0.137175515294075,0.21259623765945435,-0.008297928608953953,-0.04613853618502617,-0.14811643958091736,-0.04108349233865738,-0.08552337437868118,0.025096949189901352,0.24831724166870117,0.05710408836603165,0.1169506087899208,0.00151820108294487,-0.12386362254619598,0.17657321691513062,0.0891096293926239,-0.22112442553043365,-0.07923267036676407,-0.07991857081651688,-0.26363125443458557,0.1422247737646103,-0.19243060052394867,-0.4050915241241455,-0.21984070539474487,-0.31036290526390076,0.45048820972442627,0.07654993236064911,0.018376365303993225,0.05081578716635704,-0.18519745767116547,-0.14045530557632446,0.3938763737678528,0.06563308089971542,0.11708974838256836,-0.15734562277793884,-0.34938859939575195,-0.24531547725200653,-0.1699093133211136,0.3204393684864044,0.3986275792121887,-0.09747620671987534,0.2746739387512207,0.05775713548064232,-0.1344122737646103,0.1690109521150589,-0.0811678022146225,-0.12543779611587524,0.1853853315114975,0.06588492542505264,-0.2390320748090744,-0.12076346576213837,-0.24412848055362701,-0.30300214886665344,-0.16573314368724823,-0.062050413340330124,-0.055505406111478806,-0.11533467471599579,-0.05715397372841835,0.04679521173238754,0.006250352598726749,0.12665294110774994,0.06185123324394226,0.03688206151127815,-0.028839047998189926,0.01960742473602295,-0.05944104865193367,0.03839447721838951,0.01817287504673004,-0.06839042901992798,0.06769679486751556,0.08430229872465134,0.06088785082101822,-0.16551652550697327,-0.10290013253688812,0.06864026188850403,0.16160310804843903,0.12876205146312714,0.2444012463092804,-0.1088651493191719,-0.005678707733750343,-0.0644095316529274,0.04650479555130005,0.04930753633379936,0.11256685853004456,-0.172873392701149,0.08191442489624023,-0.11875437945127487,0.1566125452518463,-0.0025074041914194822,-0.11055804789066315,0.18090082705020905,-0.048765815794467926,-0.1956263780593872,0.054709043353796005,-0.014815096743404865,0.055102862417697906,0.17243172228336334,-0.09034315496683121,-0.10775318741798401,0.005710357800126076,-0.297338604927063,0.05314513295888901,-0.03186521679162979,0.10160163789987564,-0.21547341346740723,-0.2611132860183716,-0.1525682955980301,-0.039268847554922104,0.3193396031856537,-0.049798306077718735,-0.1904689520597458,-0.10165470838546753,0.12037991732358932,0.0399663932621479,-0.07377555221319199,0.06174793839454651,-0.13589578866958618,0.09804004430770874,0.015624605119228363,0.22004327178001404,0.23419857025146484,-0.12153439968824387,0.06357917934656143,0.04634108394384384,0.09654102474451065,0.214143306016922,0.30394673347473145,-0.0654573068022728,-0.1391230970621109,-0.30189988017082214,-0.04181608930230141,0.03505171090364456,-0.02011319063603878,0.23694343864917755,-0.13366441428661346,-0.19274857640266418,0.058516617864370346,0.1663949191570282,-0.24218817055225372,0.025251265615224838,-0.06401479244232178,-0.08881743252277374,0.059312064200639725,-0.15868067741394043,0.026873819530010223,-0.057422686368227005,-0.17139576375484467,-0.3281017243862152,0.14476555585861206,0.3732643127441406,0.16383430361747742,0.14923888444900513,-0.11764270812273026,0.16520372033119202,-0.13277794420719147,0.07278019934892654,0.02613232471048832,0.10751775652170181,-0.04434238746762276,0.15454520285129547,0.03222597390413284,0.01747838407754898,0.11549350619316101,-0.10283156484365463,-0.05407712981104851,0.0423702672123909,0.03488545119762421,0.07265345752239227,-0.286031574010849,0.05005498230457306,0.03164176642894745,0.12582692503929138,-0.1709621697664261,0.16432638466358185,-0.2676145136356354,-0.1122087836265564,-0.1872968226671219,0.03008928894996643,-0.03348465636372566,-0.05009199678897858,0.09336037933826447,0.12095742672681808,-0.08691893517971039,0.23968425393104553,-0.08852245658636093,-0.18310166895389557,0.11940096318721771,-0.04308302700519562,-0.16212254762649536,-0.02286553755402565,0.06851020455360413,-0.02345268428325653,0.15452443063259125,-0.07606984674930573,-0.1021532341837883,0.0848279669880867,-0.1289263218641281,0.03707003593444824,0.12251962721347809,0.06418993324041367,0.12194659560918808,0.4777192175388336,-0.3355768322944641,0.112481988966465,0.024999910965561867,0.43387115001678467,0.21467402577400208,0.15093016624450684,0.01258959248661995,-0.08785594999790192,0.018868017941713333,0.1604214906692505,0.21377147734165192,0.0537966787815094,0.030586855486035347,-0.07783892005681992,-0.47018173336982727,0.24595291912555695,0.4030293822288513,-0.7881874442100525,0.21059328317642212,-0.7946040630340576,-0.38686951994895935,-0.3376012444496155,0.8266217708587646,-1.0462692975997925,-0.6348418593406677,-0.8526698350906372,0.5001117587089539,-0.9638376832008362,0.12381172180175781,-0.7525068521499634,-0.04370081052184105,-0.18493309617042542,-0.05028105527162552,0.10968188941478729,0.1701475828886032,0.08218131959438324,-0.02342074178159237,-0.10066784918308258,-0.20124787092208862,0.034201182425022125,0.15151023864746094,0.0421152301132679,0.08636476844549179,-0.02643614076077938,-0.08142910897731781,-0.001365654170513153,-0.009923595003783703,-0.2012646347284317,-0.0998065248131752,0.021135952323675156,-0.20601190626621246,0.24363099038600922,0.05980851501226425,-0.21421362459659576,0.20845289528369904,-0.15105530619621277,0.09055321663618088,0.16066473722457886,0.05609907582402229,0.052147142589092255,0.09896472841501236,0.15658916532993317,-0.07190603762865067,-0.26402056217193604,-0.10018350929021835,0.49624887108802795,0.41103091835975647,0.18787196278572083,0.2257620394229889,0.10803348571062088,-0.1404750943183899,-0.021133488044142723,-0.29764440655708313,-0.1509837806224823,-0.03157224878668785,0.28858688473701477,0.26462092995643616,0.005979974754154682,0.1958412379026413,-0.0440959669649601,-0.2281954139471054,-0.1929718554019928,-0.2666250765323639,-0.01902429200708866,-0.030968723818659782,-0.010365860536694527,-0.11939071118831635,0.10125202685594559,0.09922844916582108,0.4247152507305145,0.18899469077587128,-0.008014501072466373,0.07948540151119232,0.10494530200958252,0.18325482308864594,-0.10991228371858597,-0.09686022251844406,0.29890507459640503,0.5809903740882874,-0.1128692477941513,0.28574642539024353,0.2958875298500061,0.20804789662361145,-0.08535619080066681,-0.18132591247558594,0.3344370126724243,0.03216559812426567,-0.2682171165943146,0.06261889636516571,-0.30877184867858887,-0.20124615728855133,0.009895840659737587,-0.09166445583105087,-0.11600073426961899,0.22604721784591675,-0.2586630582809448,0.09664987027645111,0.18846416473388672,0.08572681248188019,-0.01688232831656933,-0.14425097405910492,0.03496268391609192,-0.28325992822647095,-0.21289929747581482,0.15775196254253387,-0.12554475665092468,0.1552906334400177,0.0003849961212836206,0.09173264354467392,-0.26662778854370117,-0.010354029014706612,0.30845823884010315,-0.4424644708633423,-0.1523481160402298,0.014892037026584148,0.07498805969953537,-0.16368739306926727,0.017834186553955078,-0.016289817169308662,0.2370799034833908,-0.10407493263483047,0.3571520447731018,-0.01691732369363308,0.22705507278442383,0.29060089588165283,0.13705046474933624,0.2698274254798889,-0.3446939289569855,-0.1158117726445198,0.14476677775382996,0.0009567311499267817,0.05910661444067955,-0.26144492626190186,0.1100059449672699,-0.18582403659820557,0.1235351637005806,0.15807758271694183,-0.041758425533771515,0.18594036996364594,-0.42780306935310364,-0.5536686778068542,0.16120728850364685,-0.2905391454696655,0.20019054412841797,0.062197908759117126,-0.5967922806739807,0.2865140438079834,0.40244412422180176,0.22890006005764008,-0.6258125305175781,0.30648332834243774,0.42293620109558105,-0.2552851736545563,0.6207132339477539,-0.15794897079467773,0.18444295227527618,0.1681188941001892,0.3307631313800812,0.41620245575904846,-0.33418574929237366,0.18577934801578522,0.2520989179611206,-0.10069029033184052,-0.1386706382036209,-0.016007401049137115,0.4607572555541992,0.01908479817211628,0.1184549555182457,0.23919175565242767,-0.2591933012008667,-0.0482846274971962,-0.18109560012817383,-0.34055498242378235,-0.037261370569467545,-0.09540732949972153,0.09731978923082352,-0.09968232363462448,0.04391380026936531,0.044158563017845154,0.23406529426574707,-0.10217773914337158,0.05717404931783676,0.09207404404878616,0.1827048510313034,-0.0773472785949707,0.18287618458271027,0.08872412890195847,0.2720102369785309,-0.31964513659477234,-0.1248842254281044,-0.365045428276062,-0.03189025819301605,-0.031364861875772476,0.027564138174057007,-0.2961783707141876,0.1773867905139923,0.2729851305484772,-0.2217668741941452,-0.12118680775165558,0.052130505442619324,0.06463732570409775,0.024176307022571564,-0.12164220213890076,-0.3243904113769531,-0.24847351014614105,0.6170477867126465,0.058074191212654114,-0.01281366590410471,-0.12373484671115875,0.06076011806726456,0.011102860793471336,0.04819503054022789,-0.22443774342536926,-0.1435377299785614,0.2512224614620209,-0.11331163346767426,-0.06739581376314163,0.022168798372149467,0.3526971638202667,-0.440294474363327,-0.5654613971710205,0.42393049597740173,-0.2881743609905243,0.2993452250957489,-0.005097715649753809,-0.45115166902542114,0.3940584361553192,0.6012576222419739,0.2173464000225067,-0.3729468882083893,0.5621016621589661,0.09407491981983185,-0.03994864970445633,0.1335655152797699,-0.02190922200679779,0.36134082078933716,-0.044554587453603745,0.03860505670309067,-0.2921983003616333,-0.06736024469137192,0.0608304925262928,0.02131553553044796,-0.1130514070391655,0.10996877402067184,-0.1655898094177246,0.032586365938186646,-0.2835797965526581,0.3942073583602905,0.2208677977323532,0.16984689235687256,0.17504802346229553,-0.19634073972702026,-0.17014791071414948,-0.16067777574062347,-0.41192352771759033,0.2134835422039032,-0.04804353415966034,0.22576400637626648,-0.01837894320487976,-0.18693119287490845,0.16263580322265625,0.17062968015670776,-0.2657320499420166,0.31839632987976074,-0.1300533413887024,-0.10629000514745712,-0.16539005935192108,-0.0661967322230339,-0.06592854112386703,-0.1290144920349121,-0.25925976037979126,0.00025957755860872567,0.19701379537582397,0.2690909504890442,-0.18374602496623993,0.058486007153987885,0.011570041999220848,-0.09805009514093399,0.021902911365032196,-0.5282347798347473,0.008057073689997196,-0.02678907848894596,-0.0842851921916008,0.06834690272808075,0.03265852481126785,-0.050295282155275345,-0.1910359114408493,-0.04733339697122574,-0.10470911115407944,-0.15000179409980774,-0.05798196420073509,-0.07543979585170746,-0.26104775071144104,-0.20552727580070496,-0.01371130719780922,-0.24979890882968903,-0.07102546095848083,0.07588984072208405,0.07268950343132019,-0.03891558200120926,-0.04865807667374611,0.02227955497801304,0.11783802509307861,0.03194929659366608,0.041647039353847504,-0.16118104755878448,-0.0539240799844265,0.1868407428264618,0.09879161417484283,0.027935229241847992,0.016578108072280884,-0.07585234940052032,-0.10166892409324646,0.0573217049241066,-0.006755610462278128,0.041017018258571625,0.044007886201143265,-0.010961868800222874,-0.08871294558048248,-0.05814891308546066,0.05895917862653732,-0.16085441410541534,0.10696341842412949,-0.030231477692723274,0.19487108290195465,-0.14112211763858795,-0.40442705154418945,0.2293134480714798,-0.2676437795162201,-0.06082865968346596,-0.026690812781453133,-0.08269377797842026,0.040970224887132645,-0.010464869439601898,0.2309691160917282,-0.12596681714057922,0.2086256444454193,0.18253694474697113,0.11247117817401886,0.08821989595890045,0.011932481080293655,-0.11419638991355896,0.21410521864891052,0.03342369571328163,-0.09695319831371307,-0.06447426229715347,0.010719208978116512,-0.06791415065526962,0.10831434279680252,-0.0666237398982048,0.10741111636161804,-0.16082891821861267,-0.14052096009254456,0.0035215907264500856,0.08676522970199585,0.015300893224775791,-0.19119195640087128,0.04905666783452034,0.09361575543880463,0.13172154128551483,0.2576683461666107,0.11817988753318787,-0.01628137193620205,-0.010515178553760052,-0.049189239740371704,-0.04737729951739311,0.005633815191686153,0.12248461693525314,-0.11705007404088974,0.07686351239681244,0.04853413254022598,-0.17554700374603271,0.17759878933429718,0.19606170058250427,0.2264353185892105,0.12863610684871674,0.1384979784488678,0.0070085846818983555,0.11685001850128174,-0.13536915183067322,-0.1875644475221634,0.13110443949699402,0.012702579610049725,-0.20996545255184174,0.1971065104007721,0.12156471610069275,-0.0033601359464228153,-0.13077624142169952,0.04747611656785011,0.023516066372394562,-0.0949411392211914,-0.06577280908823013,-0.007253930438309908,-0.023108458146452904,-0.00866723246872425,0.07036392390727997,0.08877162635326385,0.16229423880577087,0.0010331504745408893,-0.14910253882408142,0.038795650005340576,0.13318532705307007,0.12283919751644135,0.015845105051994324,-0.08558318763971329,-0.10071578621864319,-0.0040024565532803535,-0.03704429790377617,0.01554871629923582,0.13531233370304108,-0.11713626235723495,0.06856206804513931,0.13307544589042664,0.057784631848335266,0.14804530143737793,0.008869357407093048,-0.07454685866832733,0.0795222595334053,0.030757345259189606,-0.08446639031171799,-0.01042288076132536,-0.0024009852204471827,0.009243200533092022,-0.18719205260276794,0.0015769398305565119,0.07563657313585281,-0.0548832006752491,-0.08514632284641266,0.011328579857945442,-0.032934144139289856,0.14726439118385315,-0.13743583858013153,0.11466034501791,0.09811758249998093,-0.27374282479286194,0.15562348067760468,0.006450532004237175,-0.2577897310256958,0.09741298109292984,-0.11378194391727448,-0.22903309762477875,-0.09812217205762863,-0.05737555772066116,0.29506444931030273,0.20661625266075134,0.06552964448928833,-0.170077383518219,-0.11602238565683365,-0.003308985847979784,0.28890272974967957,0.08021454513072968,0.07080258429050446,-0.12348730862140656,-0.1585855484008789,-0.10310900211334229,0.08811520785093307,0.14991652965545654,0.08642929792404175,-0.19116328656673431,0.18974535167217255,-0.01611427590250969,-0.16977451741695404,0.09569969773292542,-0.03206317499279976,-0.20118874311447144,0.22337424755096436,0.002099162433296442,-0.13206052780151367,-0.027638118714094162,-0.255780428647995,0.1331639587879181,-0.04986697435379028,0.04205448552966118,-0.07667650282382965,-0.02596202865242958,-0.14828437566757202,0.0945964828133583,-0.0934472382068634,0.05015932023525238,0.2148132622241974,-0.07233503460884094,0.025157442316412926,0.049409519881010056,-0.049783069640398026,0.12065622955560684,0.030431579798460007,-0.1651069074869156,0.034781038761138916,0.05231910198926926,0.09011690318584442,0.1363416463136673,-0.18377862870693207,-0.1917320191860199,-0.1320820450782776,0.18365518748760223,0.07398192584514618,-0.03671206533908844,-0.11078909039497375,-0.07905738800764084,-0.18228380382061005,0.2624678611755371,0.17248423397541046,0.16134896874427795,-0.13864773511886597,-0.2069901078939438,-0.11003773659467697,0.24501784145832062,-0.015421208925545216,0.016272801905870438,-0.025636756792664528,-0.17109332978725433,0.031348809599876404,0.15483693778514862,-0.1838214248418808,-0.1515529900789261,0.33016660809516907,0.035663120448589325,-0.09882251918315887,0.08547647297382355,0.10430894792079926,-0.1322939544916153,0.014298572205007076,0.12173480540513992,-0.1567007601261139,-0.26109376549720764,0.06093407794833183,0.034203287214040756,-0.05786965414881706,-0.061374399811029434,-0.07940401136875153,-0.15202511847019196,-0.06979825347661972,-0.08681191504001617,0.06672346591949463,-0.09219595044851303,-0.042293731123209,-0.02209487371146679,-0.1532849669456482,-0.10410556942224503,0.08987383544445038,-0.04840241000056267,0.14132671058177948,0.02290475182235241,-0.10467487573623657,-0.1275096982717514,0.1442190259695053,0.09931933134794235,-0.0033245887607336044,-0.18578843772411346,-0.12496235221624374,-0.03093629702925682,0.0434488020837307,0.09380698949098587,0.07769198715686798,-0.037501610815525055,0.03191843628883362,0.160883367061615,0.080611452460289,0.1577376425266266,-0.08822275698184967,-0.1515912264585495,0.018619650974869728,0.07344627380371094,-0.02958035096526146,-0.09289328008890152,0.057638514786958694,0.020502187311649323,0.1008816733956337,0.10344935953617096,-0.012782705947756767,-0.09233636409044266,-0.04963092878460884,0.043283604085445404,0.10622165352106094,-0.10885416716337204,0.181256964802742,0.03159196674823761,-0.07842013239860535,0.004635592456907034,-0.011326679959893227,0.10166312754154205,0.241547092795372,-0.06414704769849777,0.03202623873949051,0.1793416142463684,-0.017851240932941437,0.16030193865299225,-0.0834161788225174,-0.002608375856652856,-0.07065394520759583,-0.04412844032049179,0.15399691462516785,0.12936615943908691,-0.2810615599155426,-0.1301332414150238,-0.08616292476654053,0.24679002165794373,-0.057535599917173386,0.19982066750526428,-0.22380495071411133,-0.24818481504917145,-0.046740952879190445,0.012989684008061886,-0.1256105601787567,-0.2183312326669693,0.05762659013271332,-0.14008739590644836,-0.13744603097438812,0.21011322736740112,-0.047586146742105484,-0.1378784030675888,0.19542185962200165,-0.19794072210788727,0.000009428538760403171,0.20010410249233246,0.25194406509399414,-0.2240968942642212,0.273493230342865,0.04477732256054878,0.07121649384498596,-0.1855909526348114,0.08082810044288635,-0.059476979076862335,0.19850294291973114,-0.1195281594991684,0.14667151868343353,-0.0991857722401619,-0.165723517537117,-0.14921532571315765,0.11998363584280014,-0.17342717945575714,0.07879846543073654,-0.08217426389455795,0.00762580893933773,0.11256788671016693,-0.039216428995132446,-0.03017687238752842,-0.11643838882446289,0.11308106780052185,-0.015116105787456036,0.14521759748458862,-0.07606598734855652,0.022105617448687553,0.015427921898663044,-0.007700861431658268,-0.09303082525730133,0.11720933020114899,-0.24895893037319183,0.0029180077835917473,-0.17196771502494812,0.021838786080479622,-0.068455770611763,-0.16524606943130493,-0.16611185669898987,0.017447369173169136,0.04780716449022293,0.21008360385894775,-0.17902091145515442,-0.1380760371685028,0.1460464894771576,0.050666242837905884,-0.0064805434085428715,-0.19035084545612335,0.0644499808549881,-0.288297176361084,0.06205461546778679,-0.23449426889419556,-0.2970900535583496,-0.004868274554610252,0.005519238766282797,-0.05414040759205818,0.24303080141544342,-0.03664702922105789,-0.07364960759878159,-0.1378157138824463,-0.1767185628414154,0.13020624220371246,0.1548972874879837,-0.42334216833114624,-0.3004840910434723,-0.11222140491008759,0.04838075116276741,-0.11462122946977615,-0.18239428102970123,0.1009303629398346,-0.05727856978774071,0.09612049907445908,0.20397835969924927,-0.004984235856682062,-0.09958973526954651,0.02447076514363289,-0.11144980043172836,0.1951567381620407,0.029774943366646767,0.05053812637925148,-0.11613518744707108,-0.04028958082199097,-0.01731492020189762,0.004286931827664375,0.16622821986675262,0.30829545855522156,0.04586416110396385,-0.27726343274116516,-0.030315537005662918,0.07013232260942459,-0.08973530679941177,-0.17309141159057617,0.2458045780658722,0.19649018347263336,0.28381651639938354,-0.2041529417037964,0.20381808280944824,0.28955110907554626,0.23725128173828125,-0.21931633353233337,-0.19444826245307922,-0.11186196655035019,-0.0045693120919167995,0.10047260671854019,0.17916950583457947,-0.05529799312353134,-0.1029314175248146,0.16221760213375092,-0.100955069065094,-0.02276994101703167,-0.05293193459510803,-0.19531770050525665,-0.0901269018650055,0.04568128660321236,-0.04106752946972847,0.013404520228505135,-0.23817670345306396,-0.18163229525089264,-0.02876817248761654,-0.08740302920341492,0.12265970557928085,-0.0773751437664032,-0.21855202317237854,-0.10673211514949799,-0.21612268686294556,0.22791101038455963,0.16084814071655273,-0.054177746176719666,-0.14314107596874237,-0.02627379819750786,-0.045457370579242706,0.11064783483743668,0.004248562268912792,0.2083994299173355,0.047923069447278976,-0.11083153635263443,-0.05959251895546913,0.05782249569892883,-0.14175590872764587,-0.22229072451591492,0.16239334642887115,0.007165553513914347,0.12744098901748657,-0.20716072618961334,0.055964335799217224,0.016136981546878815,0.007403151597827673,0.03693272918462753,0.04501050338149071,-0.03662840276956558,0.0596478171646595,0.1439858376979828,-0.043345704674720764,0.15514515340328217,0.12464670836925507,0.031113699078559875,0.13007168471813202,0.12233245372772217,-0.02719816006720066,0.28353720903396606,-0.12195803225040436,-0.01072844211012125,-0.06768055260181427,-0.023449182510375977,0.12345105409622192,0.12388233095407486,0.2056310921907425,-0.20141780376434326,-0.07051323354244232,0.008467904292047024,0.15090224146842957,0.09176450222730637,0.19284816086292267,-0.13998255133628845,-0.11665508896112442,-0.06010838970541954,0.24398940801620483,0.17657075822353363,0.05854395031929016,-0.10717495530843735,0.09209424257278442,-0.06821073591709137,-0.07089818269014359,0.18413032591342926,0.07767072319984436,-0.14309735596179962,0.2075284719467163,-0.0618259534239769,-0.27805641293525696,-0.0808463916182518,-0.004348911345005035,-0.05245298147201538,-0.0014832047745585442,-0.07700110971927643,-0.1785903424024582,0.009287345223128796,-0.22197161614894867,0.030202634632587433,-0.09367620199918747,0.09406532347202301,0.05097502842545509,0.15583941340446472,-0.07756149023771286,0.027208924293518066,-0.28557297587394714,-0.07044722139835358,-0.08504221588373184,-0.2926363945007324,-0.19405879080295563,-0.15625028312206268,-0.09774386882781982,-0.09723234921693802,0.03629692271351814,0.048604581505060196,0.13162876665592194,0.14839953184127808,0.21562907099723816,-0.0007017278694547713,-0.033559393137693405,-0.07512658089399338,0.06738908588886261,-0.07930706441402435,-0.20068258047103882,-0.15462200343608856,-0.1464216560125351,-0.02018319070339203,-0.09829311072826385,-0.057938527315855026,0.13498708605766296,-0.10112058371305466,-0.008412578143179417,-0.022938033565878868,-0.10218819230794907,-0.05578742176294327,-0.09456682205200195,-0.1398361474275589,0.13390405476093292,0.01108291931450367,-0.09980610758066177,0.09689848870038986,-0.17674659192562103,-0.16527079045772552,-0.22989608347415924,0.08334220945835114,0.14514756202697754,0.17827129364013672,0.17630021274089813,-0.020982595160603523,-0.31735914945602417,-0.05680728703737259,0.016235917806625366,0.08805739879608154,0.07130144536495209,-0.047570377588272095,-0.0964413732290268,0.3158794045448303,0.21096226572990417,0.15772810578346252,-0.05400129780173302,0.038303401321172714,0.10405289381742477,-0.17368042469024658,0.14984650909900665,-0.14931298792362213,-0.04389403387904167,-0.11839413642883301,0.11227492988109589,0.06372378766536713,-0.10243434458971024,-0.05241471156477928,-0.0837789848446846,0.10528568923473358,0.2113696187734604,0.14143380522727966,0.10866531729698181,-0.13937795162200928,0.004121410194784403,-0.044975463300943375,0.09309244155883789,-0.04288756474852562,0.10546918958425522,-0.18134534358978271,0.15448647737503052,0.12602674961090088,-0.11792328953742981,-0.02667471207678318,-0.006386116612702608,0.18870902061462402,-0.013510067015886307,-0.0947938784956932,0.014838578179478645,0.0587959885597229,0.005516601726412773,-0.09520956873893738,0.10006533563137054,-0.003415197366848588,-0.13561609387397766,0.16806524991989136,0.10161351412534714,-0.16156116127967834,-0.1137319803237915,-0.020854054018855095,0.06037897616624832,0.037746429443359375,0.14233480393886566,0.08601217716932297,-0.10590767115354538,-0.08071241527795792,0.0149656031280756,0.022233499214053154,0.04986877739429474,-0.03617192059755325,-0.0490938201546669,-0.030162271112203598,0.026311982423067093,0.05065857619047165,0.0991194024682045,-0.10554353892803192,-0.016458844766020775,-0.11174429208040237,0.27213647961616516,0.1378268152475357,0.08192482590675354,-0.22678062319755554,-0.08185157179832458,0.08089125901460648,-0.03683651238679886,-0.01758703589439392,0.11481127887964249,-0.11562339216470718,0.13066799938678741,0.18942692875862122,-0.24129018187522888,-0.14323797821998596,-0.09887371957302094,0.013666622340679169,-0.16164140403270721,0.06348524242639542,-0.0816575288772583,0.17302082479000092,0.2183283567428589,0.000018553464542492293,-0.08572778105735779,-0.5027000904083252,-0.1205315813422203,-0.1353926956653595,0.02954214997589588,0.0470849946141243,-0.08222354203462601,-0.09951457381248474,-0.10463283956050873,-0.1914968192577362,-0.5590976476669312,-0.35042861104011536,-0.008605632930994034,-0.07372265309095383,-0.010570812970399857,0.04208872839808464,0.10735205560922623,-0.14492040872573853,0.019492333754897118,0.12628471851348877,0.30383700132369995,0.13022539019584656,-0.03402926027774811,-0.09449763596057892,0.010067709721624851,0.05331044644117355,0.18924236297607422,-0.031990379095077515,-0.015273608267307281,-0.14003092050552368,-0.21216244995594025,0.1348055601119995,-0.24353089928627014,0.067654088139534,-0.01323402114212513,-0.21387697756290436,0.004237841814756393,-0.14499694108963013,-0.18222936987876892,-0.20869024097919464,-0.044028390198946,-0.037366144359111786,-0.11409960687160492,-0.031222525984048843,-0.26917126774787903,-0.13154064118862152,-0.015894899144768715,0.11034231632947922,-0.06320961564779282,-0.03810443729162216,0.3163567781448364,-0.20561866462230682,0.03515838086605072,0.1770121157169342,-0.1935698688030243,0.007042433135211468,0.2261563092470169,-0.10876043885946274,0.12985283136367798,0.08584494888782501,0.19895359873771667,0.03215647116303444,-0.23311498761177063,0.03091312386095524,-0.0657990500330925,0.14502470195293427,0.17524784803390503,0.15197616815567017,-0.05414522811770439,-0.0765770822763443,-0.11720294505357742,0.14844773709774017,-0.008325878530740738,0.06137336418032646,-0.20812177658081055,-0.17722183465957642,-0.2209450751543045,0.197940394282341,-0.17856840789318085,0.003138747299090028,0.2072409987449646,-0.2455112189054489,0.07029572874307632,0.023118289187550545,-0.144699826836586,0.00860762782394886,0.13181690871715546,0.15628930926322937,0.04884714260697365,-0.04084276780486107,-0.1043643206357956,-0.17286203801631927,0.28799840807914734,0.19296829402446747,0.012722186744213104,0.09111488610506058,-0.05182887241244316,0.06517142802476883,0.035175759345293045,-0.14087113738059998,-0.11012071371078491,0.13742107152938843,0.05215996503829956,0.08164632320404053,0.06089053303003311,-0.15758229792118073,0.08581992983818054,0.05417550355195999,-0.012336569838225842,0.12071669101715088,-0.5640660524368286,0.8104512095451355,0.5317261815071106,-0.5431714653968811,0.029664430767297745,-0.331321656703949,0.05653148144483566,0.48957961797714233,-0.9786566495895386,1.0269197225570679,0.7576324343681335,0.06786331534385681,-0.3685586154460907,0.4658815264701843,-0.7626343369483948,0.22218568623065948,-0.40123796463012695,-0.02130591869354248,-0.4918258488178253,0.41087058186531067,0.07698003947734833,0.42328497767448425,0.24250450730323792,0.27150335907936096,0.3656917214393616,-0.08972126990556717,0.2180042266845703,-0.2849712371826172,-0.10079479962587357,-0.09543817490339279,0.19956980645656586,0.2757214903831482,-0.007417180575430393,-0.0737704336643219,0.22592537105083466,-0.09653549641370773,0.1110764816403389,-0.2503506541252136,-0.2882522642612457,-0.271100252866745,-0.0225672610104084,0.13449305295944214,-0.2556338608264923,0.10150904208421707,0.31501883268356323,0.1423829197883606,-0.2312091737985611,-0.15842893719673157,0.08008250594139099,0.15805287659168243,-0.14650428295135498,0.09402226656675339,0.07273807376623154,-0.34425508975982666,-0.46229007840156555,-0.2288229763507843,0.006119351834058762,-0.03764764592051506,-0.1756266951560974,0.33129632472991943,-0.11968022584915161,-0.07151829451322556,0.019808828830718994,0.20367738604545593,-0.09624547511339188,0.03558771312236786,-0.14242610335350037,-0.024288561195135117,-0.02710641175508499,-0.20577940344810486,0.25246724486351013,0.18792679905891418,0.10555309802293777,0.08600926399230957,0.05410723760724068,0.10958445817232132,0.010123231448233128,0.06607583165168762,0.009717784821987152,0.054349370300769806,-0.1115063726902008,0.2654780447483063,-0.14387862384319305,0.030958985909819603,0.013937187381088734,-0.06583140045404434,-0.05732261762022972,0.2485324740409851,0.1341339349746704,-0.0836140513420105,0.05126361921429634,-0.22508077323436737,-0.11141080409288406,0.17429447174072266,-0.09136681258678436,-0.2893097698688507,-0.08119805157184601,-0.0540207177400589,-0.017321262508630753,-0.04831447824835777,-0.3015742301940918,0.35800373554229736,0.2583480477333069,-0.22751453518867493,-0.2843664288520813,0.046506088227033615,-0.04651189222931862,0.2034180462360382,-0.006202484481036663,0.21890248358249664,-0.01735857129096985,0.17390531301498413,0.051964569836854935,-0.08300439268350601,-0.4248071312904358,0.5207953453063965,-0.1813451498746872,0.13952848315238953,-0.0745035707950592,-0.19917869567871094,0.3346351981163025,-0.03465649113059044,-0.03482858091592789,0.04364901781082153,0.06441580504179001,0.15887893736362457,0.4522005617618561,0.39113572239875793,0.20907950401306152,-0.21920381486415863,0.09208589047193527,-0.005189802497625351,-0.2187032401561737,-0.1457996964454651,-0.23856689035892487,0.0012258455390110612,-0.10608600825071335,0.14171206951141357,0.14087128639221191,-0.07474227249622345,0.15517057478427887,-0.22656041383743286,-0.31400784850120544,-0.46358659863471985,0.35488924384117126,-0.03613563999533653,0.10101110488176346,0.20844772458076477,0.13398370146751404,-0.15593168139457703,0.07135959714651108,-0.13960279524326324,0.16938744485378265,-0.10182180255651474,-0.13642965257167816,0.06960299611091614,-0.02439304254949093,0.16343973577022552,0.15360301733016968,0.31702277064323425,-0.15555889904499054,-0.3404180705547333,0.21731163561344147,0.03434378653764725,-0.07327800989151001,-0.19347412884235382,-0.12958763539791107,-0.12498505413532257,-0.11460403352975845,0.14579659700393677,-0.057356737554073334,-0.032673075795173645,-0.037704139947891235,0.14302051067352295,-0.20143578946590424,0.30434536933898926,-0.3239332437515259,-0.1623300015926361,-0.7727939486503601,0.5264697074890137,-0.25276628136634827,0.27278777956962585,0.017734428867697716,0.3109886348247528,0.26312321424484253,-0.4669123589992523,0.07548023015260696,-0.043696846812963486,-0.29228630661964417,0.06771671772003174,0.6293668746948242,0.14872029423713684,0.09013152122497559,0.02824336290359497,0.11370684206485748,0.05733271315693855,0.2470877468585968,0.35887226462364197,0.06812042742967606,-0.04243364557623863,-0.15954644978046417,-0.10666660964488983,0.26333844661712646,-0.26825249195098877,-0.20933222770690918,0.020496053621172905,0.19847626984119415,-0.4955243766307831,-0.22872045636177063,-0.023831842467188835,-0.17340034246444702,0.14424166083335876,0.11467906087636948,-0.13081976771354675,-0.2567049562931061,-0.09562217444181442,0.06657308340072632,-0.25762906670570374,-0.013053239323198795,0.11108777672052383,0.13298948109149933,-0.006535069085657597,-0.0008713665301911533,-0.29598483443260193,0.15438158810138702,-0.2026679664850235,-0.19131334125995636,0.14197729527950287,-0.062054622918367386,0.21085408329963684,-0.13891184329986572,0.0465291403234005,0.23068302869796753,-0.001787288230843842,-0.43617841601371765,0.022205311805009842,0.10941833257675171,-0.11875300109386444,0.23484107851982117,-0.05024576932191849,0.1189374253153801,-0.07336998730897903,0.14701125025749207,-0.3172597885131836,-0.055281106382608414,-0.0003794246877077967,-0.2379169911146164,0.1271618753671646,0.11044655740261078,0.08844224363565445,0.1522805541753769,-0.08569826185703278,0.053152620792388916,0.011831708252429962,-0.34185221791267395,-0.2957519292831421,0.15523836016654968,0.19963620603084564,-0.03333303704857826,-0.4153439998626709,0.1568184345960617,-0.23995184898376465,-0.33248603343963623,-0.030478322878479958,-0.08766944706439972,0.4003097712993622,0.18815338611602783,-0.08015628904104233,0.1617399901151657,-0.07459651678800583,-0.1266791671514511,0.12430308759212494,-0.001230668625794351,-0.16445526480674744,0.04209046810865402,-0.1390029340982437,0.007125061005353928,0.2464676797389984,0.10548491775989532,-0.44996654987335205,-0.08766520023345947,0.0933278501033783,0.28286102414131165,0.09697222709655762,-0.011160958558321,0.044510744512081146,-0.06635267287492752,0.08684417605400085,-0.0016010936815291643,-0.10640494525432587,0.18317927420139313,0.12160231918096542,0.10710465162992477,0.1429557502269745,0.06083092838525772,-0.031234685331583023,0.06235178932547569,0.1715981811285019,0.04823850840330124,0.1395946592092514,-0.006095766089856625,-0.10235429555177689,-0.008058823645114899,-0.07046369463205338,0.30078691244125366,0.019293248653411865,-0.12890343368053436,-0.21286262571811676,-0.3327384889125824,-0.11352281272411346,0.15191002190113068,0.18112964928150177,-0.020305778831243515,-0.2180347889661789,-0.09879329055547714,0.01967495307326317,0.14953528344631195,-0.19287699460983276,0.024421561509370804,-0.03614460304379463,-0.048727862536907196,-0.16104649007320404,-0.2510809600353241,-0.05601697787642479,0.07247262448072433,-0.19917237758636475,0.1732027381658554,0.09724055975675583,-0.29362234473228455,-0.10763993114233017,-0.14373120665550232,0.05199512466788292,0.1100483164191246,-0.015164149925112724,-0.08038293570280075,-0.15752054750919342,0.28486084938049316,-0.08699698746204376,0.5060241222381592,-0.16760237514972687,-0.1315458118915558,0.02231667935848236,-0.11794126033782959,0.021584833040833473,-0.10939094424247742,0.11936840415000916,0.043455708771944046,-0.18856307864189148,0.10773637890815735,0.05461737513542175,-0.02485300414264202,-0.25127357244491577,0.01667039468884468,-0.19484902918338776,0.19246967136859894,0.022226909175515175,-0.03038565069437027,-0.13943825662136078,-0.010586442425847054,0.09278526157140732,0.18683001399040222,-0.1556616872549057,-0.026500524953007698,0.07294821739196777,0.21821771562099457,-0.397756427526474,0.35476163029670715,-0.010997706092894077,0.015240559354424477,0.05698288604617119,-0.192996546626091,-0.04234142228960991,0.055450305342674255,0.007089778780937195,-0.09399866312742233,0.18728916347026825,-0.22431698441505432,0.1592501848936081,0.07028593122959137,0.09103379398584366,0.10982797294855118,0.10290965437889099,-0.077567920088768,-0.08329914510250092,0.11866884678602219,-0.01741185411810875,0.31381887197494507,-0.08595582097768784,-0.06984388083219528,-0.16262440383434296,-0.07424783706665039,0.04428241029381752,-0.05879727378487587,0.10647040605545044,-0.10857407748699188,0.09811689704656601,0.0506400465965271,-0.05823085084557533,-0.27422764897346497,-0.26087409257888794,0.078592449426651,0.035326290875673294,0.2628813087940216,-0.09168994426727295,0.031107626855373383,-0.13562297821044922,0.1470632255077362,-0.026508541777729988,0.08433999121189117,-0.11127833276987076,0.05255543068051338,-0.12821874022483826,0.16572393476963043,-0.025564469397068024,0.47244155406951904,-0.2841474711894989,-0.07599874585866928,0.06972015649080276,-0.058209002017974854,-0.06286964565515518,0.05622713640332222,-0.10457243770360947,-0.07498721778392792,0.05104098096489906,-0.20555651187896729,0.10871385037899017,-0.2444147914648056,0.15536890923976898,-0.02288525365293026,0.06411752104759216,0.04960831627249718,0.14265176653862,0.3325268626213074,-0.2089773267507553,0.014565953053534031,-0.06617894023656845,0.2437715083360672,0.08906062692403793,0.072516068816185,-0.0409243181347847,0.040667496621608734,0.09511104971170425,-0.14230036735534668,0.12634313106536865,0.23130980134010315,-0.2020682841539383,-0.13191835582256317,-0.26096102595329285,0.11906541883945465,0.22767315804958344,0.15130813419818878,0.04108599200844765,0.031652312725782394,-0.0719367265701294,0.2333356738090515,0.04776524752378464,-0.08186560869216919,-0.2747795283794403,-0.16663584113121033,-0.06319959461688995,0.20100335776805878,0.23415064811706543,0.553548276424408,-0.3019179403781891,0.11121371388435364,0.2558951675891876,-0.0015784254064783454,-0.0014633438549935818,0.20978832244873047,-0.13916534185409546,0.080413818359375,0.16596530377864838,-0.257425993680954,-0.17907756567001343,-0.05920368432998657,0.12274119257926941,-0.09760301560163498,0.04524031654000282,-0.08472325652837753,0.18163762986660004,0.09814397245645523,-0.03370244428515434,0.19512498378753662,0.06953562051057816,-0.08136400580406189,-0.10311761498451233,0.11100313067436218,-0.20471520721912384,0.146785169839859,0.0007275976822711527,-0.00259644933976233,-0.01131469663232565,-0.07073837518692017,-0.3187049925327301,-0.15091164410114288,0.03228848800063133,0.18672168254852295,-0.05380573496222496,-0.05392361804842949,0.04577705264091492,0.041964273899793625,-0.010954414494335651,-0.04612971097230911,-0.06100146472454071,0.1967502236366272,-0.12165877968072891,-0.1453544795513153,-0.11111440509557724,0.007718132808804512,0.2049129754304886,0.2745130658149719,-0.06813930720090866,0.01236766204237938,-0.05572624132037163,-0.06771280616521835,-0.17237567901611328,0.048047784715890884,-0.08868300914764404,-0.08200588077306747,0.018311461433768272,-0.10640446841716766,0.16161490976810455,0.004980097524821758,0.005697711370885372,0.14542436599731445,-0.048644378781318665,-0.020374495536088943,-0.06799906492233276,-0.33513444662094116,0.20003589987754822,-0.25739848613739014,0.128541499376297,-0.2371271401643753,-0.0660388246178627,0.2900294065475464,0.15696892142295837,-0.1385878622531891,-0.12643040716648102,-0.048481713980436325,0.38277024030685425,-0.07835391163825989,-0.005976889282464981,-0.06611083447933197,-0.14699843525886536,-0.07098900526762009,-0.05925380066037178,-0.12090807408094406,0.1827062964439392,0.0909884124994278,0.18735942244529724,-0.3500199615955353,-0.2749219834804535,-0.06754403561353683,0.07520228624343872,0.03234941512346268,0.19373023509979248,-0.28991347551345825,-0.07960563153028488,-0.26271960139274597,0.2842843532562256,0.002258141292259097,-0.12345690280199051,0.3002643585205078,-0.006003860849887133,-0.03543553873896599,0.000385432067560032,-0.17234697937965393,-0.21961483359336853,0.12089841067790985,0.058852940797805786,0.21212153136730194,-0.0817699059844017,0.21740780770778656,0.24669751524925232,0.11963772028684616,0.06066477298736572,-0.1911635845899582,-0.08114165812730789,-0.007639680057764053,0.11542323231697083,-0.03141683340072632,0.15997540950775146,0.10514084994792938,-0.06918195635080338,0.09058099240064621,0.0012450148351490498,-0.08806468546390533,-0.03577529266476631,0.0444345697760582,0.01535605639219284,-0.24791452288627625,-0.007445243652909994,0.18058092892169952,-0.22699721157550812,-0.2895160913467407,-0.15001848340034485,-0.07313333451747894,0.0023335558362305164,0.03522530198097229,0.231925830245018,0.045389559119939804,-0.06105503439903259,-0.18788309395313263,0.06685151904821396,0.08905702829360962,-0.14838899672031403,-0.5447183847427368,-0.007307569030672312,-0.01656574383378029,-0.29666486382484436,-0.040297530591487885,0.3272823989391327,-0.08504927158355713,-0.10006637126207352,0.10489696264266968,-0.06115162745118141,-0.20661690831184387,0.06401147693395615,0.2692776620388031,0.014886507764458656,0.24660877883434296,0.016432657837867737,-0.25126510858535767,0.006431074347347021,-0.0032693396788090467,-0.17805881798267365,0.1223590150475502,-0.11476287245750427,0.1796616017818451,-0.10785240679979324,-0.22841422259807587,0.17769184708595276,-0.19144178926944733,0.043300874531269073,-0.14325998723506927,-0.18799343705177307,0.035423245280981064,-0.0527053102850914,-0.1350720077753067,-0.10766830295324326,0.04351148009300232,-0.10197586566209793,-0.19268734753131866,-0.07765338569879532,-0.10912701487541199,-0.10774308443069458,0.05038822069764137,0.24099276959896088,0.13066355884075165,-0.038978610187768936,-0.10803159326314926,-0.1523277461528778,0.18489260971546173,-0.24441364407539368,-0.11011294275522232,-0.4490838050842285,-0.2125849723815918,-0.18784034252166748,-0.14320799708366394,0.14209328591823578,0.025221852585673332,0.01894155703485012,0.20467022061347961,-0.05791637301445007,-0.1772034913301468,-0.22737902402877808,-0.3991551399230957,0.024055548012256622,0.0072099328972399235,-0.0011251434916630387,-0.014811113476753235,-0.020537810400128365,0.19403408467769623,0.11432003229856491,0.2800962030887604,0.12879835069179535,-0.08835136145353317,-0.06767798960208893,-0.13819877803325653,0.029916664585471153,-0.050675250589847565,0.1029297485947609,-0.05462418496608734,0.02963355928659439,0.1279723197221756,0.09501708298921585,-0.07719464600086212,-0.005468599498271942,0.048587627708911896,-0.056473083794116974,-0.1456117331981659,-0.11013617366552353,-0.12447427213191986,-0.19071578979492188,-0.08894956111907959,0.06337092816829681,0.06877610087394714,-0.14356061816215515,0.09962458908557892,0.10986141860485077,-0.012983031570911407,0.019885146990418434,-0.04495746269822121,0.02832423336803913,0.03524170070886612,-0.00192363397218287,-0.21550510823726654,0.11327720433473587,0.0030390811152756214,-0.13232603669166565,-0.009921008720993996,0.212606281042099,-0.054638106375932693,-0.11655695736408234,0.06895771622657776,-0.20374979078769684,0.05922398343682289,0.04229265823960304,0.040002211928367615,-0.10929930210113525,0.20193029940128326,0.17491668462753296,0.3841373324394226,-0.13110557198524475,-0.33902937173843384,0.2052159458398819,0.10900326818227768,-0.028501801192760468,0.10976078361272812,-0.10953027755022049,-0.11937408894300461,-0.2217801958322525,-0.022888444364070892,-0.1515655666589737,-0.07425105571746826,-0.04148068279027939,0.08698038756847382,-0.0018084676703438163,-0.0920015275478363,0.22192206978797913,-0.14793096482753754,0.058731645345687866,0.10251021385192871,0.2005365937948227,0.08001638948917389,-0.1028488427400589,-0.2291596233844757,-0.026044722646474838,0.07997129112482071,-0.11538440734148026,0.2322932481765747,0.18263670802116394,-0.06373726576566696,-0.12983563542366028,-0.09965956211090088,0.06872670352458954,-0.06820918619632721,-0.19578967988491058,0.06386398524045944,0.1636219620704651,-0.15458479523658752,0.1702738106250763,0.01729912869632244,-0.2182769626379013,0.07745657116174698,-0.055173784494400024,-0.16366395354270935,0.04678000509738922,-0.1451248675584793,-0.018958918750286102,-0.08187583088874817,-0.2467740923166275,0.3161882162094116,-0.12100988626480103,0.021829882636666298,0.1559823453426361,0.00435162428766489,-0.1786303073167801,-0.2018587440252304,-0.29137974977493286,-0.20008660852909088,-0.02665027789771557,0.2678128778934479,0.2209247499704361,-0.03832003474235535,0.04239549860358238,0.03606122359633446,-0.2506571412086487,0.07641468942165375,0.10298357903957367,-0.023673290386795998,-0.11930949240922928,-0.0042724995873868465,0.23096440732479095,0.05221947282552719,0.11374861001968384,-0.0950707271695137,0.09615835547447205,0.0979192703962326,-0.22771413624286652,-0.09895197302103043,-0.06455539166927338,-0.2672807276248932,-0.054705698043107986,-0.16759410500526428,0.11771610379219055,-0.06301725655794144,-0.10183104872703552,0.22473184764385223,0.16193504631519318,0.1083197370171547,0.1621565967798233,-0.06801585853099823,-0.10495829582214355,0.11766389012336731,-0.021024463698267937,0.0814644992351532,-0.2355831116437912,0.11808190494775772,0.11907046288251877,-0.02758767083287239,-0.057951461523771286,0.027353065088391304,-0.18738245964050293,0.13455045223236084,0.11142140626907349,-0.0220663920044899,-0.13010752201080322,0.019863324239850044,-0.15405671298503876,-0.11515446752309799,-0.16875766217708588,0.16300074756145477,-0.16934257745742798,-0.2561718225479126,-0.4256308972835541,-0.1309870034456253,-0.13970980048179626,0.32821714878082275,0.09132830798625946,-0.017632564529776573,-0.24762344360351562,-0.2629852890968323,0.0479343980550766,0.3393913507461548,0.00763400224968791,-0.155636265873909,-0.3271547555923462,0.1958041936159134,-0.029329394921660423,-0.195203498005867,0.19172228872776031,0.14475490152835846,-0.35206589102745056,0.2966320216655731,0.010599944740533829,-0.24859227240085602,0.05380323901772499,0.07907784730195999,0.1692180037498474,0.2436102330684662,0.008964824490249157,0.05011637881398201,-0.007234632968902588,0.041551388800144196,-0.055030789226293564,0.21577893197536469,0.1394316554069519,-0.11023014038801193,0.1637185513973236,-0.021280324086546898,-0.16162030398845673,-0.08469977229833603,0.000980738434009254,-0.0965520590543747,-0.06868697702884674,-0.007131848018616438,-0.10892805457115173,-0.002586956601589918,-0.05031822249293327,0.06965678185224533,-0.23079590499401093,0.021518008783459663,-0.08990561962127686,-0.04362397640943527,-0.050421714782714844,0.13725244998931885,0.0034076597075909376,0.14032794535160065,-0.33837342262268066,-0.18394561111927032,0.07846684753894806,0.17320170998573303,-0.21792608499526978,-0.06531041860580444,-0.17298343777656555,-0.15430986881256104,-0.05763459950685501,0.12318035215139389,0.10404501855373383,0.028109312057495117,-0.17768239974975586,0.23978011310100555,0.03375283256173134,-0.1557302325963974,0.09511291980743408,-0.05756790563464165,0.18138374388217926,0.3046223223209381,0.1377081423997879,-0.03920581191778183,-0.07346941530704498,0.14077921211719513,-0.025283895432949066,0.05255790427327156,-0.10631012916564941,0.10979223996400833,-0.12759633362293243,0.08075250685214996,0.23812872171401978,-0.1266142725944519,0.03334665298461914,-0.0037098247557878494,0.16460129618644714,0.04412679001688957,0.403626948595047,0.2536543607711792,0.1258762776851654,0.03572501242160797,-0.1781926453113556,0.2793551981449127,0.14233368635177612,0.012338344939053059,-0.07598968595266342,-0.24559342861175537,-0.18681013584136963,0.07370135933160782,0.22649262845516205,0.14424587786197662,-0.1261514276266098,0.028010038658976555,0.016351833939552307,0.45336487889289856,0.11663973331451416,-0.1610565334558487,0.08796898275613785,-0.17959992587566376,-0.14175628125667572,-0.08460333943367004,0.009937969036400318,-0.20743578672409058,-0.009223030880093575,0.26702266931533813,-0.13925932347774506,-0.35955482721328735,0.06917130947113037,-0.1170676127076149,0.004414607770740986,0.2088087499141693,-0.0930192619562149,-0.11858135461807251,0.13637617230415344,-0.33466222882270813,-0.12169761210680008,0.04912080243229866,-0.003926633391529322,-0.01865922287106514,0.14493905007839203,-0.12384194880723953,-0.05432094633579254,0.20378142595291138,0.01579042710363865,-0.14031755924224854,0.018416674807667732,0.17891205847263336,0.005496363155543804,-0.16777504980564117,0.07963661849498749,-0.07860025763511658,0.0832182988524437,0.041895102709531784,0.039942607283592224,-0.04350686073303223,-0.10788912326097488,0.007207659538835287,0.2362472116947174,-0.028692403808236122,0.12877188622951508,-0.06771862506866455,-0.0013328915229067206,-0.23430590331554413,0.11452899128198624,0.12242069840431213,-0.15420779585838318,-0.08043884485960007,-0.13208381831645966,0.013810855336487293,0.05419859290122986,-0.1116812601685524,0.07775426656007767,0.09958800673484802,-0.27190619707107544,-0.10597039759159088,-0.13318343460559845,-0.11428706347942352,0.000119459604320582,0.11463296413421631,-0.0017899001250043511,0.43638625741004944,0.11518233269453049,0.07076375186443329,-0.06659774482250214,0.04031718149781227,-0.21327491104602814,-0.12780964374542236,-0.14974604547023773,0.1775556355714798,0.15338926017284393,0.015685101971030235,-0.015278033912181854,0.29000726342201233,0.03282518684864044,-0.2546720802783966,-0.1893274188041687,0.12561385333538055,0.07134193181991577,0.18341363966464996,-0.02424946241080761,-0.08631951361894608,0.06630454957485199,0.04187414422631264,0.09504576772451401,-0.035864926874637604,-0.18905647099018097,-0.1385555863380432,-0.09772711992263794,0.2530319094657898,-0.13630644977092743,0.41377612948417664,-0.29801714420318604,0.09341567009687424,0.0706266537308693,-0.11479382961988449,-0.12852570414543152,0.00701561663299799,-0.011062112636864185,-0.13084286451339722,0.06749166548252106,-0.07896453887224197,0.29596689343452454,0.2210811972618103,0.3816003203392029,0.014933031983673573,0.016550719738006592,0.12047707289457321,0.03447785601019859,-0.03662192076444626,0.1907464563846588,-0.04954491928219795,0.134965181350708,0.07724299281835556,-0.07156835496425629,-0.2045133262872696,0.025503015145659447,0.1276717483997345,-0.10825233161449432,-0.06716243922710419,0.13267524540424347,-0.09980609267950058,-0.013700182549655437,0.20792923867702484,0.7449259757995605,0.22768092155456543,0.6022113561630249,-0.8587967753410339,-0.5140820741653442,0.27744385600090027,0.6465281844139099,-0.04085533693432808,0.2619500756263733,0.21759392321109772,-0.8690105676651001,0.5810246467590332,0.07640456408262253,-0.8699386715888977,0.1316651552915573,-0.25019779801368713,-0.23021622002124786,-0.4130691587924957,0.11933502554893494,-0.3140012323856354,0.03100222907960415,0.1434655487537384,-0.028986703604459763,-0.22566241025924683,-0.25847816467285156,0.025544272735714912,0.013438303023576736,-0.13441240787506104,0.04975403845310211,0.025381363928318024,0.2287912666797638,-0.12659326195716858,0.02341877669095993,-0.07588560879230499,-0.1459418535232544,-0.5338484644889832,-0.014197073876857758,0.28140929341316223,0.18013563752174377,-0.09505204856395721,0.04130307585000992,0.005789656657725573,-0.4789760112762451,0.1518852710723877,0.006596834398806095,-0.054419804364442825,0.2028333991765976,-0.0033338565845042467,-0.24264740943908691,-0.13668309152126312,-0.020005451515316963,0.06839336454868317,-0.05915938690304756,-0.25178810954093933,-0.2605779767036438,-0.03167945519089699,0.03299301490187645,-0.3447323441505432,0.2229674756526947,-0.28857845067977905,-0.1954091489315033,0.210037499666214,-0.0342647060751915,0.30656763911247253,-0.3164944052696228,0.0043114894069731236,-0.11767122149467468,0.3216232359409332,0.243012934923172,0.18082085251808167,0.11616244912147522,0.12969423830509186,-0.1679477095603943,-0.10577996075153351,0.10768327862024307,-0.030822761356830597,0.2181265950202942,0.11734829097986221,-0.09538562595844269,-0.18213506042957306,0.3784816563129425,0.14167876541614532,-0.19366101920604706,0.19901956617832184,0.2609192728996277,-0.10344702750444412,-0.05517391860485077,-0.3509378731250763,0.34987184405326843,0.31332680583000183,0.11256162077188492,0.4226031005382538,-0.01688963919878006,-0.1614653617143631,-0.41949307918548584,-0.1939580887556076,-0.021049916744232178,0.22921817004680634,0.26840105652809143,0.3945613205432892,-0.14106343686580658,0.15738089382648468,0.002372453920543194,0.003199912840500474,0.02942333184182644,0.030279511585831642,-0.11915482580661774,0.2691478133201599,-0.014408949762582779,-0.0017791654681786895,-0.17358410358428955,0.09583278745412827,-0.04921736568212509,-0.270718514919281,-0.0752163901925087,-0.289380818605423,0.05901208519935608,-0.10781662166118622,0.20503689348697662,0.13744805753231049,-0.20137599110603333,-0.010853396728634834,0.0672820433974266,0.11254868656396866,0.08413359522819519,-0.08783570677042007,-0.035642676055431366,-0.21457716822624207,0.012981184758245945,0.05246089771389961,0.06217227503657341,0.23027005791664124,0.2773329019546509,-0.22120201587677002,0.09617532044649124,0.33472928404808044,-0.06507518142461777,-0.041829317808151245,0.05995973199605942,0.248845636844635,-0.19338937103748322,0.17236383259296417,0.10952258855104446,0.06059650704264641,-0.26069533824920654,0.20245210826396942,0.012172602117061615,0.2001621276140213,0.11336325854063034,0.2338760644197464,-0.25281625986099243,-0.3261483311653137,-0.05340026319026947,-0.10970031470060349,0.009322145022451878,-0.25890469551086426,0.07551326602697372,0.03517977520823479,-0.013253972865641117,0.21849806606769562,0.0910312756896019,0.09169178456068039,0.01155371405184269,-0.10200200229883194,-0.2693730294704437,0.1636960357427597,-0.12458928674459457,0.02700299210846424,-0.22538770735263824,-0.1590176522731781,0.14359688758850098,-0.13276079297065735,0.22694773972034454,-0.16481725871562958,0.43747228384017944,-0.04126721993088722,-0.19593806564807892,0.03941858187317848,-0.2783568203449249,-0.38350340723991394,-0.17318931221961975,0.058741312474012375,0.041082147508859634,-0.18405869603157043,0.24042509496212006,-0.13278962671756744,-0.014847124926745892,-0.1667761504650116,-0.17290173470973969,0.12755924463272095,0.13462860882282257,-0.12626421451568604,-0.21392199397087097,0.11323802173137665,-0.11517677456140518,-0.14384987950325012,0.08948645740747452,-0.35153913497924805,-0.05954493582248688,0.07006048411130905,-0.15625882148742676,0.14654549956321716,0.4487755298614502,-0.07237087190151215,-0.15666905045509338,0.39813143014907837,-0.2016310691833496,-0.16399143636226654,0.16896668076515198,0.022370560094714165,0.19447489082813263,0.37093019485473633,-0.3048000633716583,-0.04491163045167923,-0.12716785073280334,0.18608726561069489,0.3544531762599945,0.17368575930595398,-0.3256312310695648,-0.07741031795740128,-0.23155374825000763,0.22217833995819092,-0.09428410977125168,-0.15940655767917633,-0.22536905109882355,0.12436401098966599,0.041948799043893814,0.29142025113105774,-0.060058802366256714,0.28587013483047485,-0.10160098224878311,-0.020279495045542717,-0.1031184196472168,-0.021533550694584846,0.32852795720100403,-0.2440956085920334,-0.4158463180065155,-0.21227867901325226,0.02365805208683014,0.1421825885772705,0.37520694732666016,0.0018800211837515235,-0.14437764883041382,0.10650733858346939,-0.24824824929237366,-0.1854277104139328,0.33553841710090637,0.14577646553516388,-0.05599593743681908,0.19079679250717163,-0.6217026114463806,0.14220558106899261,0.13581396639347076,-0.12281982600688934,-0.06338408589363098,-0.037668053060770035,-0.06381531804800034,0.12508350610733032,-0.2146817147731781,-0.3002634346485138,-0.21462391316890717,-0.24482330679893494,-0.0009055404225364327,0.03339385241270065,-0.04904529079794884,0.15536688268184662,-0.09241251647472382,0.1295485496520996,0.20627938210964203,-0.06220310553908348,0.04331591725349426,0.049607742577791214,-0.16313272714614868,0.03846101835370064,-0.07338588684797287,-0.11474471539258957,-0.014682046137750149,-0.060038793832063675,0.2194274216890335,0.18199291825294495,-0.4055420160293579,0.21586406230926514,0.1560879647731781,0.3060986399650574,-0.045047178864479065,-0.36475616693496704,0.03339187800884247,0.15016494691371918,0.01176769845187664,-0.1973840594291687,-0.051543183624744415,-0.15149594843387604,-0.18550018966197968,0.09079678356647491,0.026330946013331413,0.3836566209793091,-0.14187735319137573,-0.1880331188440323,-0.2969743311405182,-0.29306477308273315,-0.06771045178174973,-0.09584183245897293,0.08152513206005096,0.18755806982517242,0.049212343990802765,0.1307150274515152,0.11505035310983658,-0.6611784100532532,0.18647703528404236,0.22173577547073364,0.04408079758286476,-0.19754546880722046,-0.07718228548765182,0.11093582957983017,0.09071952104568481,0.19978384673595428,-0.05129913613200188,0.016101321205496788,0.08433157950639725,0.025934258475899696,0.021415960043668747,0.18131980299949646,-0.18145395815372467,-0.10513667017221451,-0.07027716934680939,0.10738629102706909,0.12412019819021225,-0.17285417020320892,0.0897359549999237,-0.047911759465932846,0.10212740302085876,-0.3190825283527374,0.2044747918844223,-0.11370089650154114,0.21531449258327484,0.14900009334087372,-0.08707352727651596,-0.029629044234752655,0.6057173609733582,0.05084066838026047,0.08675722032785416,0.13686944544315338,-0.12349041551351547,-0.17736224830150604,-0.008799059316515923,-0.12653018534183502,0.04245965927839279,0.1024632528424263,0.15309350192546844,-0.046838290989398956,0.049531955271959305,0.07782208174467087,0.06624142080545425,-0.17332781851291656,-0.14994506537914276,0.21283693611621857,0.29031482338905334,-0.13565699756145477,-0.002522967755794525,-0.2211543470621109,-0.06434736400842667,-0.03519293665885925,0.18797673285007477,-0.024725517258048058,0.1641911119222641,-0.10366354882717133,0.09187658876180649,-0.18412309885025024,0.5251040458679199,-0.23153334856033325,-0.22962838411331177,0.1588674634695053,-0.02236516959965229,-0.23571357131004333,-0.01058550551533699,-0.011391656473279,-0.2365519106388092,0.17650838196277618,0.16737398505210876,0.12429745495319366,-0.16171585023403168,0.0037108694668859243,-0.07971245795488358,-0.017900079488754272,0.042112160474061966,0.017213601619005203,-0.23750056326389313,-0.22869615256786346,0.056926179677248,0.15666130185127258,-0.1630890965461731,0.0032598571851849556,0.29452136158943176,-0.14403769373893738,-0.040664173662662506,-0.055750589817762375,-0.3297377824783325,-0.15686951577663422,-0.03440157696604729,0.001121027860790491,0.004514812957495451,-0.15735188126564026,-0.08761598914861679,-0.3016771078109741,-0.19756923615932465,0.20215342938899994,0.1217445358633995,-0.044052693992853165,-0.13844957947731018,-0.19207212328910828,0.12139257788658142,0.26918235421180725,-0.0457114577293396,-0.12531925737857819,0.057619381695985794,0.10142669826745987,-0.07110369205474854,0.005863172002136707,0.005505308508872986,-0.02951424941420555,-0.13132935762405396,-0.019579734653234482,0.2826574444770813,-0.12180622667074203,-0.06275850534439087,0.2615453600883484,-0.1249605044722557,-0.04254243150353432,0.18138323724269867,-0.29874202609062195,-0.09631197899580002,0.20659244060516357,-0.0912429690361023,-0.08773570507764816,0.06370696425437927,0.0979432538151741,0.1510399430990219,-0.22389666736125946,0.05241187661886215,0.14401604235172272,-0.06523001939058304,0.05072701349854469,-0.048354655504226685,0.0472278892993927,0.2644440829753876,0.11458706855773926,0.12026239186525345,-0.06707966327667236,-0.06176803261041641,0.36705103516578674,0.13849586248397827,-0.16696494817733765,0.09076572954654694,0.02629222348332405,-0.08308150619268417,-0.06486642360687256,0.1083330288529396,0.06059495732188225,-0.04116712883114815,-0.24372105300426483,-0.017555978149175644,0.1703682243824005,0.008607132360339165,0.09086935967206955,-0.12799234688282013,-0.14477486908435822,-0.070160873234272,-0.043318092823028564,0.08428745716810226,0.07023369520902634,-0.12617181241512299,0.05236707627773285,0.14808470010757446,-0.31016188859939575,0.20471607148647308,0.012169851921498775,0.1411820352077484,0.12408696115016937,-0.0008876548381522298,-0.07527247816324234,-0.07518774271011353,0.6057036519050598,-0.014383616857230663,-0.023859763517975807,-0.30085307359695435,0.24034848809242249,0.06110875681042671,0.2845004200935364,0.007383028045296669,-0.12481800466775894,0.13005684316158295,-0.019473081454634666,-0.2064714878797531,-0.18946893513202667,0.0285646989941597,0.13869121670722961,-0.10537660866975784,-0.16357369720935822,0.11046260595321655,-0.2572118639945984,-0.0763423964381218,0.15034577250480652,-0.09019403904676437,0.02439286559820175,-0.1091047003865242,0.22426894307136536,0.08595336973667145,0.14145047962665558,0.004073644522577524,0.06941524893045425,-0.059322539716959,0.6415542960166931,-0.065151646733284,0.11751009523868561,0.12574785947799683,-0.26008012890815735,-0.21977536380290985,0.13891710340976715,0.010702007450163364,-0.06253296136856079,0.2907869815826416,-0.007159337867051363,-0.04806535691022873,-0.3886451721191406,0.18787363171577454,-0.22170314192771912,-0.09494572132825851,0.14295312762260437,-0.08809633553028107,0.08171465247869492,-0.2647439241409302,-0.05936766043305397,-0.13894560933113098,0.3055115342140198,0.06411825120449066,-0.15358668565750122,-0.04210832342505455,0.015116730704903603,0.08376610279083252,0.01528328750282526,-0.22931800782680511,-0.01725311204791069,0.010741458274424076,-0.0967855229973793,0.030789192765951157,-0.06633280217647552,-0.03733878210186958,-0.01502029225230217,-0.14214466512203217,-0.19091928005218506,0.12813009321689606,0.07088533043861389,-0.0008284076466225088,-0.2704542279243469,0.020975720137357712,-0.08659113943576813,0.003445913316681981,-0.29612091183662415,0.07443257421255112,0.0921010971069336,-0.14009898900985718,-0.08023424446582794,0.2750367522239685,-0.13216489553451538,0.037157971411943436,-0.049812208861112595,-0.02832663059234619,-0.1439388245344162,-0.22895638644695282,0.09354081004858017,-0.021320944651961327,0.24411335587501526,0.08906913548707962,-0.008690368384122849,-0.01888797990977764,0.10540866106748581,-0.03360331803560257,-0.03566494211554527,-0.32842326164245605,-0.026382360607385635,-0.059662722051143646,-0.20356807112693787,-0.10901729017496109,-0.15884102880954742,0.28670769929885864,-0.15793228149414062,-0.0989709123969078,0.055640608072280884,0.1412305235862732,0.17016248404979706,-0.09697313606739044,0.18838369846343994,0.19474931061267853,0.004266411066055298,-0.01380031369626522,0.18217016756534576,-0.22325050830841064,-0.11451124399900436,-0.010811363346874714,-0.09421499073505402,-0.16253741085529327,-0.17956316471099854,0.3462802469730377,0.14690472185611725,0.20768429338932037,-0.16624140739440918,0.029874347150325775,0.04278719052672386,-0.05168936774134636,0.038314033299684525,-0.08433159440755844,0.054626211524009705,-0.1593526005744934,0.04023883491754532,0.2325865626335144,-0.05917742848396301,-0.03354855254292488,0.2910865843296051,-0.05490875244140625,-0.009741000831127167,-0.0037537831813097,0.033524271100759506,-0.08509203046560287,0.08112704008817673,0.2214234173297882,-0.02678006887435913,-0.13095970451831818,-0.1717097908258438,-0.07721681892871857,0.04910661652684212,0.03443101793527603,0.034767042845487595,0.07638777792453766,0.04805309697985649,-0.01574128307402134,-0.12302079796791077,-0.19357344508171082,-0.16559560596942902,-0.07113751769065857,-0.06259961426258087,-0.18470175564289093,0.004122382029891014,-0.04251687973737717,-0.06677153706550598,-0.16828356683254242,0.2395961433649063,-0.1616750955581665,-0.13214275240898132,-0.18615472316741943,0.2190740704536438,0.11962759494781494,0.05876366049051285,-0.11201264709234238,-0.0450950488448143,-0.1267608106136322,0.07832290977239609,0.02659788355231285,0.186261385679245,0.1755305975675583,0.12955915927886963,-0.06398040801286697,0.04119645804166794,0.02645001746714115,-0.08992110192775726,0.2503370940685272,-0.07178253680467606,-0.23211471736431122,-0.19937171041965485,0.008845060132443905,-0.23480913043022156,0.10674712806940079,0.1546400785446167,-0.048198286443948746,-0.08852165937423706,0.18618088960647583,0.2865021526813507,-0.11188090592622757,-0.23996657133102417,-0.02562970109283924,-0.04740741476416588,-0.08470235764980316,-0.12475494295358658,-0.1406567245721817,-0.1428888589143753,0.043573882430791855,-0.3022249639034271,0.0619959831237793,0.007352625019848347,-0.12042517960071564,0.2757706046104431,0.1407303661108017,-0.14752934873104095,-0.03811528906226158,-0.01694256253540516,-0.13195598125457764,0.017513634636998177,0.14722831547260284,0.02112450823187828,-0.09128879755735397,-0.17156775295734406,-0.16385282576084137,0.23470215499401093,-0.08858948200941086,-0.016269883140921593,0.10042133927345276,-0.008950282819569111,0.1605958491563797,-0.06940270960330963,0.16092313826084137,0.08837202936410904,-0.16116032004356384,0.026548832654953003,0.11429149657487869,-0.05142819136381149,0.055069368332624435,-0.04536323621869087,-0.35809776186943054,0.03512093424797058,0.053587447851896286,-0.002760497620329261,0.0000064561309045529924,-0.016942013055086136,0.025093985721468925,-0.07805006951093674,-0.017823820933699608,-0.1513126939535141,0.3445224463939667,0.24728935956954956,-0.1417486071586609,0.21425160765647888,0.04043694585561752,-0.13938061892986298,-0.06839587539434433,0.10648223757743835,-0.035286564379930496,-0.035242293030023575,-0.04024938866496086,0.08490841090679169,0.2222105860710144,0.16301408410072327,-0.27097126841545105,0.2350146323442459,0.10255326330661774,-0.03246576711535454,-0.012226017192006111,0.2731291651725769,0.1351393461227417,0.07568997144699097,-0.02592362090945244,0.007375465240329504,0.05825188755989075,0.08671867102384567,0.022550959140062332,0.10936939716339111,0.08427785336971283,-0.0031495869625359774,-0.13206449151039124,0.029192756861448288,-0.2815086245536804,0.002068440429866314,0.22354565560817719,-0.01406903751194477,-0.06510555744171143,-0.07347729057073593,-0.23804795742034912,-0.1503503918647766,0.13446642458438873,-0.1912938803434372,-0.07871321588754654,0.1617283821105957,0.01394420862197876,-0.14777551591396332,-0.07498884201049805,0.27101942896842957,0.061975039541721344,-0.0028336886316537857,-0.19473771750926971,0.0954848974943161,0.13926632702350616,0.033264584839344025,-0.1452372521162033,0.08745256066322327,0.27006348967552185,-0.029910359531641006,0.18738853931427002,-0.11184817552566528,0.06494013965129852,-0.1512226164340973,-0.07174110412597656,-0.04181426391005516,-0.07455945014953613,-0.2157878428697586,0.07158618420362473,-0.12533333897590637,0.07142125815153122,0.1694263368844986,0.24998739361763,-0.16532374918460846,0.029677854850888252,0.013275368139147758,-0.043851543217897415,0.01888999342918396,-0.053384747356176376,-0.08610022068023682,-0.20546108484268188,0.012445081025362015,0.15987563133239746,-0.11498728394508362,-0.07984653860330582,0.2217189371585846,-0.09645717591047287,-0.14110544323921204,0.06743156909942627,-0.2797313928604126,-0.061752256006002426,0.2708260118961334,-0.16205158829689026,-0.154002383351326,0.6183253526687622,0.33800897002220154,0.11189603060483932,-0.32633209228515625,0.1316252052783966,0.16086311638355255,-0.24498343467712402,