{"version":"0.5.4","metadata":{"date":{"year":2025,"month":4,"day":9,"hour":11,"minute":24,"second":58},"loudness":-25.195148468017578,"gain":0.8400750907029545,"name":"Laney Lead Top","modeled_by":"avedismutter","gear_type":"amp","gear_make":"tz-make","gear_model":"tz-model","tone_type":"overdrive","input_level_dbu":null,"output_level_dbu":null,"training":{"settings":{"ignore_checks":false},"data":{"latency":{"manual":null,"calibration":{"algorithm_version":1,"delays":[-69],"safety_factor":1,"recommended":-70,"warnings":{"matches_lookahead":false,"disagreement_too_high":false}}},"checks":{"version":3,"passed":true}},"validation_esr":0.016460338052144474}},"architecture":"WaveNet","config":{"layers":[{"input_size":1,"condition_size":1,"head_size":8,"channels":16,"kernel_size":3,"dilations":[1,2,4,8,16,32,64,128,256,512],"activation":"Tanh","gated":false,"head_bias":false},{"input_size":16,"condition_size":1,"head_size":1,"channels":8,"kernel_size":3,"dilations":[1,2,4,8,16,32,64,128,256,512],"activation":"Tanh","gated":false,"head_bias":true}],"head":null,"head_scale":0.02},"weights":[-0.002120736986398697,0.429171621799469,-0.9615961313247681,-0.9424282312393188,-0.34944769740104675,0.7272571325302124,-0.00632350193336606,1.0639716386795044,-0.30814069509506226,0.43291139602661133,-0.4763629138469696,-0.22486764192581177,-1.1546132564544678,-0.8702442049980164,-0.5006089806556702,-0.23707856237888336,0.18442091345787048,-0.10861582309007645,0.31216320395469666,-0.23362645506858826,0.3739762604236603,-0.25374677777290344,0.15904264152050018,-0.2398405820131302,0.3475334346294403,0.18937566876411438,-0.22089926898479462,0.23990999162197113,0.07923372834920883,-0.3625965416431427,0.30325716733932495,-0.04640718176960945,0.29186108708381653,-0.46783435344696045,0.007965726777911186,-0.3979988396167755,0.3641040325164795,-0.05339834466576576,0.41714948415756226,-0.3050280213356018,0.15702848136425018,-0.4479449689388275,0.4377501308917999,-0.301736056804657,0.25247424840927124,-0.46874678134918213,0.26591676473617554,-0.2642234265804291,0.3151901364326477,0.15359047055244446,-0.23032021522521973,0.5055347681045532,0.23326706886291504,-0.3302030861377716,0.4701036810874939,0.09390798956155777,-0.3242279291152954,0.26759496331214905,0.0803249403834343,-0.41113877296447754,0.44271254539489746,0.266418993473053,-0.6886412501335144,0.15883395075798035,-0.09683956950902939,-0.14766085147857666,0.11280054599046707,0.21526697278022766,0.24610473215579987,-0.07515465468168259,-0.3050447106361389,-0.23721042275428772,0.2794342637062073,-0.07588987052440643,-0.05372381582856178,0.34842488169670105,-0.15710705518722534,-0.2836513817310333,0.2266107052564621,0.11763036251068115,0.0732940286397934,-0.10288526862859726,-0.01356809213757515,-0.2606848478317261,0.2023155689239502,0.17280323803424835,0.15868176519870758,-0.28680771589279175,-0.14608144760131836,-0.2772997319698334,0.2790057957172394,0.26655977964401245,0.28379690647125244,-0.17142918705940247,-0.33713093400001526,-0.2700156569480896,0.2908332943916321,-0.15829721093177795,-0.2669251263141632,0.11674144864082336,-0.059455979615449905,-0.0822298675775528,0.1569060981273651,-0.23129001259803772,-0.3185518980026245,0.2195427566766739,-0.3008234202861786,-0.2843495309352875,0.20793962478637695,-0.026481490582227707,-0.48636993765830994,0.23075151443481445,0.01800556853413582,0.04912808537483215,0.17862893640995026,-0.1798160821199417,0.08672347664833069,-0.048641547560691833,0.07300274074077606,-0.10131269693374634,0.1069759875535965,0.06214218586683273,-0.2060588300228119,0.1208612322807312,-0.07912065088748932,-0.2107349932193756,0.02248200960457325,-0.1450607180595398,0.07911689579486847,-0.19528606534004211,0.05826361104846001,-0.0655800849199295,0.014301955699920654,-0.06184186041355133,0.23953410983085632,-0.06811121106147766,0.0998808816075325,-0.12816104292869568,0.13189798593521118,0.018996573984622955,0.2596396803855896,0.01632700115442276,0.20222556591033936,-0.14019227027893066,-0.06259581446647644,0.006426495499908924,-0.01869148388504982,0.07134859263896942,-0.0204827431589365,-0.24808146059513092,-0.08562764525413513,-0.06413651257753372,-0.16288155317306519,0.13511474430561066,0.13994085788726807,-0.26609641313552856,0.1516152173280716,-0.003923334181308746,0.03000359795987606,0.0795970931649208,-0.10177897661924362,0.01767227239906788,-0.1267971247434616,-0.09204472601413727,-0.0758749395608902,-0.03799238055944443,-0.0878973975777626,0.11250416934490204,-0.08200971782207489,-0.032441072165966034,0.18753081560134888,-0.012445986270904541,0.09583807736635208,0.10410464555025101,-0.09527181088924408,0.12429451197385788,-0.073235884308815,-0.10100916773080826,0.05039713531732559,-0.0624036006629467,0.004696831572800875,-0.007403237745165825,0.04243892803788185,-0.006155152805149555,0.019718831405043602,0.10164622962474823,-0.020096467807888985,0.007053616922348738,-0.17191258072853088,0.04677289351820946,0.0834340751171112,0.15487022697925568,-0.06732506304979324,-0.03876570612192154,-0.05409478396177292,-0.056091390550136566,-0.10575725883245468,0.11089088767766953,-0.03744520619511604,-0.028153933584690094,0.06564247608184814,0.1378019154071808,-0.13851632177829742,-0.04353102296590805,-0.04515419900417328,0.12550146877765656,-0.19393271207809448,0.11595966666936874,0.0023891266901046038,0.17228132486343384,-0.06777313351631165,-0.026754794642329216,-0.19308994710445404,0.02079925127327442,0.0034323125146329403,0.24325312674045563,-0.16325658559799194,-0.06920398771762848,0.3439234793186188,-0.16689850389957428,-0.01506831869482994,0.35437071323394775,-0.006055670790374279,0.006394787225872278,-0.3578999638557434,0.13567571341991425,-0.09765629470348358,0.1527126282453537,-0.11702100932598114,-0.0267256498336792,-0.22642818093299866,0.16958637535572052,0.003017340786755085,0.3528324365615845,0.008374158293008804,-0.08580934256315231,-0.1561250537633896,-0.03673728555440903,-0.06307096034288406,0.2667805552482605,-0.012622632086277008,0.09195920825004578,0.16038352251052856,-0.0666889101266861,0.08166754245758057,0.08843676745891571,0.056551944464445114,-0.11644801497459412,0.2282586693763733,-0.0769607275724411,-0.07944919168949127,0.23675400018692017,0.060911521315574646,-0.1130797266960144,-0.0592147633433342,-0.17594365775585175,-0.10238168388605118,0.16030071675777435,-0.06962598115205765,-0.04757113754749298,-0.1353534609079361,0.15191178023815155,0.009651925414800644,0.1669483184814453,-0.026773495599627495,-0.11148035526275635,0.016028324142098427,-0.03581157699227333,0.06732194870710373,0.09132251143455505,-0.1352383941411972,-0.015413516201078892,-0.22808411717414856,0.10038212686777115,-0.011180862784385681,0.028668271377682686,0.1640843152999878,-0.030965017154812813,-0.07373063266277313,0.11873956769704819,-0.024275003001093864,0.008034998551011086,-0.1665809005498886,0.16200518608093262,-0.055228911340236664,0.1844829022884369,-0.10059591382741928,0.10946273058652878,-0.0967511534690857,-0.032776542007923126,-0.02189922332763672,0.005129858385771513,-0.017621712759137154,0.05068209022283554,-0.11208925396203995,-0.1500886231660843,0.15956886112689972,-0.18359145522117615,0.005413396283984184,0.011627884581685066,-0.1364685446023941,-0.07040216773748398,0.2743096649646759,-0.00030043470906093717,0.06310456246137619,-0.0883854329586029,0.009934453293681145,0.07880959659814835,0.039541568607091904,0.01758413389325142,-0.15003104507923126,-0.005085111130028963,0.0067624617367982864,-0.08025985211133957,0.07294592261314392,0.05491897091269493,-0.09342686831951141,0.019745340570807457,0.027710329741239548,0.02315949834883213,-0.03073873557150364,0.044710174202919006,-0.07393333315849304,0.04957897216081619,0.10844974219799042,0.1570928543806076,0.06635713577270508,0.059874266386032104,0.07807695865631104,-0.01684754155576229,-0.12646591663360596,-0.11484847217798233,0.10795712471008301,0.1161935105919838,-0.11745764315128326,0.08136714994907379,0.08031798899173737,0.14782343804836273,0.15482847392559052,0.09720495343208313,-0.06172732636332512,-0.03535721078515053,0.07509133964776993,0.05580515041947365,-0.06654525548219681,0.0905846580862999,0.05010233446955681,0.10053960978984833,-0.12271634489297867,0.014073146507143974,0.22165322303771973,0.14461049437522888,-0.0104866623878479,-0.35214659571647644,0.38979843258857727,0.08501071482896805,0.5073219537734985,-0.2820996940135956,-0.13090957701206207,-0.5570021271705627,0.24946963787078857,-0.18016427755355835,-0.7088059782981873,0.46582329273223877,0.05042869970202446,-0.4263230562210083,0.4614311158657074,-0.09451953321695328,0.5181900262832642,-0.4171573519706726,-0.036871809512376785,-0.31629741191864014,0.36304935812950134,-0.03415921702980995,0.4545230567455292,-0.4342542886734009,0.09618997573852539,-0.47400328516960144,0.5278987884521484,0.13890071213245392,0.7153932452201843,-0.42332667112350464,0.03931023180484772,-0.4507191479206085,0.41480904817581177,0.12704595923423767,-0.4700886011123657,0.4439011514186859,-0.08853444457054138,-0.5233933329582214,0.36456185579299927,-0.0659312978386879,-0.6712530255317688,0.2773520052433014,-0.13424375653266907,-0.47466275095939636,0.46138760447502136,0.023673508316278458,-0.7142624258995056,0.39430874586105347,0.1017724797129631,-0.04170096665620804,-0.13166210055351257,0.14721688628196716,0.07621552795171738,-0.04271329939365387,0.11427555233240128,0.08786158263683319,-0.13030758500099182,0.06214892119169235,-0.10036464780569077,-0.09610205143690109,0.10987617820501328,-0.010023730807006359,-0.16543546319007874,-0.043212905526161194,-0.03840773552656174,0.034608062356710434,-0.005958083551377058,0.06509596109390259,-0.053105469793081284,-0.07004576921463013,0.02614004723727703,0.14275307953357697,0.08691819757223129,-0.11856821179389954,-0.06385406851768494,-0.10158803313970566,-0.056984297931194305,0.11058603227138519,-0.11491904407739639,0.038929395377635956,0.05919176712632179,0.009743264876306057,-0.10595813393592834,-0.10167739540338516,0.009953565895557404,-0.13164743781089783,-0.004631349351257086,-0.14808620512485504,-0.15604977309703827,-0.2122674435377121,-0.04272053390741348,0.08237346261739731,-0.2015576809644699,0.12415045499801636,0.16243085265159607,0.031492140144109726,-0.07187063246965408,0.04187106341123581,-0.002556385938078165,0.26607999205589294,-0.0627337172627449,0.22768132388591766,-0.3185695707798004,0.3493077754974365,-0.1526510864496231,-0.14589530229568481,0.11375217139720917,-0.20240125060081482,-0.337994247674942,0.15503251552581787,-0.1193651333451271,0.10521950572729111,-0.22756093740463257,0.24663379788398743,0.0028046208899468184,0.13151879608631134,-0.2220945954322815,0.17172205448150635,-0.16789111495018005,0.3024420738220215,-0.10425463318824768,0.25640547275543213,-0.11489474773406982,0.05898519605398178,-0.3698202967643738,0.23024170100688934,-0.29054874181747437,0.3066437840461731,-0.25469666719436646,-0.24389122426509857,0.0987844318151474,-0.05754661560058594,-0.22774218022823334,0.3370557427406311,-0.07160980999469757,-0.13534528017044067,0.23675552010536194,-0.20579765737056732,-0.24025265872478485,0.24278700351715088,-0.08352534472942352,-0.3860592842102051,0.7111374139785767,-0.06121394410729408,-0.21238549053668976,-0.05436636880040169,0.17936916649341583,0.3256377875804901,-0.09327175468206406,0.04519346356391907,-0.14465546607971191,0.03271326795220375,0.17745737731456757,-0.29443636536598206,-0.006056907121092081,0.11162406206130981,-0.23770126700401306,0.009416472166776657,0.018501153215765953,0.3137682378292084,0.010035226121544838,-0.11314118653535843,-0.06803403049707413,0.06366417557001114,0.002278644358739257,0.2300553172826767,0.13550497591495514,-0.0682191252708435,-0.15849073231220245,-0.06909174472093582,0.11647656559944153,0.10194520652294159,-0.042764026671648026,-0.13394798338413239,-0.07389862835407257,-0.08017721772193909,0.06247296556830406,-0.2490633726119995,0.11763767153024673,0.2091866284608841,-0.3261541426181793,-0.1708211898803711,-0.05815059319138527,-0.21511904895305634,-0.08739585429430008,-0.03933952376246452,-0.2562675178050995,-0.014600246213376522,-0.015011684037744999,-0.1956477165222168,-0.056287139654159546,0.09422166645526886,0.051761966198682785,0.2302224040031433,-0.015494643710553646,-0.03168586269021034,-0.09456479549407959,0.09542383253574371,-0.08448049426078796,-0.09910038858652115,0.1925734430551529,-0.042940933257341385,0.06979598104953766,0.03671972453594208,0.004848352633416653,0.005110803060233593,0.1304628849029541,-0.0355629101395607,-0.18009264767169952,-0.13047637045383453,-0.014137431047856808,0.18325190246105194,-0.024329133331775665,0.08656232804059982,-0.07464254647493362,-0.07530070096254349,0.13491567969322205,0.1133938729763031,0.15412381291389465,0.04706261679530144,-0.08443328738212585,-0.13731649518013,0.0312771275639534,0.16138750314712524,-0.0071372902020812035,-0.1047360748052597,0.10256063938140869,0.17582029104232788,0.00976101029664278,-0.07551288604736328,-0.07929564267396927,0.0838489904999733,0.031211722642183304,-0.02418607845902443,0.07263138890266418,0.09609918296337128,0.15877597033977509,0.1914283037185669,-0.26953449845314026,-0.16006222367286682,-0.1251314878463745,-0.02904791757464409,0.14803022146224976,0.10319289565086365,0.0644058808684349,0.03650670871138573,0.08636731654405594,-0.07231640815734863,-0.025547092780470848,-0.10511782765388489,-0.30506280064582825,0.23204372823238373,-0.10576517879962921,-0.26093077659606934,0.17355568706989288,-0.02372446097433567,0.1389220505952835,-0.12933945655822754,-0.01664724014699459,-0.28956758975982666,0.23077519237995148,-0.014059592969715595,0.25675147771835327,0.028068721294403076,0.040191370993852615,-0.18983690440654755,0.2506978213787079,0.058236874639987946,0.13311642408370972,0.0227888822555542,-0.007691496517509222,-0.3421661853790283,0.06893289089202881,-0.1265137642621994,-0.05929325893521309,0.08921585232019424,-0.18291209638118744,-0.21547314524650574,0.18328702449798584,-0.00904139131307602,-0.15728145837783813,0.11410494893789291,0.011314049363136292,-0.23193731904029846,0.047093622386455536,-0.11599627137184143,-0.1054496020078659,0.28250613808631897,-0.22394338250160217,0.08505123853683472,0.08217774331569672,0.13533809781074524,-0.17815299332141876,0.05763758718967438,-0.2072317749261856,0.21193717420101166,-0.02166525088250637,-0.1589786559343338,0.17203383147716522,0.03188059851527214,-0.008861364796757698,-0.01489185355603695,-0.04532713443040848,0.07560276985168457,-0.06254367530345917,0.04795214906334877,-0.16254422068595886,0.1447410136461258,0.013319525867700577,0.0936717540025711,0.012164809741079807,-0.20296427607536316,-0.13883057236671448,0.2101115584373474,0.04088297113776207,0.24811698496341705,-0.12802843749523163,0.03869279474020004,-0.2704041004180908,0.06960839778184891,0.054198674857616425,-0.09479794651269913,0.1331387758255005,0.17140494287014008,-0.1437699943780899,0.08936247229576111,0.1920286864042282,-0.16547642648220062,0.21904116868972778,-0.006782270967960358,-0.146025151014328,0.07882726192474365,0.14447049796581268,0.06214036047458649,-0.08477599918842316,-0.007940801791846752,0.05094611272215843,-0.01811123639345169,0.12843050062656403,-0.007622874341905117,0.1929672807455063,0.09685992449522018,-0.08467541635036469,-0.24463015794754028,0.13514307141304016,-0.20525741577148438,-0.07824601233005524,0.05571220442652702,-0.15089905261993408,-0.05056336894631386,-0.08527909964323044,0.12696190178394318,0.01680707186460495,-0.06713882833719254,-0.0023638790007680655,0.04722036048769951,0.029367174953222275,0.18985266983509064,0.09298915416002274,-0.10418525338172913,-0.20444045960903168,-0.23303824663162231,0.21354670822620392,0.05020871385931969,0.1107250303030014,-0.013123712502419949,0.009118931367993355,0.01762513630092144,0.1658221036195755,-0.16987282037734985,-0.11110923439264297,-0.024047091603279114,-0.1806018352508545,-0.07852041721343994,0.16783349215984344,-0.21000781655311584,-0.022168699651956558,-0.036919206380844116,-0.11350838094949722,0.013432618230581284,0.013142176903784275,-0.10015672445297241,-0.03974762558937073,0.19328099489212036,0.14475417137145996,0.014256894588470459,-0.1691291183233261,-0.23057450354099274,-0.2466539442539215,0.32706889510154724,0.23677027225494385,0.10878914594650269,-0.26961371302604675,0.2506159245967865,0.2399560809135437,-0.4120236337184906,0.11517301946878433,0.08997830003499985,-0.42934632301330566,-0.14075738191604614,-0.062040068209171295,0.4676566421985626,0.1279921978712082,0.17492234706878662,-0.3020831048488617,-0.018699578940868378,-0.20601464807987213,0.23612746596336365,0.1716606765985489,0.2519381642341614,-0.458006888628006,-0.005281966645270586,-0.10015884786844254,0.2304164171218872,0.10026232898235321,0.2707120180130005,-0.4352515637874603,0.1099400594830513,0.18725940585136414,-0.413469523191452,0.2050153613090515,0.2178739607334137,-0.24756503105163574,0.034699447453022,0.2903270423412323,-0.42196568846702576,0.2745927572250366,0.004336979705840349,-0.45090991258621216,0.07429932802915573,0.4754024147987366,-0.27258336544036865,-0.12173058837652206,-0.05708443000912666,-0.05421290174126625,-0.08089569211006165,0.05706246942281723,0.02312408946454525,0.026667609810829163,-0.07702453434467316,0.1350913941860199,0.056923285126686096,-0.06203143298625946,-0.11916489899158478,-0.09757764637470245,-0.0026216760743409395,-0.06295675784349442,-0.12020811438560486,0.0821460634469986,-0.6428717374801636,0.7584608793258667,-0.7581614851951599,0.041985247284173965,0.9852344393730164,1.0456461906433105,-0.910431981086731,0.2610515058040619,0.27932292222976685,-0.5136873722076416,-0.40272337198257446,0.18726463615894318,-0.796160876750946,0.14249373972415924,0.7718030214309692,-0.2264104187488556,0.20213663578033447,-0.141757532954216,0.1292734444141388,0.36374229192733765,0.015184556134045124,0.11228767037391663,-0.1189914420247078,-0.07567005604505539,0.14954763650894165,0.014909717254340649,-0.043243441730737686,-0.023851294070482254,0.11232716590166092,0.10597763955593109,-0.006415970157831907,0.47414490580558777,0.23777510225772858,-0.17575718462467194,0.2650661766529083,0.027037156745791435,-0.32243818044662476,-0.15557406842708588,0.7341216802597046,-0.2694275975227356,-0.15159818530082703,0.12101665139198303,0.2998233437538147,0.18580535054206848,0.14044471085071564,0.20674236118793488,-0.2268069088459015,0.20481310784816742,0.21554850041866302,-0.039112746715545654,0.2013547718524933,-0.15486791729927063,-0.2214088886976242,0.0695449486374855,0.1712033748626709,-0.05352780595421791,-0.19442448019981384,0.3800615668296814,-0.12235245853662491,0.18308976292610168,0.39677780866622925,0.1783580332994461,-0.2457561194896698,0.2647496461868286,-0.12309344857931137,-0.10678751021623611,-0.071975477039814,0.08428765088319778,-0.05279141664505005,-0.09228212386369705,-0.05014161020517349,-0.3078778386116028,-0.12164539098739624,-0.14425362646579742,0.032000817358493805,0.08360869437456131,0.22862590849399567,-0.2857148051261902,-0.11667215824127197,-0.37229135632514954,-0.4356594979763031,-0.11979187279939651,0.171869695186615,0.17524166405200958,0.31619197130203247,0.2601613998413086,-1.0111969709396362,0.08729322254657745,0.4383936822414398,-0.16204959154129028,0.14137974381446838,0.01297962386161089,0.12288753688335419,-0.025213973596692085,0.26831719279289246,-0.403469979763031,-0.12413449585437775,0.41432738304138184,-0.2303553819656372,-0.14844053983688354,0.5627726316452026,0.5668643712997437,-0.02602863311767578,0.45494505763053894,0.3039174973964691,0.0546969398856163,-0.4677751660346985,0.25530481338500977,-0.4922344386577606,0.41513538360595703,0.5177465677261353,0.23824679851531982,0.06774590909481049,0.3309290409088135,0.008098496124148369,-0.3961048126220703,-0.34697696566581726,-0.04322211071848869,0.448620468378067,0.09164048731327057,-0.5137542486190796,-0.30215275287628174,0.17293250560760498,0.266961932182312,-0.43483155965805054,0.03846432641148567,-0.20610645413398743,0.13370448350906372,0.060780834406614304,0.5451585054397583,-0.48770883679389954,-0.6899538636207581,0.34065431356430054,0.4653507173061371,0.3376198709011078,0.4000728726387024,-0.015252044424414635,0.43463069200515747,-0.46035030484199524,0.3858061134815216,-0.43725481629371643,0.22918324172496796,0.22895534336566925,0.10871140658855438,0.2115185558795929,-0.4144967794418335,-0.009240945801138878,0.40207675099372864,-0.32023125886917114,-0.3394544720649719,0.04281318932771683,-0.44361183047294617,-0.44256335496902466,0.004056898411363363,0.3520881235599518,-0.155495747923851,0.12416921555995941,-0.14703916013240814,-0.30719470977783203,-0.3277466297149658,-0.0002628724032547325,0.43829384446144104,-0.35143938660621643,-0.5067682266235352,0.2974354922771454,0.414541095495224,-0.3522588908672333,0.17736007273197174,0.45481616258621216,0.4319789409637451,-0.09071188420057297,0.468415766954422,-0.004331452772021294,0.21231609582901,0.35107922554016113,0.07368575036525726,0.1467979997396469,-0.2807276248931885,0.11134599149227142,-0.008266146294772625,-0.22260689735412598,-0.009948612190783024,-0.14281010627746582,0.023039083927869797,-0.16947875916957855,-0.2238626331090927,-0.032794684171676636,-0.13245666027069092,0.11143738031387329,-0.06473246216773987,0.19821706414222717,-0.0771312415599823,-0.3650228977203369,0.0119915921241045,-0.09001825749874115,0.2431650310754776,0.032112304121255875,-0.084955133497715,-0.25381460785865784,0.08692925423383713,-0.07023299485445023,-0.2553470730781555,-0.2796193063259125,-0.23304383456707,0.026148896664381027,-0.39823803305625916,-0.07993024587631226,0.150369331240654,0.06494677811861038,-0.16799373924732208,0.20218172669410706,0.2775001525878906,-0.4361901581287384,-0.2554842531681061,0.2665462791919708,0.009570143185555935,-0.286735862493515,-0.20269489288330078,0.26447856426239014,-0.009588876739144325,0.058363862335681915,-0.33972856402397156,-0.15001364052295685,0.2666368782520294,-0.14117850363254547,-0.3170194625854492,0.36528635025024414,0.1954132616519928,-0.10063884407281876,-0.0785665288567543,0.0830559954047203,-0.30961066484451294,-0.43050044775009155,-0.2635277211666107,0.340954065322876,-0.34866392612457275,0.1888473778963089,-0.475839227437973,-0.10613243281841278,-0.11173415929079056,0.12105369567871094,-0.12122480571269989,-0.13207484781742096,0.18788465857505798,0.07410938292741776,0.15387612581253052,0.05070162191987038,-0.2118998020887375,0.17828939855098724,-0.09677200019359589,-0.07291984558105469,0.1037529706954956,0.20129625499248505,-0.22537848353385925,-0.014124782755970955,0.5761650800704956,0.6771154999732971,0.22663943469524384,0.04138515889644623,-0.35204461216926575,-0.2442658692598343,-0.03607608750462532,1.2711044549942017,-0.2850706875324249,-0.5697138905525208,0.26009002327919006,-0.08338087052106857,0.21460649371147156,0.3456759452819824,0.19622936844825745,-0.6252374649047852,0.06418146193027496,-0.34230318665504456,0.30421867966651917,-0.33385106921195984,-0.23806583881378174,-0.02825223095715046,0.18861901760101318,0.10555136948823929,-0.07888108491897583,-0.20920026302337646,0.07983984053134918,0.13187871873378754,0.09143690019845963,-0.014874129556119442,0.15068326890468597,-0.18244223296642303,0.14658795297145844,0.0033732582814991474,-0.15975022315979004,0.12244196981191635,-0.09388189762830734,0.08201929181814194,0.03766399621963501,0.09803927689790726,-0.04759968817234039,-0.1635708063840866,0.08042788505554199,-0.02585795149207115,0.10031244903802872,0.04087284952402115,0.0500623993575573,0.13863423466682434,-0.2265201061964035,0.15189838409423828,-0.4003075361251831,-0.14949122071266174,0.18191152811050415,-0.033319998532533646,-0.23744229972362518,-0.03954590484499931,-0.060918889939785004,0.15054386854171753,-0.20794960856437683,-0.09616675227880478,-0.04439758136868477,-0.07243197411298752,-0.1278214156627655,0.09279754012823105,-0.0142567353323102,-0.23038731515407562,-0.048497166484594345,0.021084781736135483,-0.20745041966438293,0.13410794734954834,-0.085774265229702,-0.1614496111869812,0.11982829868793488,-0.17098368704319,-0.0760810524225235,0.138458251953125,-0.06565151363611221,0.11395885795354843,0.0034583043307065964,-0.09620309621095657,0.03951103240251541,0.1042853519320488,0.14778752624988556,-0.21647799015045166,-0.16626086831092834,0.00851928349584341,-0.035462845116853714,0.07822509855031967,0.07363861799240112,-0.24699898064136505,-0.021337002515792847,-0.2498282641172409,0.16565868258476257,-0.2797289192676544,0.17347948253154755,-0.07394334673881531,-0.17785480618476868,0.046050410717725754,0.04916912689805031,0.10535091906785965,-0.16524548828601837,0.16635264456272125,-0.06575427204370499,0.05247052013874054,-0.16740413010120392,0.00842216331511736,-0.08643974363803864,0.1268705576658249,-0.019017327576875687,-0.12337704002857208,-0.022859612479805946,0.07163742184638977,-0.06517693400382996,-0.17803354561328888,0.0017236826242879033,0.1494591385126114,-0.11569646000862122,0.025418449193239212,-0.04169994965195656,-0.007507871836423874,0.09571406245231628,-0.001015439280308783,-0.04614242538809776,-0.0009828469483181834,-0.0024649191182106733,-0.15234020352363586,0.21930812299251556,-0.4333120584487915,-0.0927186980843544,-0.20403318107128143,-0.013396521098911762,0.09881458431482315,0.19750002026557922,-0.08531233668327332,-0.06795279681682587,-0.14287342131137848,-0.023756928741931915,0.2045609951019287,-0.03315860405564308,-0.12183571606874466,0.03808499500155449,-0.04520948976278305,-0.005399222951382399,-0.1930491030216217,0.18006879091262817,0.15022727847099304,0.2025882750749588,-0.19677430391311646,-0.05217801406979561,-0.17482900619506836,0.003782987827435136,0.20872819423675537,0.11745649576187134,-0.16818828880786896,-0.06794819980859756,-0.18021078407764435,0.1254676878452301,-0.0669487863779068,0.01614062488079071,-0.21374593675136566,0.031879328191280365,0.29567602276802063,-0.07983095198869705,0.009568809531629086,0.21151535212993622,-0.12238029390573502,-0.10626271367073059,0.10723420232534409,-0.05553603917360306,0.021052228286862373,-0.05578789860010147,-0.06119634583592415,0.016000397503376007,-0.03662727773189545,0.00023248033539857715,0.2864440083503723,-0.19397851824760437,-0.18914583325386047,0.06671614944934845,-0.04858926683664322,0.1737300306558609,0.041254352778196335,0.028634043410420418,-0.1790732592344284,-0.0863155722618103,0.13624919950962067,0.06972598284482956,-0.03481847420334816,-0.26475706696510315,-0.3873485028743744,-0.18841876089572906,-0.12231127172708511,0.07343057543039322,-0.18198059499263763,0.27988144755363464,0.2526373565196991,0.09969252347946167,-0.14796613156795502,0.0751175731420517,-0.057899005711078644,0.09700492769479752,-0.18063794076442719,0.14089861512184143,0.12707014381885529,-0.07690420001745224,-0.010092062875628471,0.12870383262634277,-0.12341003119945526,0.15238887071609497,0.10589978098869324,0.022110270336270332,0.20227910578250885,0.12121104449033737,0.052442263811826706,0.0009995709406211972,0.1355963945388794,-0.18549349904060364,-0.047176238149404526,-0.11254280060529709,-0.10252214223146439,0.15519805252552032,0.18005402386188507,0.13906905055046082,0.28326937556266785,-0.2775897681713104,-0.29463639855384827,-0.0743381530046463,0.20013833045959473,0.43623241782188416,0.20264917612075806,-0.20726393163204193,-0.24633823335170746,-0.26082614064216614,0.05233826860785484,0.16083364188671112,0.19789470732212067,0.026548584923148155,-0.03206760063767433,-0.04755295068025589,-0.20332451164722443,0.17628155648708344,-0.046637170016765594,0.15749746561050415,-0.17709630727767944,-0.1703559160232544,-0.061076365411281586,0.2049921751022339,0.1563565582036972,0.18698640167713165,-0.02989340014755726,-0.0682719349861145,-0.104474738240242,0.03333991765975952,0.16759970784187317,0.21495257318019867,-0.18323968350887299,-0.08215206116437912,-0.01900966838002205,-0.1498289257287979,-0.1121109127998352,-0.0735415518283844,-0.3045724928379059,-0.0015533120604231954,0.06824816763401031,-0.1424463540315628,-0.09154070913791656,-0.12908890843391418,-0.43422579765319824,-0.2893346846103668,0.1886008083820343,0.0821874812245369,0.23335061967372894,-0.09962435066699982,-0.08155257999897003,-0.1178119033575058,-0.05328572168946266,0.1206323504447937,0.006271096877753735,-0.01808093674480915,0.15828059613704681,0.0846005529165268,-0.00471516465768218,0.14862023293972015,0.0830225944519043,-0.11608254909515381,-0.009907420724630356,0.024415643885731697,0.16491366922855377,-0.1568349450826645,0.062117110937833786,0.20640385150909424,-0.03613577038049698,-0.08748126029968262,0.16284359991550446,-0.13190601766109467,0.24722588062286377,0.10241933166980743,0.21654748916625977,-0.13178059458732605,0.13589788973331451,-0.12783703207969666,0.009281085804104805,-0.002744143595919013,0.07086322456598282,-0.016311360523104668,0.006842129398137331,-0.10092443972826004,-0.015121146105229855,0.017079778015613556,0.22232037782669067,0.009502789005637169,-0.05217370390892029,-0.041469212621450424,0.08667892962694168,-0.1797381490468979,0.15988896787166595,-0.12711086869239807,0.03564704209566116,0.06163177639245987,-0.08058593422174454,-0.03256969526410103,0.04018498584628105,0.1274031698703766,0.08705788105726242,0.1869150698184967,0.021301163360476494,-0.12600921094417572,-0.21620959043502808,0.1431257575750351,0.13121315836906433,-0.06815104931592941,-0.0044490196742117405,-0.19090856611728668,0.04381173104047775,-0.014751801267266273,0.11642944812774658,0.22659969329833984,-0.009116954170167446,0.19908753037452698,-0.0892096608877182,-0.0029193470254540443,-0.014702724292874336,0.25570225715637207,-0.12748059630393982,0.03850457817316055,-0.16829684376716614,0.0747922733426094,0.028462350368499756,0.08364271372556686,-0.1016753762960434,0.09206347912549973,-0.179576113820076,0.09969110786914825,-0.014605589210987091,-0.04464585334062576,-0.03681774064898491,0.1253994107246399,-0.02279854193329811,0.19269222021102905,0.038081392645835876,0.042336806654930115,-0.03252130001783371,-0.13050684332847595,-0.12027006596326828,-0.019868355244398117,-0.05901741608977318,-0.030569227412343025,0.10866036266088486,-0.261385053396225,-0.12508080899715424,-0.002324047265574336,0.24611233174800873,0.09175995737314224,0.03891735151410103,-0.22523529827594757,-0.09357517957687378,-0.023128755390644073,0.029450763016939163,0.03942187875509262,0.05433116480708122,0.062253180891275406,-0.07432693988084793,0.1451268047094345,0.3342495262622833,-0.0505327507853508,-0.07773197442293167,-0.20923174917697906,0.027388086542487144,-0.19803404808044434,0.15476839244365692,0.008081377483904362,-0.16106273233890533,-0.10388586670160294,-0.1370377540588379,0.20558695495128632,0.25973761081695557,0.1776520311832428,-0.03661922365427017,-0.0885213240981102,-0.158517986536026,0.023258883506059647,-0.29032015800476074,-0.2782852053642273,-0.04523487016558647,-0.19561153650283813,0.0024327230639755726,0.022749315947294235,-0.2365954965353012,-0.06409313529729843,-0.08740442246198654,-0.054452016949653625,-0.14372184872627258,-0.04120256379246712,0.06700857728719711,0.33709365129470825,0.16126832365989685,0.2576506733894348,0.04680462181568146,-0.1296159029006958,-0.22645467519760132,-0.20851759612560272,-0.18719138205051422,0.23970846831798553,-0.13117937743663788,0.05465094372630119,0.22045107185840607,-0.0851622074842453,-0.2138344943523407,0.13150082528591156,0.37215352058410645,-0.18569764494895935,-0.3322221338748932,0.18451575934886932,0.12523236870765686,0.09401517361402512,-0.20576678216457367,0.21300378441810608,-0.3592158555984497,-0.04057011008262634,0.23852401971817017,0.16239401698112488,-0.18790748715400696,0.037485796958208084,-0.17442262172698975,0.16074222326278687,-0.03895193710923195,0.3008764684200287,-0.07653798162937164,-0.1367345005273819,0.26085594296455383,0.02221480756998062,0.03711061179637909,0.15924130380153656,-0.000710873631760478,-0.06128120422363281,0.1478644162416458,-0.11714774370193481,-0.2016543298959732,0.16857196390628815,-0.14289100468158722,-0.015187089331448078,-0.10339255630970001,-0.5127824544906616,-0.11574964225292206,0.020952878519892693,0.11341486126184464,0.027102133259177208,-0.04551123082637787,0.15973281860351562,0.17502424120903015,-0.307743638753891,0.1307472586631775,0.052740298211574554,-0.13484933972358704,0.1905493140220642,0.06101395562291145,0.5824924111366272,-0.3100387156009674,0.34855639934539795,0.1579337865114212,-0.11661215871572495,-0.05130290612578392,-0.2414834052324295,0.32207438349723816,-0.13738153874874115,0.07853174954652786,0.02579081431031227,-0.010696805082261562,-0.21927963197231293,0.17534734308719635,0.10121861100196838,0.05723896622657776,-0.12532645463943481,-0.02876320108771324,-0.2993757426738739,0.03739072009921074,0.223846435546875,-0.16210420429706573,-0.09279351681470871,0.06950404495000839,-0.2735626995563507,-0.0035252270754426718,-0.013022873550653458,-0.2668905258178711,0.06144037842750549,0.10228325426578522,-0.2187095731496811,-0.1668817400932312,0.09835625439882278,-0.22326405346393585,0.39268311858177185,-0.22371897101402283,0.22570787370204926,0.032263558357954025,0.06795920431613922,-0.18249008059501648,-0.13717631995677948,-0.33017227053642273,0.35523855686187744,0.43273240327835083,0.31093689799308777,-0.31616947054862976,-0.14580105245113373,-0.1302098035812378,-0.1760226935148239,-0.3825905919075012,-0.14295287430286407,0.18049849569797516,-0.06619347631931305,-0.03513133525848389,-0.2156725972890854,0.8636688590049744,0.013880567625164986,0.1083482876420021,0.072006955742836,-0.03308510407805443,-0.13477909564971924,0.07152233272790909,0.17381618916988373,-0.017794881016016006,-0.27798399329185486,-0.18050913512706757,-0.07084088772535324,0.051260221749544144,0.009000314399600029,-0.15321777760982513,0.12317422032356262,0.16234633326530457,-0.06568996608257294,0.17844440042972565,0.09461923688650131,0.01723306253552437,0.028001321479678154,0.15820574760437012,0.2630818784236908,0.10811566561460495,0.24668073654174805,-0.04412302374839783,-0.07160836458206177,-0.34836792945861816,0.11082056909799576,-0.016212819144129753,-0.01157166063785553,-0.13178198039531708,-0.08569857478141785,-0.07573924958705902,-0.16089732944965363,-0.0024696073960512877,0.2978356182575226,-0.0019459539325907826,-0.07321435958147049,0.02351263538002968,0.1266736537218094,0.09943151473999023,-0.731640636920929,-0.0267103910446167,0.2983212471008301,-0.1274380385875702,-0.07653030008077621,-0.22952459752559662,0.4433315694332123,0.1201687753200531,0.27203893661499023,0.014402159489691257,0.13769738376140594,-0.23331347107887268,0.03697134181857109,-0.203008234500885,0.16128703951835632,-0.13642796874046326,-0.024221979081630707,-0.09691186249256134,-0.004693913739174604,0.003932685125619173,-0.0008105369633994997,-0.022299153730273247,-0.063990019261837,-0.242817685008049,0.1910477876663208,0.1715155392885208,-0.03082297369837761,0.04253225773572922,0.14917413890361786,0.029352158308029175,-0.051828015595674515,-0.3266209065914154,-0.26962435245513916,0.365984171628952,-0.055072929710149765,0.23553504049777985,-0.23452965915203094,0.10658922791481018,-0.020657913759350777,-0.1393953412771225,0.16729789972305298,0.24002324044704437,-0.23314455151557922,0.06721721589565277,0.11280368268489838,-0.17906558513641357,0.13774575293064117,0.011932456865906715,0.0038203755393624306,-0.1454457938671112,-0.31005847454071045,0.4997531771659851,0.13739286363124847,-0.12395643442869186,-0.17764820158481598,-0.16662555932998657,-0.2727929949760437,0.39538949728012085,-0.029334047809243202,0.2399466633796692,-0.29491549730300903,-0.13507810235023499,-0.1023905947804451,0.18221847712993622,0.19001871347427368,0.27273476123809814,-0.22430747747421265,0.1840374618768692,-0.019550222903490067,-0.06542032212018967,0.16607394814491272,0.10511808842420578,-0.22041508555412292,0.07354652881622314,0.10364791005849838,-0.39839959144592285,-0.040437251329422,0.07175685465335846,-0.024175485596060753,0.05030500143766403,0.08210993558168411,-0.3508816659450531,-0.0318392738699913,-0.02489633485674858,0.023386333137750626,0.033421605825424194,0.11301629990339279,0.0011219450971111655,0.09432782977819443,0.02179485186934471,0.04127223789691925,-0.09538903087377548,0.008316204883158207,-0.01654636487364769,0.08506565541028976,-0.021780410781502724,0.29640284180641174,0.03629163280129433,-0.10117799788713455,-0.07980377227067947,-0.10246342420578003,0.2787942886352539,0.034771207720041275,0.19165988266468048,-0.04161583259701729,-0.05208626016974449,-0.04090680181980133,0.012421267107129097,0.06705238670110703,0.11489899456501007,-0.17014996707439423,0.13799738883972168,-0.13021822273731232,0.08707644045352936,-0.035224687308073044,-0.13758684694766998,0.08295384794473648,0.04794570431113243,-0.20045045018196106,0.0666135922074318,-0.042803697288036346,0.06579075008630753,0.1533009260892868,-0.10921414196491241,-0.03277738764882088,-0.006532361730933189,-0.09273756295442581,-0.09434441477060318,0.09750838577747345,-0.20871707797050476,0.08030415326356888,0.1261705607175827,-0.05514233186841011,-0.11956757307052612,-0.015723461285233498,-0.0755440816283226,0.11503095924854279,0.15338292717933655,0.06350724399089813,-0.2030366212129593,-0.2510151267051697,-0.22947952151298523,-0.28342005610466003,0.003407613141462207,-0.21889463067054749,0.09883684664964676,-0.029922345653176308,0.02842390537261963,0.19427217543125153,0.16466328501701355,0.31247514486312866,0.0748039186000824,0.05619702488183975,0.034008100628852844,0.06671842187643051,-0.12022064626216888,-0.08887805044651031,-0.16385968029499054,-0.16747228801250458,0.08390288054943085,-0.001156573765911162,0.10620821267366409,0.05671633034944534,0.13348737359046936,0.12834270298480988,-0.04666363447904587,0.08719237148761749,0.034752823412418365,0.0164561215788126,-0.026261359453201294,0.019733794033527374,-0.03028004989027977,0.03750874102115631,0.09627062827348709,-0.09097393602132797,0.2376975119113922,-0.13606591522693634,-0.025225171819329262,-0.22120784223079681,0.13894100487232208,-0.034523338079452515,0.034297242760658264,0.05853253975510597,0.10696106404066086,-0.17590321600437164,0.19473984837532043,0.21746397018432617,-0.0482775904238224,0.10453484952449799,0.007452622056007385,0.3024955093860626,-0.036214325577020645,0.2650110125541687,0.1874050348997116,-0.19973279535770416,-0.131609246134758,-0.0811917781829834,0.29884660243988037,-0.3444124162197113,0.23983024060726166,-0.18213404715061188,-0.2643420696258545,-0.29724806547164917,-0.0026179663836956024,0.10501472651958466,0.054699674248695374,0.1085001602768898,0.07329908758401871,-0.2022886872291565,0.1348174512386322,-0.003956673666834831,-0.19611439108848572,-0.030090881511569023,0.07040701061487198,-0.2803274989128113,-0.028094010427594185,0.14222313463687897,-0.11131425946950912,0.12915736436843872,-0.010654479265213013,-0.16325584053993225,-0.05235203728079796,0.08858068287372589,-0.20360258221626282,0.41385987401008606,0.1026090532541275,0.10382538288831711,0.19009025394916534,-0.03293156996369362,0.060064639896154404,-0.33584174513816833,0.12638458609580994,0.1364155113697052,0.020613737404346466,-0.050306934863328934,-0.09238108992576599,0.31218189001083374,0.12165744602680206,0.11374708265066147,0.0812920480966568,0.2962469756603241,-0.0625515729188919,-0.3951265215873718,0.4472799599170685,0.4755156934261322,-0.7750493288040161,0.2611459493637085,-0.9306619763374329,-0.15771807730197906,-0.45100072026252747,0.9037696719169617,-0.9354444146156311,-0.719566822052002,-1.0542521476745605,0.2249227613210678,-0.7441277503967285,0.5582196116447449,-0.7941164970397949,0.1237199679017067,-0.04764159396290779,0.028100067749619484,-0.011396273039281368,0.07075440883636475,0.04811207950115204,-0.29201582074165344,0.03023705817759037,-0.2773379385471344,0.028511183336377144,0.2303740531206131,0.17649321258068085,0.10195689648389816,0.09070528298616409,-0.14759883284568787,0.05330513417720795,-0.17535898089408875,-0.28920885920524597,0.17506740987300873,0.07763857394456863,-0.015100445598363876,-0.09323275089263916,0.08816354721784592,-0.1883460134267807,0.8328413963317871,-0.350460410118103,-0.07599961757659912,0.27228954434394836,-0.07228114455938339,-0.3264644742012024,0.12043096125125885,-0.03287449851632118,-0.23865732550621033,-0.11759646236896515,-0.0330483503639698,0.24799378216266632,0.06075187027454376,0.13858148455619812,0.24439637362957,0.14977489411830902,0.008178201504051685,-0.1195581704378128,-0.22978106141090393,-0.27140292525291443,0.17772911489009857,0.30120810866355896,0.25057920813560486,-0.02411130629479885,0.024116208776831627,-0.012120428495109081,-0.19877506792545319,-0.2850528359413147,-0.1810162216424942,-0.08481241762638092,-0.08335839211940765,-0.023092331364750862,-0.05915802717208862,0.08564697206020355,0.04406408220529556,0.44741880893707275,0.1273452341556549,-0.07677711546421051,-0.07734683156013489,0.002520011505112052,0.19163566827774048,0.07120229303836823,-0.12071269750595093,-0.1716965287923813,0.2586354613304138,-0.13458827137947083,-0.011146215721964836,0.109146848320961,0.6715980768203735,-0.14492502808570862,-0.2214367389678955,0.21464785933494568,-0.016628937795758247,-0.07716389745473862,-0.13346874713897705,-0.2855887711048126,-0.010867241770029068,0.0668274462223053,-0.189287006855011,-0.15850986540317535,0.2102516144514084,-0.1457354575395584,0.06832705438137054,-0.09924173355102539,0.1482650339603424,0.28239259123802185,-0.180836021900177,0.0027087219059467316,-0.41567742824554443,-0.05353100970387459,0.12336882203817368,0.03125966712832451,0.2233593612909317,0.030996425077319145,0.0794210210442543,-0.15160830318927765,0.005935161840170622,0.34441453218460083,-0.27632036805152893,-0.07814402878284454,-0.15097713470458984,-0.09935364127159119,-0.07635221630334854,-0.054951876401901245,0.31399041414260864,0.14617480337619781,-0.08160362392663956,0.23747017979621887,0.09851595014333725,0.2166808545589447,0.023617874830961227,0.25688737630844116,0.21978746354579926,0.008765319362282753,-0.06613189727067947,0.03304186463356018,-0.19522970914840698,0.25794097781181335,-0.23868779838085175,-0.06880016624927521,-0.16603121161460876,0.08307556062936783,0.35750535130500793,0.07974737882614136,0.033820562064647675,-0.055659789592027664,-0.3431952893733978,-0.20131245255470276,-0.45108097791671753,-0.01427809800952673,-0.26064950227737427,-0.29886066913604736,-0.08908402919769287,0.20277562737464905,0.42158040404319763,-0.2667492628097534,0.1146245002746582,0.21672649681568146,-0.4550993740558624,0.5415911078453064,-0.07282441854476929,0.14998304843902588,0.049763914197683334,0.011117829941213131,0.3128901422023773,-0.14049504697322845,0.1855759173631668,0.007918373681604862,0.04430990666151047,-0.12387686967849731,-0.06048794463276863,0.15381194651126862,0.20985454320907593,0.07898678630590439,0.2992716133594513,-0.3174331486225128,0.0992898941040039,0.10526903718709946,-0.22147822380065918,-0.11103109270334244,-0.14742176234722137,0.07137378305196762,-0.04679470881819725,0.17477983236312866,-0.07460838556289673,0.35805773735046387,-0.04893619939684868,0.07407955080270767,0.07454511523246765,0.32999786734580994,-0.033800072968006134,0.1744326800107956,0.1196158304810524,0.29402095079421997,-0.30127689242362976,-0.10416001081466675,-0.3662709891796112,-0.08674804866313934,0.04633976146578789,0.2500065565109253,-0.4851630628108978,0.23242101073265076,0.3779504597187042,-0.09059224277734756,-0.06446229666471481,0.005247069057077169,0.07274121046066284,-0.017686037346720695,-0.28625527024269104,-0.3788323700428009,-0.3139791488647461,0.4623721241950989,-0.15593571960926056,0.04204349219799042,-0.04862576723098755,0.16533823311328888,-0.08760277181863785,-0.1109122484922409,-0.02606167644262314,-0.20082733035087585,0.259560763835907,-0.013007593341171741,-0.23672468960285187,0.04808684438467026,0.20537972450256348,-0.07847396284341812,-0.32590025663375854,0.12182135134935379,-0.37772345542907715,0.21206463873386383,-0.15767917037010193,-0.20036664605140686,0.2269926518201828,0.18032529950141907,0.1892419010400772,-0.17434179782867432,0.4567955434322357,0.14796733856201172,-0.1732102334499359,-0.0002959243720397353,0.055694252252578735,0.21576876938343048,0.10471352934837341,0.024644875898957253,-0.2523719370365143,-0.16277776658535004,0.12948861718177795,0.030633224174380302,-0.28591957688331604,0.13694757223129272,-0.12051724642515182,0.04855690523982048,-0.30320441722869873,-0.16237209737300873,0.18913033604621887,0.18599295616149902,0.10689346492290497,-0.21856680512428284,-0.12760214507579803,-0.10976283997297287,-0.1812727451324463,0.05245739966630936,-0.09446554630994797,0.13584813475608826,0.52986741065979,-0.0811135470867157,0.21745271980762482,0.22508379817008972,0.02535775862634182,0.27042096853256226,-0.1905476450920105,-0.23232869803905487,-0.0947258397936821,-0.11107105761766434,0.13723881542682648,-0.22033901512622833,-0.3346344232559204,0.0017917293589562178,0.2575707733631134,0.348238080739975,-0.1457318216562271,0.02414475940167904,0.10356148332357407,-0.00020032069005537778,0.04619541019201279,-0.4954991340637207,0.01697186753153801,-0.23048341274261475,0.015914343297481537,0.09172724932432175,-0.29174429178237915,-0.07667823880910873,-0.13097316026687622,0.05787896364927292,0.07454776018857956,-0.03176743537187576,-0.0251469649374485,0.0016404705820605159,-0.08143498748540878,-0.4009868800640106,0.05483805388212204,-0.14257821440696716,-0.05220004543662071,0.06789446622133255,-0.06737163662910461,-0.0002818253415171057,-0.012300947681069374,0.24629966914653778,0.19494809210300446,0.0045651537366211414,0.012480050325393677,-0.04314364865422249,-0.06048628315329552,0.27503088116645813,-0.09852192550897598,0.029554029926657677,-0.08802948147058487,0.05947112664580345,-0.01607501693069935,0.12719877064228058,-0.3363457918167114,0.13824516534805298,0.19467079639434814,-0.054119259119033813,-0.023452691733837128,0.019440598785877228,-0.01738736592233181,-0.15944407880306244,0.22211238741874695,-0.13021200895309448,0.24501274526119232,0.07902608811855316,-0.2694156765937805,0.08995287865400314,-0.3013898432254791,-0.3564026951789856,0.07075981795787811,-0.12268617004156113,0.21036095917224884,0.2311793565750122,-0.06976739317178726,-0.16273349523544312,0.2607322037220001,-0.0026327320374548435,-0.1864480972290039,0.10845213383436203,-0.2122298777103424,0.11103582382202148,-0.07680976390838623,-0.01409969013184309,0.016469255089759827,-0.11956039816141129,0.16512224078178406,-0.1384458988904953,0.03456874564290047,-0.3258696496486664,0.22530321776866913,-0.20836757123470306,-0.028776969760656357,-0.09512368589639664,0.1840820014476776,-0.1069275364279747,-0.0055842287838459015,-0.029468683525919914,0.26778408885002136,0.08497463911771774,0.24112702906131744,-0.15002836287021637,0.15501436591148376,-0.040049612522125244,-0.2679942548274994,0.1779981404542923,0.04734628647565842,0.0016169784357771277,-0.09811162203550339,0.1375707983970642,-0.12741224467754364,0.04281134158372879,0.08046504855155945,0.08451934158802032,0.07860134541988373,0.2882935702800751,-0.577997624874115,0.0002591587253846228,0.05807569622993469,-0.005718397442251444,-0.12662911415100098,0.2688548266887665,-0.15843413770198822,-0.16628862917423248,0.22836773097515106,0.08135440945625305,0.0750940665602684,-0.19297045469284058,0.05465150624513626,-0.02619532309472561,-0.005117465276271105,-0.14558619260787964,0.11910517513751984,0.033708587288856506,-0.037553779780864716,0.12626425921916962,0.06410268694162369,0.2590875029563904,-0.006233810447156429,-0.13278651237487793,0.015917355194687843,0.14064598083496094,0.08188052475452423,0.11616043746471405,-0.09310837090015411,-0.05211183801293373,-0.034068766981363297,-0.006771448999643326,-0.058533720672130585,0.26598599553108215,-0.09117801487445831,-0.16850051283836365,0.29124248027801514,-0.07805609703063965,0.1423635631799698,0.0757162943482399,-0.04442020133137703,0.037247080355882645,0.11961261183023453,-0.0682595819234848,-0.052998535335063934,-0.17737816274166107,-0.06103130802512169,0.04601753503084183,0.012731781229376793,0.20827750861644745,-0.09970594942569733,-0.0532027892768383,0.19958893954753876,0.10366924107074738,0.142315074801445,-0.0031536559108644724,0.01860283873975277,0.24562785029411316,-0.18404820561408997,0.12892308831214905,-0.07774597406387329,-0.20498377084732056,0.10817787051200867,-0.1665559560060501,-0.04247867688536644,-0.09166611731052399,-0.1008770540356636,0.2564057409763336,0.11874823272228241,0.1324119120836258,-0.05094330012798309,-0.13010992109775543,0.06399130821228027,0.271942138671875,0.13353043794631958,0.05199604108929634,-0.041942283511161804,-0.2334890216588974,-0.05887662619352341,0.07494105398654938,0.08403200656175613,-0.09122900664806366,-0.16616201400756836,0.06692105531692505,-0.07883484661579132,-0.14483512938022614,0.03871795907616615,-0.01885308139026165,-0.14357544481754303,0.2086125910282135,-0.051192089915275574,-0.04750736802816391,0.05454821512103081,-0.07252158969640732,0.02405313029885292,-0.03026653826236725,-0.01993483491241932,0.08245362341403961,0.012348771095275879,-0.013991502113640308,-0.0924445316195488,-0.23563317954540253,-0.06188974529504776,0.10998072475194931,-0.0651509016752243,-0.006231109611690044,0.0661919042468071,0.01007043570280075,0.33567386865615845,0.01703965663909912,-0.08408646285533905,-0.03570052608847618,-0.00789543054997921,0.12164106220006943,0.14160507917404175,-0.17463013529777527,-0.20036070048809052,-0.19701942801475525,0.013285546563565731,0.07769639790058136,-0.09933120757341385,-0.17310911417007446,-0.12578801810741425,-0.11081500351428986,0.16841386258602142,0.20908166468143463,0.05827281251549721,-0.11168559640645981,-0.20874717831611633,0.0455181747674942,-0.006626976188272238,0.044160693883895874,0.19083631038665771,-0.11143993586301804,-0.15954919159412384,0.050013065338134766,0.16129711270332336,-0.14987418055534363,-0.0794275626540184,0.3076878488063812,-0.010448089800775051,-0.05152004212141037,0.03515737131237984,0.19970837235450745,0.07484784722328186,-0.00571180647239089,0.07419376075267792,-0.1420881748199463,-0.28342947363853455,0.25792792439460754,-0.06579495221376419,-0.20173487067222595,0.0438130646944046,-0.10581140220165253,-0.08977194130420685,-0.033870480954647064,-0.14383180439472198,-0.019227491691708565,-0.00192342943046242,-0.10050128400325775,0.03626228868961334,-0.2561551630496979,-0.07217603921890259,0.16695572435855865,0.09266576915979385,0.19389039278030396,-0.008798068389296532,-0.21914580464363098,-0.11050157248973846,0.21813128888607025,0.1785135567188263,0.03141512721776962,-0.2321784347295761,-0.1675647646188736,0.005152193363755941,0.11884387582540512,0.19175933301448822,0.20483317971229553,0.026259107515215874,0.03006993606686592,0.31367501616477966,0.17835237085819244,0.2052583545446396,-0.12758706510066986,-0.2522844970226288,0.16028741002082825,0.04367612674832344,-0.1386898308992386,-0.0708477720618248,0.09541341662406921,0.23084622621536255,-0.06343942135572433,0.022928841412067413,-0.29976195096969604,-0.06926006823778152,-0.22773632407188416,0.2360396534204483,-0.07646408677101135,0.19915537536144257,-0.12189232558012009,-0.05199865251779556,-0.17756424844264984,-0.11340845376253128,0.047513723373413086,0.043589647859334946,0.28017503023147583,0.02324697934091091,0.05976705625653267,0.02715512551367283,-0.06679877638816833,0.17130635678768158,-0.09231862425804138,-0.023336483165621758,-0.10741543024778366,-0.11375255882740021,0.15577319264411926,0.14853933453559875,-0.25855737924575806,-0.09786432236433029,-0.13389982283115387,0.2913026213645935,-0.06736242771148682,0.19299033284187317,-0.2506246864795685,-0.24533922970294952,-0.23202501237392426,0.0683995932340622,-0.09206035733222961,-0.45543983578681946,0.028227167204022408,-0.1115756705403328,-0.1137733906507492,0.26148638129234314,-0.05763469636440277,-0.1834661066532135,0.18435056507587433,-0.2589203715324402,-0.1835246980190277,-0.06063980609178543,0.040412358939647675,-0.1989808827638626,0.08558893203735352,0.2173968106508255,-0.03318726643919945,-0.10888079553842545,-0.632192850112915,0.1594563126564026,-0.08067479729652405,0.021601906046271324,0.12451045215129852,-0.20803649723529816,-0.14077439904212952,-0.11019611358642578,0.13919705152511597,-0.2982848584651947,0.22216366231441498,0.07703195512294769,-0.021502668038010597,0.13970696926116943,0.09511487185955048,-0.06405574828386307,-0.12875090539455414,0.004569015000015497,-0.05402957648038864,0.07121966779232025,0.006708047352731228,0.21092206239700317,0.04485673829913139,-0.06116841360926628,-0.22025208175182343,0.08210033178329468,-0.13123132288455963,0.3319213092327118,-0.26281777024269104,0.003010404761880636,0.32414472103118896,-0.09997770190238953,-0.07574820518493652,0.06706780940294266,0.06299202889204025,0.10340177267789841,-0.01486346684396267,-0.11445771902799606,0.0005986025207675993,0.3412395715713501,-0.08915306627750397,-0.03721373528242111,-0.4998508095741272,-0.0938822478055954,-0.04079598933458328,-0.13242071866989136,-0.18232955038547516,0.034755025058984756,-0.03696560114622116,-0.06695187091827393,-0.005740661174058914,0.015416517853736877,-0.09641966968774796,-0.17977392673492432,-0.31292155385017395,0.0732312873005867,0.08890387415885925,-0.22945137321949005,0.08187144249677658,0.13666284084320068,-0.0016173002077266574,-0.08751218020915985,-0.2706713378429413,0.09870103001594543,-0.10272426158189774,0.0333033911883831,0.1897527426481247,-0.1048225611448288,-0.15163397789001465,-0.03488538786768913,-0.08341625332832336,0.1282288134098053,0.20075665414333344,0.12059307098388672,0.022295411676168442,-0.15991607308387756,0.15228399634361267,0.039721932262182236,0.21916848421096802,0.29647380113601685,0.2324623465538025,-0.3054841160774231,-0.02461634762585163,-0.02472813054919243,-0.07738541811704636,-0.02255234867334366,0.277667760848999,0.16982872784137726,0.061413079500198364,-0.06638520956039429,-0.04470224305987358,0.29280194640159607,-0.0020995521917939186,0.06409833580255508,-0.055298782885074615,-0.284025102853775,-0.03937765210866928,0.14354167878627777,0.16023209691047668,-0.09226840734481812,-0.24240939319133759,0.07788857072591782,0.04337023198604584,0.07486697286367416,-0.14429153501987457,-0.01692190207540989,0.10153128951787949,0.15269730985164642,-0.03168711066246033,0.02684682048857212,-0.15462984144687653,-0.100880466401577,0.004246072843670845,-0.19911420345306396,0.08167609572410583,-0.13976901769638062,-0.1818651407957077,-0.05330997332930565,-0.12532122433185577,0.08028247207403183,0.15040838718414307,-0.09204237908124924,-0.05029532313346863,0.042626846581697464,-0.007990619167685509,-0.09941351413726807,-0.18428348004817963,0.049047451466321945,-0.21020890772342682,-0.021862294524908066,-0.019208204001188278,-0.004691807087510824,-0.08457139134407043,-0.13043583929538727,0.07832055538892746,-0.20389795303344727,-0.002501915907487273,-0.19305337965488434,0.10712603479623795,0.15283948183059692,-0.08356130868196487,-0.1761147826910019,-0.022554557770490646,0.023949874565005302,0.11091883480548859,0.039516251534223557,0.07159256190061569,0.010572115890681744,0.057476021349430084,0.03411536663770676,-0.022964095696806908,0.0033128242939710617,-0.10288838297128677,0.1630641520023346,-0.25678423047065735,-0.05833132937550545,0.03264715522527695,-0.011422896757721901,0.03273347392678261,-0.03612590953707695,0.04247686266899109,-0.09384864568710327,0.036551449447870255,0.08375415951013565,0.1065588966012001,-0.04509403929114342,0.14204952120780945,0.05056886747479439,-0.0711151659488678,-0.09260768443346024,0.023830965161323547,0.08035189658403397,0.027110552415251732,0.03543119877576828,-0.08050950616598129,-0.012407811358571053,0.0063824900425970554,0.1207389086484909,0.07033474743366241,0.03174510970711708,0.05814535543322563,-0.17265106737613678,-0.10364466905593872,-0.14160069823265076,0.18676958978176117,-0.18829920887947083,-0.022176826372742653,-0.3107023239135742,-0.3347089886665344,0.05757324770092964,-0.18233342468738556,0.06904995441436768,-0.2066037952899933,-0.22413238883018494,0.027187136933207512,0.22437480092048645,0.06833949685096741,0.0282371137291193,-0.20271684229373932,-0.10598762333393097,0.08924636989831924,-0.1767207533121109,-0.0462319552898407,-0.08067329972982407,-0.06341169774532318,-0.009762049652636051,-0.09527942538261414,0.0625750795006752,-0.07871367782354355,0.07839659601449966,0.2321426123380661,0.030963627621531487,-0.20504936575889587,-0.16329020261764526,0.0026207074988633394,0.00021778557857032865,-0.0746253952383995,-0.029509756714105606,-0.27326086163520813,-0.07012424618005753,-0.0797826275229454,-0.004129292443394661,0.09345809370279312,-0.1926291435956955,0.12558475136756897,0.05224789306521416,-0.06991933286190033,0.058452308177948,-0.16271723806858063,-0.272208034992218,0.18780040740966797,-0.1195647269487381,0.05723676085472107,0.20047564804553986,-0.01670028828084469,-0.26252657175064087,-0.29697173833847046,-0.11425244063138962,0.10061591863632202,0.25267815589904785,0.1951754093170166,0.038481634110212326,-0.2006865292787552,-0.3114544749259949,-0.1277008205652237,0.09340622276067734,0.2541519105434418,0.37486976385116577,0.05414837598800659,0.34907910227775574,0.06470523029565811,0.18414226174354553,0.01820017397403717,-0.012853703461587429,0.2794643044471741,-0.21179646253585815,0.22202830016613007,-0.2284061312675476,-0.06056585535407066,-0.15086056292057037,0.1840641349554062,0.04286543279886246,-0.0786818340420723,-0.12699149549007416,-0.18645092844963074,-0.03811455890536308,0.24005402624607086,0.08706635981798172,0.08382005244493484,-0.26178687810897827,-0.12732455134391785,-0.07157864421606064,-0.16577495634555817,-0.05559687688946724,0.18886591494083405,-0.1653551161289215,0.1493217796087265,0.1944158524274826,-0.17234200239181519,-0.036868393421173096,0.03768638148903847,-0.127839133143425,0.20606109499931335,0.278042197227478,0.25761181116104126,0.031198009848594666,0.01565059833228588,-0.06466718763113022,0.24778489768505096,-0.042093425989151,-0.12384303659200668,0.12515057623386383,0.09388286620378494,-0.0019425640348345041,-0.12290237843990326,-0.028582891449332237,0.02945026196539402,-0.06287690997123718,0.0165942944586277,0.020992914214730263,-0.048045847564935684,-0.11950141191482544,0.01341702975332737,-0.019696619361639023,0.12174318730831146,0.02847294509410858,-0.018473269417881966,0.001467211521230638,0.0393826961517334,-0.02775581181049347,0.09465821832418442,-0.11135916411876678,0.0014720405451953411,-0.1085350438952446,0.22505469620227814,0.10054830461740494,0.10535957664251328,-0.13650773465633392,-0.20273593068122864,0.15673279762268066,-0.0180804505944252,-0.0721234679222107,0.10814113169908524,-0.07915925234556198,0.07084450125694275,0.20118457078933716,-0.21143795549869537,-0.12143588066101074,-0.05407758802175522,0.08909190446138382,0.15977886319160461,0.16117393970489502,0.0558965727686882,0.01903698593378067,0.360368549823761,0.17587532103061676,-0.061248961836099625,0.12511977553367615,-0.037982258945703506,-0.16173511743545532,0.012181398458778858,-0.06521264463663101,-0.2620474100112915,0.024748768657445908,-0.19954359531402588,0.18641111254692078,-0.18435098230838776,-0.12505683302879333,0.047405023127794266,-0.21707478165626526,-0.060346819460392,-0.19291886687278748,0.28104880452156067,0.07538428902626038,-0.03993653878569603,-0.045330628752708435,0.24316668510437012,0.08975570648908615,-0.03426641225814819,-0.019302459433674812,0.08341732621192932,-0.11265912652015686,0.1781756430864334,-0.15347176790237427,-0.12463930994272232,-0.10240662097930908,0.023494312539696693,0.021217865869402885,-0.2395714670419693,-0.14161190390586853,0.010940849781036377,-0.18306587636470795,-0.14597520232200623,-0.0836268737912178,-0.04375200718641281,0.004808775149285793,-0.18034476041793823,-0.14622816443443298,-0.2546372711658478,0.4941408038139343,-0.20496869087219238,-0.09805601835250854,0.023194242268800735,0.06038638949394226,-0.062126461416482925,0.03765888884663582,0.15579451620578766,-0.15321725606918335,0.08574331551790237,0.148435577750206,-0.15582366287708282,0.040021996945142746,0.15164925158023834,0.0036911005154252052,0.07841268926858902,0.06177656725049019,0.1442330777645111,0.0006686885608360171,-0.2626989185810089,0.08819837123155594,-0.06695123016834259,0.11380823701620102,0.13137997686862946,0.10381065309047699,-0.034524187445640564,-0.0596931055188179,-0.06876637786626816,0.13862325251102448,-0.012082434259355068,0.008175553753972054,-0.1818125694990158,-0.19872066378593445,-0.20714443922042847,0.08825037628412247,-0.12580899894237518,-0.016412809491157532,0.20183511078357697,-0.21587367355823517,0.08784143626689911,0.005591453984379768,-0.11342272162437439,0.006963363382965326,0.08757276087999344,0.17646566033363342,0.0473456084728241,0.004342200700193644,-0.13539524376392365,-0.04010910540819168,-0.048672519624233246,0.29343312978744507,-0.07957156002521515,0.042923133820295334,-0.167983740568161,0.07786034047603607,0.06054616719484329,-0.11848945170640945,-0.1624070256948471,0.2979010343551636,0.07583178579807281,0.10496543347835541,0.11456546187400818,-0.37959709763526917,0.06811128556728363,0.10527776926755905,0.09838251769542694,0.017438281327486038,-0.3686857521533966,0.8270672559738159,0.5914515256881714,-0.5646675229072571,0.06478919088840485,-0.21120424568653107,0.05940184369683266,0.244095116853714,-0.9643726348876953,1.10067880153656,0.6463048458099365,0.1922384798526764,-0.4044775068759918,0.5102470517158508,-0.726355254650116,0.23493804037570953,-0.32895442843437195,0.05400153622031212,-0.44693610072135925,0.1967916637659073,0.14004532992839813,0.2813926935195923,0.10902740061283112,0.20233245193958282,0.13416926562786102,0.16834652423858643,0.43293270468711853,-0.36362481117248535,0.030241934582591057,-0.17720606923103333,0.009577259421348572,0.30952003598213196,-0.0418846532702446,0.05977291613817215,0.16961033642292023,0.09853281825780869,0.1553352326154709,-0.23973284661769867,-0.3265637755393982,-0.2705436646938324,0.04808001220226288,0.016652975231409073,-0.3800387680530548,0.23470814526081085,0.22498607635498047,0.14741884171962738,-0.039402663707733154,0.17242319881916046,-0.2605139911174774,0.10629487037658691,-0.2048284411430359,0.23362873494625092,-0.35994210839271545,-0.16289588809013367,-0.25315535068511963,0.010658081620931625,0.17098549008369446,-0.004388586152344942,-0.11626824736595154,0.18842029571533203,-0.015964508056640625,0.10052096843719482,0.2223101705312729,0.3569129705429077,-0.10678054392337799,0.1079014465212822,-0.028776859864592552,-0.11268077790737152,0.13806866109371185,-0.24400174617767334,0.424051433801651,0.2161940485239029,-0.07397103309631348,0.008103424683213234,0.11376260966062546,0.0686204805970192,0.11150826513767242,0.17138881981372833,-0.09180281311273575,0.05079619958996773,-0.07303515821695328,0.2774868905544281,-0.24847710132598877,0.23607635498046875,-0.020137064158916473,-0.07580843567848206,-0.11246749758720398,0.18098343908786774,0.1547059416770935,-0.18134790658950806,0.06551197916269302,-0.1688743531703949,-0.13605251908302307,0.12598393857479095,-0.06119085103273392,-0.17006269097328186,-0.009955169633030891,-0.08331892639398575,-0.04657377675175667,-0.1399441510438919,-0.22197400033473969,0.3864138126373291,-0.12298878282308578,-0.22357051074504852,-0.2411263883113861,-0.022149529308080673,-0.015616118907928467,0.1620900183916092,0.08088267594575882,0.14811404049396515,-0.0018440495477989316,0.18821613490581512,0.024926086887717247,-0.08768004179000854,-0.08524595201015472,0.253397136926651,-0.26860252022743225,0.02250656858086586,-0.15521901845932007,-0.16467489302158356,0.3330298662185669,0.3064377009868622,-0.12574502825737,0.0859825387597084,0.1604001224040985,0.14722923934459686,0.10773548483848572,0.2570876479148865,0.2572110891342163,-0.0995195135474205,-0.015284676104784012,0.23455828428268433,-0.23361192643642426,-0.09377201646566391,0.1583796888589859,-0.11725562810897827,-0.11088667064905167,0.09211259335279465,0.2967442572116852,0.027102943509817123,0.020894188433885574,-0.19103218615055084,-0.09933651983737946,-0.15029388666152954,0.276918888092041,-0.13921195268630981,0.09832993894815445,0.27361369132995605,0.04544917121529579,-0.15013256669044495,-0.06356353312730789,-0.060131676495075226,0.10523572564125061,-0.23700270056724548,0.202602818608284,-0.3132026493549347,-0.17058996856212616,0.026437319815158844,0.09464287757873535,0.2521723210811615,-0.34113094210624695,-0.2453773319721222,0.16352225840091705,0.03952966257929802,-0.025727907195687294,-0.15658815205097198,-0.1971845030784607,-0.06681851297616959,0.13660894334316254,0.15052063763141632,-0.20386061072349548,0.059523724019527435,-0.018889514729380608,0.3971824645996094,-0.13808228075504303,0.30285578966140747,-0.31645411252975464,-0.1592453420162201,-0.5330566763877869,0.41344282031059265,-0.3420165181159973,0.20749711990356445,-0.08474738150835037,0.3495011627674103,0.1846017688512802,-0.20466382801532745,0.1815798580646515,-0.10689666867256165,-0.18521031737327576,0.09791834652423859,0.42098963260650635,-0.12642036378383636,0.05141071975231171,-0.03179805353283882,0.10535383224487305,-0.20849983394145966,0.18209706246852875,0.46389758586883545,0.08345633745193481,-0.08940118551254272,-0.16846007108688354,0.07968007773160934,0.3170562982559204,-0.40514233708381653,-0.10005275160074234,0.0213640034198761,-0.07663647830486298,-0.28578731417655945,-0.26900991797447205,-0.027521684765815735,-0.14388735592365265,0.1812196522951126,0.176779642701149,-0.25588443875312805,-0.18112069368362427,0.16624009609222412,0.276418536901474,-0.18337373435497284,-0.042748741805553436,0.009758828207850456,0.17102982103824615,0.19649948179721832,-0.03676331788301468,-0.24064326286315918,0.12594746053218842,-0.20414689183235168,-0.08586157113313675,-0.04984769597649574,-0.03331379219889641,0.22288058698177338,-0.2642349898815155,0.09981095790863037,0.21900101006031036,0.06777476519346237,-0.24518677592277527,-0.020757894963026047,0.17631351947784424,-0.09608014672994614,0.06906549632549286,0.022564157843589783,-0.028872815892100334,-0.055116601288318634,-0.0186027679592371,-0.10074501484632492,-0.2083148956298828,0.12582674622535706,-0.16220726072788239,0.03947339206933975,0.13775017857551575,0.08828223496675491,0.10852370411157608,-0.03787483647465706,0.045264799147844315,-0.09169881790876389,-0.22788725793361664,0.06187848001718521,-0.10893835127353668,-0.007981222122907639,-0.33591845631599426,-0.09926466643810272,0.07827442139387131,0.04710908979177475,-0.3754028379917145,0.04586315155029297,0.20518256723880768,0.21130838990211487,0.20988768339157104,-0.23075704276561737,0.02769959159195423,-0.09937555342912674,0.08408485352993011,0.061838094145059586,0.020993651822209358,0.057994626462459564,0.0840265080332756,-0.21223463118076324,0.19554339349269867,0.26098036766052246,0.16331927478313446,-0.4593656659126282,-0.14191095530986786,0.14288993179798126,0.3048415184020996,0.07345353066921234,0.0026518746744841337,0.16208669543266296,-0.15733282268047333,0.05497672036290169,0.0739864632487297,-0.12154246866703033,0.1297558844089508,-0.20480872690677643,-0.03877713903784752,-0.06935983896255493,0.06876600533723831,0.0036097741685807705,-0.05595291405916214,0.09683424979448318,-0.08038841187953949,-0.020214680582284927,-0.04761325940489769,-0.027591019868850708,-0.03288013115525246,-0.08545299619436264,0.26877084374427795,0.030088316649198532,-0.04405791684985161,-0.26906025409698486,-0.3820143938064575,-0.08147777616977692,0.12704627215862274,0.19253621995449066,0.035954587161540985,-0.18582357466220856,-0.13436974585056305,0.00419088639318943,0.10267169028520584,-0.31410127878189087,0.0945930927991867,-0.010112418793141842,-0.0075800539925694466,-0.11117672920227051,-0.29228851199150085,0.005070256069302559,0.10863234847784042,-0.1609833985567093,0.19472120702266693,0.10342074185609818,-0.27114221453666687,-0.23882021009922028,-0.1790558397769928,-0.12457972019910812,0.18013730645179749,0.0984547957777977,-0.11006897687911987,0.0050223893485963345,0.20913955569267273,-0.030788354575634003,0.1305181086063385,0.08716899156570435,-0.2851206362247467,-0.38923579454421997,0.014231141656637192,-0.024751022458076477,-0.19743706285953522,0.07193683832883835,0.041350673884153366,-0.0158015638589859,0.08909156173467636,0.11963391304016113,0.023654386401176453,-0.1661330908536911,0.07414448261260986,-0.3037727475166321,0.1696455329656601,-0.015915928408503532,-0.1305244117975235,-0.16243039071559906,0.011254455894231796,0.14665527641773224,0.16264842450618744,-0.09591266512870789,-0.07432892173528671,0.1309792548418045,0.19017121195793152,-0.18505150079727173,0.20626889169216156,0.16811197996139526,0.08589614927768707,-0.10398273169994354,-0.12031735479831696,-0.053198039531707764,0.08491749316453934,-0.06418628990650177,-0.00931299664080143,0.1892492026090622,-0.18002921342849731,-0.07531070709228516,0.07626923173666,0.16213881969451904,-0.07670924812555313,0.1756330281496048,-0.0028480857145041227,-0.06698659807443619,0.08026749640703201,0.10069197416305542,0.08934483677148819,-0.16880758106708527,-0.2634642422199249,-0.2694207727909088,0.19076481461524963,0.33597296476364136,-0.06329351663589478,0.10030712187290192,-0.178788959980011,0.218559131026268,0.07060679793357849,-0.018751025199890137,-0.24019193649291992,-0.17759251594543457,0.12298647314310074,0.02834976091980934,0.14910322427749634,-0.06418008357286453,-0.06902571022510529,-0.06925433874130249,0.13812336325645447,0.05774518847465515,0.07319901138544083,-0.04819568246603012,-0.0010613787453621626,-0.05501304939389229,0.11298754066228867,-0.023364027962088585,0.29321539402008057,-0.0064255716279149055,-0.1437358409166336,-0.14335930347442627,-0.14651405811309814,-0.03184960037469864,0.08173085004091263,-0.04986116290092468,-0.023120736703276634,0.007469584699720144,-0.12107764929533005,0.02315196767449379,-0.12873241305351257,-0.0012002383591607213,-0.16692429780960083,0.2302478551864624,0.22410830855369568,0.10149644315242767,0.2879819869995117,-0.07835548371076584,0.16371655464172363,0.2110244631767273,0.05952081084251404,-0.016054825857281685,0.04478415846824646,0.07068690657615662,0.10381551831960678,0.14075882732868195,-0.16023962199687958,0.02277584746479988,0.10350092500448227,-0.19466492533683777,-0.1451692134141922,-0.17983019351959229,0.17702724039554596,0.08835427463054657,-0.050582610070705414,0.11233439296483994,-0.06268545985221863,-0.056146129965782166,0.2604460120201111,0.13518084585666656,-0.12498146295547485,-0.2498960942029953,-0.20814363658428192,0.001467874855734408,0.1977420300245285,0.015266751870512962,0.3292909860610962,-0.016794130206108093,0.07605385780334473,0.1301877796649933,0.017333099618554115,0.03584957867860794,0.19188524782657623,-0.2130296677350998,0.12686395645141602,0.09970095008611679,-0.2494475394487381,-0.21083515882492065,0.0224382933229208,0.0825076624751091,0.001442125765606761,0.22289234399795532,-0.12324456870555878,0.22933095693588257,0.2581512928009033,-0.058962445706129074,-0.010659562423825264,0.21890296041965485,0.08190064877271652,-0.03973821923136711,0.46051305532455444,0.1047462522983551,0.1986866146326065,0.17901679873466492,-0.000773611303884536,-0.0560263954102993,-0.059563614428043365,-0.2596733570098877,-0.1828734427690506,-0.06587273627519608,0.20433397591114044,0.0563809797167778,0.07002510875463486,0.18166975677013397,0.062087807804346085,-0.015589133836328983,0.0773923322558403,-0.03631271421909332,0.2459563910961151,-0.17989419400691986,-0.16540539264678955,-0.0989798828959465,0.11222582310438156,0.1316039115190506,0.4705643653869629,0.026008622720837593,0.07992572337388992,0.06474035233259201,-0.026666205376386642,-0.10216256976127625,0.12144115567207336,-0.11604166030883789,-0.09033334255218506,0.02048463188111782,-0.16441211104393005,-0.018209081143140793,-0.05186387151479721,0.15633606910705566,0.02665257640182972,0.14244723320007324,0.0042624566704034805,-0.16946478188037872,-0.057336483150720596,-0.11282370984554291,-0.20579084753990173,0.10725007206201553,-0.015225294046103954,0.1519802063703537,0.03191666305065155,0.21315638720989227,-0.21771439909934998,0.08345545083284378,-0.1586642861366272,0.03966490179300308,-0.2489859014749527,-0.08711520582437515,0.06984470039606094,-0.1765129566192627,-0.060838259756565094,0.11584295332431793,-0.012299824506044388,0.021802978590130806,0.2749130427837372,-0.08120989799499512,-0.14399923384189606,-0.3346653878688812,0.09057775139808655,0.019630419090390205,0.1904587298631668,0.05239243060350418,-0.1971801072359085,-0.08940685540437698,-0.05054677650332451,-0.19507916271686554,-0.007669105660170317,0.020528877153992653,0.13680747151374817,-0.03847605362534523,0.06611989438533783,-0.023717960342764854,-0.11526840180158615,0.029937880113720894,0.12727652490139008,0.20643465220928192,0.029250478371977806,-0.07284324616193771,-0.06370999664068222,0.08962684869766235,0.12857937812805176,0.1899697631597519,0.28835630416870117,-0.07218640297651291,-0.0459606908261776,-0.19884875416755676,-0.1010136529803276,-0.13180071115493774,0.4730399250984192,0.028688423335552216,-0.061493467539548874,-0.24048681557178497,-0.3425886631011963,-0.3785971701145172,0.2493896186351776,0.13778385519981384,-0.23353008925914764,-0.12304362654685974,0.27125558257102966,-0.12423640489578247,0.1828385293483734,-0.10321956872940063,0.03938761353492737,0.02007671445608139,0.010387593880295753,0.09070681780576706,0.24989210069179535,-0.06944970041513443,-0.14706827700138092,0.0016165784327313304,0.14651110768318176,0.011974417604506016,0.23940929770469666,0.12753120064735413,-0.0009276323253288865,-0.08687761425971985,-0.06028314307332039,0.23611856997013092,-0.05980466306209564,-0.13562262058258057,-0.033820681273937225,0.07330808788537979,-0.19780290126800537,-0.21274518966674805,0.24228523671627045,0.08117756247520447,-0.037419091910123825,0.224334716796875,-0.14563056826591492,-0.013820609077811241,-0.12179979681968689,-0.10215261578559875,0.4395986795425415,-0.4848569929599762,0.044945523142814636,-0.23043221235275269,0.02905058115720749,0.15903063118457794,-0.23252636194229126,-0.14764320850372314,-0.1394893229007721,0.019936928525567055,-0.1269759237766266,0.1696290671825409,-0.2246958315372467,0.05470602959394455,0.10934183746576309,0.015858255326747894,-0.08368618041276932,0.0301444623619318,-0.45928269624710083,0.17267966270446777,0.10435838997364044,0.28317132592201233,-0.04105200618505478,-0.2989681661128998,-0.34730151295661926,-0.14124000072479248,0.29640865325927734,-0.2678601145744324,-0.06475669145584106,-0.1771807223558426,-0.04433704540133476,0.05739159509539604,0.058290984481573105,0.2977761924266815,-0.14313052594661713,-0.0407947339117527,0.3430607318878174,-0.2530113756656647,-0.3530069887638092,-0.2201308310031891,0.22753500938415527,0.09640146791934967,-0.2715774476528168,-0.16207218170166016,-0.2563437223434448,0.005441960413008928,0.2868727445602417,-0.013555938377976418,0.30992576479911804,-0.016851626336574554,0.04910355433821678,-0.10848713666200638,-0.22228886187076569,0.09409993886947632,0.021168380975723267,0.10303329676389694,-0.15840758383274078,-0.12951931357383728,0.008421619422733784,-0.03677066043019295,-0.1570686250925064,-0.030626991763710976,0.1804535984992981,-0.04802411422133446,-0.17963145673274994,-0.059453871101140976,-0.20900501310825348,-0.20811019837856293,0.03655325621366501,0.10823959112167358,0.09348133206367493,-0.2909296452999115,0.013351993635296822,0.06574098020792007,0.08969700336456299,0.01684419810771942,0.12286747992038727,-0.05257643014192581,0.17956599593162537,0.20057733356952667,-0.21990551054477692,0.21080432832241058,0.046165309846401215,-0.23150907456874847,0.029508322477340698,0.2038486748933792,-0.2110370397567749,-0.06502661108970642,0.08074281364679337,0.01364914420992136,0.099241241812706,0.03843935951590538,0.050540365278720856,0.02094896510243416,0.09056441485881805,0.3448062837123871,0.12356946617364883,0.05658954381942749,-0.3289397060871124,0.07073692232370377,0.07995132356882095,0.15676335990428925,0.2123507559299469,-0.023561889305710793,-0.00845339335501194,-0.10795245319604874,-0.15774421393871307,0.07595571130514145,-0.2130301147699356,0.029656806960701942,-0.0545903816819191,0.06479525566101074,0.018292874097824097,0.5627586841583252,-0.08157099783420563,0.08525069057941437,0.2251134067773819,0.18014754354953766,-0.0835784301161766,-0.07944280654191971,-0.23231326043605804,0.07684139907360077,0.05095953121781349,0.025627655908465385,-0.036166392266750336,0.25664016604423523,0.17813920974731445,-0.16420994699001312,0.1553434431552887,0.1074460819363594,-0.07536749541759491,-0.15442781150341034,-0.001374117098748684,-0.00958547368645668,-0.12312492728233337,0.14739233255386353,0.16103458404541016,-0.12613990902900696,0.25995832681655884,-0.18089981377124786,0.09886656701564789,0.32389241456985474,-0.28102996945381165,-0.05492860823869705,-0.8385207653045654,1.2056859731674194,0.7370949983596802,0.30479151010513306,-0.3078230023384094,-0.0030926582403481007,0.02953779324889183,-0.04984792321920395,-0.3032192885875702,-0.470907598733902,-0.19605818390846252,0.09509092569351196,0.024064863100647926,0.14204014837741852,0.14289499819278717,0.08901159465312958,0.08335976302623749,0.022341109812259674,-0.06341836601495743,-0.05253099650144577,0.09237270057201385,0.30130845308303833,-0.14413148164749146,-0.08207142353057861,-0.2691156566143036,0.12034416198730469,0.15920868515968323,0.49744725227355957,-0.300021767616272,-0.2454409897327423,0.052604857832193375,-0.4731534719467163,-0.4280538260936737,0.16156770288944244,-0.09663830697536469,-0.028860006481409073,0.21493706107139587,-0.08057300746440887,0.034691356122493744,0.10271764546632767,-0.16313134133815765,0.16843698918819427,0.25533539056777954,-0.21915388107299805,-0.09099680930376053,-0.09870298951864243,-0.027508016675710678,-0.053881704807281494,0.13888147473335266,0.04419579356908798,-0.2436170130968094,-0.007675747387111187,0.04616791754961014,0.05620485171675682,-0.04037267714738846,-0.05262830853462219,-0.08858626335859299,-0.2729925811290741,-0.10830381512641907,0.04110845550894737,-0.08175414055585861,-0.11942526698112488,0.0989883616566658,0.14114663004875183,-0.029682355001568794,-0.24421344697475433,-0.0725109875202179,-0.06129475310444832,0.21412236988544464,0.0597628578543663,-0.013377533294260502,-0.039899248629808426,-0.2313717007637024,0.09639369696378708,0.2331562042236328,-0.06059933826327324,-0.24318069219589233,0.00778858782723546,0.06062288209795952,-0.21896398067474365,0.03660587593913078,0.19063255190849304,0.13775819540023804,-0.2614102065563202,0.2669467031955719,-0.060238372534513474,-0.0843915194272995,-0.08940551429986954,-0.16488616168498993,-0.04026828706264496,0.1957738697528839,-0.15780700743198395,-0.058088719844818115,0.2014905959367752,0.228859081864357,-0.020466608926653862,-0.02946152351796627,-0.1008811891078949,0.11695293337106705,-0.07923479378223419,-0.04661567509174347,-0.056592877954244614,-0.00009503681940259412,-0.03702721372246742,-0.2545876204967499,0.14888730645179749,0.15204906463623047,0.16040049493312836,0.0753653421998024,-0.006075703538954258,-0.03795448690652847,-0.2441694140434265,0.11515598744153976,-0.023430706933140755,0.18058478832244873,0.0573122613132,0.15039706230163574,-0.11388715356588364,0.15428172051906586,-0.309067040681839,-0.1542249172925949,0.032973773777484894,0.09537089616060257,0.01611211709678173,0.13544028997421265,-0.20355665683746338,0.018743153661489487,0.13095712661743164,0.04843933507800102,-0.05544612556695938,0.07962644100189209,0.1439322829246521,-0.025571418926119804,-0.002149739069864154,0.04773310571908951,-0.05122709274291992,0.11524645239114761,-0.05977144464850426,-0.19353140890598297,0.19670486450195312,0.02523873560130596,-0.08639518171548843,-0.31035539507865906,0.017651638016104698,0.017069878056645393,0.3281268775463104,-0.29381096363067627,-0.08317640423774719,0.12817226350307465,0.13786406815052032,-0.09817135334014893,-0.11736427247524261,-0.10203555971384048,0.15739330649375916,0.25808700919151306,0.24811770021915436,0.08306074887514114,0.22011184692382812,0.11063610017299652,-0.21593904495239258,0.2176607847213745,0.04761482775211334,-0.17732100188732147,-0.0487433485686779,-0.21216285228729248,0.0639963150024414,-0.11680582910776138,0.16721604764461517,-0.0998772531747818,-0.053508661687374115,0.00928458571434021,-0.046254973858594894,-0.39157605171203613,-0.02936691790819168,-0.09471588581800461,-0.5922434329986572,-0.25830554962158203,0.07622537761926651,-0.0027259800117462873,0.04637407884001732,0.05008162185549736,-0.13034021854400635,0.1781664341688156,0.016113977879285812,-0.4607241749763489,-0.06356682628393173,0.20650507509708405,-0.21656833589076996,-0.03191506862640381,-0.210507333278656,-0.12117993831634521,0.1692923903465271,0.09971828758716583,-0.08426669985055923,0.016638334840536118,-0.05621190741658211,-0.13695600628852844,0.1169467568397522,-0.21055547893047333,-0.01697089895606041,0.3111303150653839,-0.013839533552527428,-0.0909060537815094,-0.017267603427171707,0.25611022114753723,-0.081161268055439,-0.21684525907039642,0.07449635863304138,-0.14506065845489502,0.10468608140945435,0.025840898975729942,0.06423857808113098,-0.09925046563148499,-0.17942655086517334,0.05342213436961174,0.2236395925283432,0.027776965871453285,0.09437799453735352,-0.06352968513965607,-0.22223155200481415,-0.2841776907444,0.10712656378746033,0.023703770712018013,-0.05390374734997749,-0.02807988040149212,-0.1953228861093521,-0.023281864821910858,0.0542076900601387,-0.13375696539878845,0.11346859484910965,0.08205442875623703,0.014656564220786095,0.07842224836349487,-0.16864386200904846,-0.08884267508983612,-0.12079223990440369,0.01389140635728836,0.09123668819665909,0.40017804503440857,0.04045070335268974,-0.23530317842960358,0.23148907721042633,0.3852061331272125,0.0782194510102272,-0.01844368502497673,-0.11960046738386154,0.2197423279285431,0.17721764743328094,0.02063298039138317,-0.034126102924346924,0.2762722671031952,-0.04984920099377632,-0.22347278892993927,-0.11731403321027756,0.2051297128200531,0.048566918820142746,-0.007928846403956413,0.00781432818621397,-0.11969653517007828,0.07388993352651596,0.03656094893813133,0.17954979836940765,-0.014913693070411682,-0.19585072994232178,-0.15748003125190735,-0.059744544327259064,0.26451435685157776,0.12464121729135513,0.4983278512954712,-0.19311130046844482,0.16530868411064148,-0.0475274920463562,-0.20105326175689697,-0.12832795083522797,0.006642693653702736,-0.08641058206558228,-0.1305716633796692,0.05432585999369621,-0.06101780757308006,0.0865735411643982,0.05769098922610283,0.08447673171758652,0.1423759013414383,0.37671729922294617,0.06575478613376617,-0.12861314415931702,-0.10353537648916245,0.03423282876610756,-0.10578539967536926,0.2246231734752655,0.05928385630249977,-0.13046889007091522,-0.13604240119457245,0.08378912508487701,0.18777959048748016,0.074184350669384,-0.24064569175243378,0.14271225035190582,-0.12185440212488174,-0.01655314862728119,0.1715894639492035,0.7064940929412842,0.18517328798770905,0.5236296653747559,-0.8875662088394165,-0.4382254481315613,-0.17235052585601807,0.42921459674835205,0.08708000183105469,0.50532066822052,0.5246938467025757,-0.8223812580108643,0.5203559398651123,0.24772298336029053,-0.8338532447814941,-0.05209331586956978,-0.16344495117664337,-0.3009076714515686,-0.27974560856819153,0.19115297496318817,-0.5073981881141663,-0.09366118907928467,0.33131688833236694,-0.08675651252269745,-0.269072026014328,-0.4507576525211334,-0.09088759124279022,-0.07048391550779343,-0.10933952033519745,0.03826760873198509,-0.0033329445868730545,0.25113445520401,-0.1838601529598236,0.02513950876891613,-0.2994611859321594,0.02978462353348732,-0.3884510397911072,-0.040889889001846313,0.08871177583932877,-0.10811012983322144,-0.21340496838092804,-0.41893574595451355,0.05154312774538994,-0.3428676724433899,0.004630221053957939,0.09310232847929001,0.12359549850225449,0.21487122774124146,0.09893739223480225,0.020031381398439407,0.11386411637067795,-0.2440163642168045,-0.08817385137081146,-0.1584080457687378,-0.36572423577308655,-0.4457859396934509,0.11739425361156464,0.3577706813812256,-0.1087120994925499,-0.11859390884637833,0.0896783173084259,0.01416132040321827,0.26651260256767273,-0.030114980414509773,0.30517303943634033,-0.11032330244779587,0.11548194289207458,-0.01497114822268486,0.17970025539398193,0.22671714425086975,0.19707933068275452,0.3830457925796509,0.17916662991046906,-0.08194724470376968,-0.5118025541305542,0.2505544126033783,-0.20412471890449524,0.22690555453300476,0.07436012476682663,0.17420412600040436,-0.23865316808223724,0.18081271648406982,-0.2492661029100418,-0.30615368485450745,0.21620894968509674,-0.06779173016548157,-0.03840183839201927,-0.03553733229637146,-0.3198206126689911,0.2722451686859131,0.38876447081565857,0.2525723874568939,0.31612294912338257,-0.23569197952747345,-0.07840389013290405,-0.1559349149465561,-0.2558141350746155,-0.23111768066883087,0.1308513581752777,0.09868429601192474,0.13480843603610992,-0.11376713961362839,0.14308440685272217,-0.009870458394289017,-0.10500882565975189,0.0866733267903328,0.41449329257011414,-0.27176764607429504,0.26967665553092957,-0.13812600076198578,0.07948553562164307,-0.3689475655555725,0.04632208123803139,-0.06897895038127899,-0.23790384829044342,-0.07905367761850357,-0.2945084571838379,-0.13880498707294464,-0.2726163864135742,0.28106552362442017,0.24426500499248505,-0.24728883802890778,0.20988622307777405,-0.03293833136558533,0.0933118686079979,0.14073950052261353,0.01473258901387453,0.03125469386577606,-0.1929948478937149,0.09942610561847687,0.04194437339901924,-0.16663990914821625,0.24937207996845245,0.13308753073215485,-0.394747257232666,0.1583322435617447,0.19548217952251434,0.03569282591342926,0.21868835389614105,0.10287079215049744,0.2836226522922516,-0.05271019786596298,0.18616347014904022,-0.07200883328914642,0.04350920021533966,-0.3415641784667969,0.09328018873929977,-0.14391379058361053,0.08906358480453491,0.1414889544248581,0.09039358794689178,-0.2621517479419708,-0.3036026060581207,0.05808396264910698,-0.0752275362610817,-0.13763587176799774,-0.2191416323184967,0.18243543803691864,-0.029587864875793457,0.18778623640537262,0.06336161494255066,0.057968128472566605,0.03239761292934418,-0.02172793261706829,-0.2126556634902954,-0.2036910355091095,0.12407851219177246,-0.2754935324192047,0.08095235377550125,-0.32772529125213623,0.035753194242715836,0.13196620345115662,-0.11724783480167389,0.30184388160705566,-0.1075240969657898,0.22698143124580383,0.022757558152079582,-0.25210410356521606,0.031223447993397713,-0.32902517914772034,-0.5799856185913086,-0.30761104822158813,0.15206347405910492,-0.07940918952226639,-0.21610452234745026,0.046489033848047256,-0.10560708492994308,-0.04308098927140236,-0.08288537710905075,-0.11511702090501785,0.14723601937294006,0.2996421456336975,-0.2857285141944885,0.03150438889861107,0.06750010699033737,-0.04382998123764992,-0.2856973111629486,-0.14934128522872925,-0.2263067215681076,0.1356593668460846,0.15187549591064453,-0.22673889994621277,-0.02006411738693714,0.3856082260608673,0.24684679508209229,-0.08552607148885727,0.28669944405555725,-0.18690215051174164,-0.21354717016220093,0.1150120422244072,0.024977222084999084,0.15788643062114716,0.328259140253067,-0.13621918857097626,-0.047139354050159454,-0.10462234169244766,0.12867863476276398,0.2313687652349472,0.22642572224140167,-0.20991483330726624,-0.023464662954211235,-0.18796168267726898,0.2013046145439148,-0.045065440237522125,0.005882880184799433,-0.17547987401485443,0.11200562864542007,-0.04069557040929794,0.2308974415063858,-0.034542739391326904,0.08961585909128189,-0.17305465042591095,0.058377813547849655,0.0149967847391963,0.09768462181091309,0.12931787967681885,-0.1340942084789276,-0.2718455195426941,-0.25378847122192383,0.12418650835752487,-0.06784960627555847,0.41090723872184753,0.025509962812066078,0.14546766877174377,0.18512453138828278,-0.11917105317115784,-0.12033233046531677,0.07733440399169922,0.1948160082101822,-0.1231660321354866,-0.06489770859479904,-0.3119240701198578,-0.053935203701257706,-0.04793187230825424,0.024190416559576988,-0.16207747161388397,0.11990998685359955,-0.06630945950746536,0.14969339966773987,-0.29594603180885315,-0.2339993566274643,-0.3094046413898468,-0.44061630964279175,0.09633529186248779,-0.031165705993771553,-0.052891746163368225,0.14315804839134216,-0.022822072729468346,0.16058221459388733,0.10832612961530685,-0.07741880416870117,0.11658626794815063,-0.10321647673845291,-0.1277751922607422,0.028065906837582588,0.04132995381951332,0.07449470460414886,-0.13184620440006256,-0.0207704845815897,0.21272613108158112,0.08046480268239975,-0.5165414810180664,0.2388763576745987,0.18899236619472504,0.2608121633529663,-0.0928289070725441,-0.30885401368141174,-0.06134406104683876,0.08730480074882507,0.10194437950849533,-0.038150761276483536,0.10682184249162674,0.013657063245773315,-0.022713730111718178,-0.09740027040243149,-0.08097752183675766,-0.1626630574464798,-0.45019617676734924,0.17229200899600983,-0.027277886867523193,0.28752538561820984,0.13797138631343842,0.1245524063706398,-0.2627420127391815,0.21103885769844055,0.0852312222123146,-0.04333115741610527,0.07809463888406754,-0.013633373193442822,-0.06774155050516129,0.2538986802101135,0.20499081909656525,-0.33945536613464355,-0.11051119118928909,-0.14225080609321594,0.30367347598075867,0.24626877903938293,-0.06351900100708008,-0.22549229860305786,0.058729708194732666,0.1161976084113121,-0.16959407925605774,0.08529447764158249,0.10256100445985794,-0.38779956102371216,-0.07167622447013855,0.07237227261066437,0.32095444202423096,-0.20510579645633698,-0.13270412385463715,0.13830986618995667,-0.08733828365802765,-0.18280424177646637,-0.13072365522384644,-0.190322607755661,0.052411094307899475,-0.34315478801727295,-0.025297420099377632,-0.05082662031054497,0.27757468819618225,-0.03787324205040932,-0.07908953726291656,0.06088748946785927,-0.062266044318675995,0.09006848186254501,0.11643379181623459,-0.1989634931087494,-0.06775588542222977,0.10835834592580795,0.1790534406900406,0.021000390872359276,0.060707174241542816,0.1321203112602234,0.09083205461502075,-0.2470640391111374,-0.20455878973007202,0.22136282920837402,0.13461537659168243,-0.057110995054244995,0.07329640537500381,-0.2662239372730255,-0.16881145536899567,-0.03156854212284088,0.264136403799057,0.10482148081064224,0.17595602571964264,-0.14288365840911865,0.043336838483810425,-0.10095752775669098,0.261859267950058,-0.19923169910907745,0.07163164019584656,0.08109644800424576,-0.09488295018672943,-0.18715448677539825,0.1710098534822464,-0.11985891312360764,-0.2249712496995926,0.25102972984313965,0.09164095669984818,0.16115577518939972,-0.23879392445087433,-0.18919704854488373,0.10168865323066711,0.05104432255029678,-0.07618512958288193,-0.08832545578479767,-0.24587036669254303,0.21349865198135376,0.17025184631347656,0.36826902627944946,-0.28732821345329285,0.08244538307189941,-0.04574064165353775,-0.1801842302083969,0.01972459815442562,-0.06931193172931671,-0.060008078813552856,0.016346825286746025,-0.23327568173408508,0.17983384430408478,0.10758359730243683,-0.07868150621652603,0.03077331930398941,-0.09927898645401001,-0.7666544914245605,0.07203412801027298,0.03366239368915558,-0.3163723647594452,-0.06039160117506981,-0.1738889217376709,0.18133626878261566,0.26777732372283936,-0.07982809841632843,-0.24053052067756653,0.09677070379257202,0.17708072066307068,-0.33987513184547424,-0.17827977240085602,0.09164286404848099,-0.4222060441970825,-0.21205750107765198,-0.03575529903173447,0.2093222290277481,-0.12509749829769135,-0.04191325977444649,0.21127018332481384,0.049629490822553635,0.053294725716114044,0.007004961837083101,-0.0073036621324718,0.25107792019844055,-0.29917243123054504,-0.1288643181324005,0.015538297593593597,-0.015829777345061302,0.02180345728993416,-0.01563386060297489,-0.152284637093544,0.01982213370501995,-0.07030420750379562,-0.11089479923248291,0.19600729644298553,0.21148189902305603,-0.1301921308040619,0.030444609001278877,0.044245485216379166,-0.06837605684995651,-0.11533671617507935,-0.1376653015613556,0.30008894205093384,0.1183338612318039,-0.22807347774505615,0.11188840121030807,0.10965684056282043,-0.08612564951181412,-0.01010217983275652,0.028848405927419662,0.11699223518371582,0.023586086928844452,-0.09517030417919159,-0.02759338729083538,0.09645375609397888,0.029994485899806023,0.09424091875553131,-0.029725002124905586,0.05974236875772476,-0.17811276018619537,-0.11362487822771072,-0.030724965035915375,0.09635288268327713,-0.10358002781867981,-0.0017433707835152745,0.20827440917491913,-0.23432886600494385,0.04863720014691353,-0.33000779151916504,0.10526417195796967,0.03968997672200203,-0.06001892313361168,-0.18365079164505005,-0.07287809997797012,0.11232338845729828,0.08304080367088318,-0.06677227467298508,0.14678579568862915,-0.005272544454783201,0.0853470042347908,0.02227446809411049,0.298398494720459,0.0016029797261580825,0.32852014899253845,0.14069880545139313,0.03007613681256771,-0.24036726355552673,0.1883719116449356,0.06681305170059204,-0.1134636327624321,-0.04681222513318062,0.1271572858095169,0.02731391228735447,0.03162786737084389,-0.011450730264186859,-0.034885238856077194,0.011818056926131248,0.10562063008546829,0.07009455561637878,0.03179868683218956,-0.05209973827004433,-0.03179006278514862,0.21369542181491852,-0.1127302423119545,-0.02784648723900318,0.04683276638388634,0.08808653801679611,-0.03433947265148163,-0.23834708333015442,-0.012608799152076244,0.1512242704629898,0.006393822375684977,0.141336128115654,0.12727588415145874,-0.1291545033454895,0.21518069505691528,0.046517837792634964,0.08551844954490662,0.058763157576322556,-0.13221772015094757,0.4489488899707794,-0.03907674178481102,-0.07490471750497818,-0.1943219155073166,0.010242951102554798,0.08348293602466583,-0.005370376165956259,0.09040839225053787,0.2106131762266159,-0.0605028010904789,0.05773612856864929,-0.0056475987657904625,0.14299291372299194,-0.24433676898479462,-0.024946097284555435,-0.06915811449289322,-0.11060664802789688,-0.16006062924861908,-0.12640480697155,0.0921904668211937,0.0007805205532349646,-0.18880662322044373,-0.10364702343940735,0.1311069130897522,-0.024868931621313095,-0.0749814435839653,-0.25345587730407715,0.0323643833398819,0.04537590593099594,0.07972586154937744,-0.21849209070205688,0.220436692237854,0.0642307922244072,-0.19280391931533813,-0.2658432126045227,0.2737327814102173,0.09357994049787521,-0.0058923508040606976,-0.10613459348678589,-0.166081041097641,-0.17730997502803802,-0.1926775872707367,0.06160324439406395,0.0485711470246315,0.22917041182518005,-0.20999854803085327,0.1747601479291916,0.3719013035297394,0.020775040611624718,0.04686030000448227,-0.09951869398355484,0.18060927093029022,-0.02907894179224968,-0.09051977843046188,-0.16344070434570312,-0.10660523921251297,-0.1193891167640686,0.23799444735050201,-0.13806918263435364,-0.1637154072523117,-0.009217738173902035,0.013376201502978802,0.22020772099494934,-0.024944424629211426,0.2006748616695404,0.2276993989944458,-0.07496777176856995,0.02301209047436714,0.1536352038383484,0.08851441740989685,-0.0336836613714695,0.0226651169359684,-0.1253858208656311,-0.17042602598667145,-0.16071966290473938,0.3184996247291565,0.17123594880104065,0.20732060074806213,-0.1950616091489792,0.04436444863677025,0.033102910965681076,0.253000944852829,0.026083864271640778,0.08533547073602676,0.2534136176109314,-0.2025684267282486,0.06929612904787064,0.2912572920322418,-0.0646996796131134,-0.01172406692057848,0.2991604804992676,-0.09308261424303055,-0.03116055205464363,-0.15993055701255798,0.06794813275337219,0.06171959266066551,0.20554640889167786,0.2979774475097656,0.3829958140850067,0.05103468522429466,0.026127437129616737,0.2141892910003662,-0.09246087819337845,-0.1874769777059555,-0.19524642825126648,0.18905925750732422,0.07652358710765839,0.28136521577835083,-0.2090856283903122,-0.010120409540832043,-0.31402793526649475,0.2751380503177643,0.019190968945622444,-0.17185336351394653,0.04712146893143654,0.029923662543296814,-0.061449624598026276,0.012705191038548946,0.19898957014083862,-0.351699560880661,0.06617343425750732,-0.05151112377643585,0.30893927812576294,0.006962810643017292,0.051720816642045975,-0.012724283151328564,-0.005458546802401543,0.005894162692129612,0.029306810349225998,0.14331969618797302,0.01895604468882084,-0.35470807552337646,0.23713678121566772,-0.1732420027256012,0.02389330230653286,-0.006597301922738552,-0.18544384837150574,0.17136679589748383,-0.16729316115379333,0.05774053931236267,-0.34538930654525757,0.06142808869481087,0.03749258816242218,-0.29388710856437683,0.3137628138065338,0.023759493604302406,0.028736209496855736,0.020860884338617325,0.09374617040157318,-0.06084565073251724,-0.0685572400689125,-0.07211260497570038,-0.1532469093799591,-0.09919165074825287,-0.0023554121144115925,0.042748093605041504,-0.1850365698337555,0.16071613132953644,-0.14161115884780884,0.2860702872276306,-0.03518890216946602,-0.147465780377388,0.332184761762619,-0.008390211500227451,-0.10438009351491928,0.06516978144645691,-0.038655322045087814,-0.23380805552005768,0.11576581001281738,0.176446333527565,0.04651857912540436,-0.16105873882770538,-0.16745194792747498,-0.16221816837787628,0.3172275722026825,-0.1025601476430893,0.002387303626164794,0.07054098695516586,0.07667142152786255,0.04375091567635536,-0.17489877343177795,0.1901027411222458,0.07599858194589615,-0.1895657479763031,0.026377815753221512,0.11610894650220871,-0.12657630443572998,-0.07985004037618637,-0.15436162054538727,-0.14799955487251282,0.03604505583643913,-0.08321823924779892,0.33754798769950867,0.15577413141727448,0.39189592003822327,-0.271247923374176,0.14759579300880432,-0.3523949384689331,0.35898780822753906,-0.04461202025413513,-0.16267913579940796,0.12611040472984314,0.03852692246437073,-0.1826479285955429,-0.47281232476234436,0.15495173633098602,0.09131276607513428,-0.27580028772354126,0.22207079827785492,0.1117485985159874,-0.026038821786642075,-0.10728535801172256,-0.19547484815120697,-0.2224707305431366,0.26713061332702637,0.137830913066864,-0.01608995534479618,-0.11122618615627289,0.296406090259552,0.2880036532878876,0.1160169169306755,-0.06671440601348877,-0.30027344822883606,0.13880407810211182,0.42221999168395996,-0.26802366971969604,-0.18551595509052277,-0.11455275118350983,-0.5500019788742065,-0.19127395749092102,-0.03122797980904579,0.06412913650274277,-0.2847193777561188,0.02419610135257244,0.08910628408193588,0.02042049914598465,-0.1459590196609497,0.22787682712078094,-0.08771318942308426,0.14493097364902496,-0.04908065125346184,-0.14912348985671997,0.05730512738227844,0.4585641324520111,-0.07424446195363998,-0.22946485877037048,0.7863611578941345,0.04558923840522766,0.08981174975633621,-0.2106156051158905,-0.2353760153055191,-0.14129136502742767,0.38318103551864624,-0.06912578642368317,-0.13688194751739502,0.20331762731075287,-0.04884147644042969,0.27604830265045166,-0.22492007911205292,-0.06594338268041611,-0.013268386013805866,0.12426765263080597,-0.04724191129207611,0.1180497482419014,-0.3146743178367615,0.08549626916646957,-0.1415506899356842,-0.01296574529260397,0.023109838366508484,0.24567145109176636,-0.1412949115037918,0.12044326215982437,0.12634852528572083,0.28053000569343567,-0.1516757607460022,-0.1939099133014679,0.13291974365711212,-0.08753228187561035,-0.08212027698755264,0.03292670473456383,-0.09260305762290955,-0.1585104763507843,0.24607577919960022,-0.08266769349575043,0.08516707271337509,-0.34998229146003723,0.02879880554974079,0.08019787073135376,0.2795630693435669,0.06484853476285934,0.05370393767952919,-0.4330432415008545,0.045768093317747116,0.10491568595170975,-0.16963787376880646,-0.05435049533843994,-0.14079603552818298,0.18675348162651062,-0.09172768145799637,0.1369304656982422,0.018971828743815422,