{"version":"0.5.4","metadata":{"date":{"year":2025,"month":4,"day":9,"hour":11,"minute":25,"second":0},"loudness":-25.221406936645508,"gain":0.8482757833418996,"name":"Laney Lead Top, Boosted","modeled_by":"avedismutter","gear_type":"amp","gear_make":"tz-make","gear_model":"tz-model","tone_type":"overdrive","input_level_dbu":null,"output_level_dbu":null,"training":{"settings":{"ignore_checks":false},"data":{"latency":{"manual":null,"calibration":{"algorithm_version":1,"delays":[-63],"safety_factor":1,"recommended":-64,"warnings":{"matches_lookahead":false,"disagreement_too_high":false}}},"checks":{"version":3,"passed":true}},"validation_esr":0.044786092029401633}},"architecture":"WaveNet","config":{"layers":[{"input_size":1,"condition_size":1,"head_size":8,"channels":16,"kernel_size":3,"dilations":[1,2,4,8,16,32,64,128,256,512],"activation":"Tanh","gated":false,"head_bias":false},{"input_size":16,"condition_size":1,"head_size":1,"channels":8,"kernel_size":3,"dilations":[1,2,4,8,16,32,64,128,256,512],"activation":"Tanh","gated":false,"head_bias":true}],"head":null,"head_scale":0.02},"weights":[-0.260755717754364,0.7534947991371155,-1.0990222692489624,-0.9687669277191162,-0.6064997315406799,0.6405104398727417,-0.16853587329387665,1.0405161380767822,-0.3186063766479492,0.43264809250831604,-0.4895038604736328,-0.3446425199508667,-1.2015877962112427,-0.8758400082588196,-0.8192167282104492,0.1276475191116333,0.47959476709365845,0.1311926692724228,-0.19845087826251984,-0.45610931515693665,-0.001704466762021184,0.24091072380542755,0.3632631301879883,0.1649743616580963,-0.15035679936408997,0.4084492325782776,0.18630459904670715,-0.257871150970459,0.30316776037216187,0.015069253742694855,-0.18197587132453918,-0.28563711047172546,-0.14391100406646729,0.07550749182701111,0.30237793922424316,-0.10368967801332474,-0.19708995521068573,-0.26838308572769165,0.008212407119572163,0.1909765601158142,0.4252649247646332,-0.027985265478491783,-0.11325230449438095,-0.5234143733978271,-0.14521344006061554,0.05373010039329529,0.48096176981925964,0.13226111233234406,-0.18891222774982452,0.3913201093673706,0.1467353105545044,0.027063418179750443,0.449286550283432,0.07545709609985352,-0.026474855840206146,0.30498114228248596,0.08032437413930893,-0.23319071531295776,0.3098231554031372,-0.015850059688091278,-0.06880954653024673,-0.3134230375289917,-0.10684053599834442,0.17288319766521454,-0.2099795639514923,-0.2086459845304489,-0.0006625701789744198,0.34625446796417236,0.306326299905777,0.13345769047737122,-0.42911216616630554,-0.2776876986026764,0.06336783617734909,-0.1943938136100769,-0.09328458458185196,0.13413946330547333,-0.2800837457180023,-0.33888116478919983,0.021803518757224083,0.22963133454322815,0.09104175120592117,0.11389969289302826,-0.1728588193655014,-0.3270907700061798,0.01758802868425846,0.2897726595401764,0.1956455558538437,-0.07243618369102478,-0.2552174925804138,-0.29820379614830017,0.0682654157280922,0.37874019145965576,0.308483749628067,0.04142177104949951,-0.45149490237236023,-0.3062915503978729,0.07968277484178543,-0.277086079120636,-0.3246288299560547,-0.07980940490961075,-0.17819425463676453,-0.1218695119023323,-0.05546773970127106,-0.34764233231544495,-0.35309141874313354,0.004279468208551407,-0.4305989742279053,-0.3411600589752197,0.0019758292473852634,0.2942739725112915,0.11894232779741287,0.08338896185159683,0.007248369511216879,-0.06336403638124466,0.2094636857509613,-0.1884332299232483,0.14022958278656006,-0.03926556557416916,0.0828852653503418,-0.14479795098304749,0.09862631559371948,0.07223031669855118,-0.24899710714817047,0.10920736193656921,-0.06737864762544632,-0.2628759741783142,0.01688515953719616,-0.14594405889511108,0.1284642517566681,-0.18112853169441223,0.053685031831264496,-0.16946828365325928,0.026993973180651665,-0.0697539672255516,0.28149333596229553,-0.05238525941967964,0.09252706915140152,-0.18990641832351685,0.11676107347011566,0.017981896176934242,0.30754053592681885,0.033570386469364166,0.20416580140590668,-0.18808642029762268,-0.07856672257184982,0.0036453523207455873,-0.08000300079584122,0.05576691776514053,-0.009227285161614418,-0.2883654832839966,-0.09704099595546722,-0.057921674102544785,-0.20644471049308777,0.11983953416347504,0.14954736828804016,-0.31819358468055725,0.14553645253181458,-0.19906726479530334,0.16020609438419342,-0.22659717500209808,-0.010429050773382187,0.1290031373500824,-0.29233741760253906,-0.17513883113861084,-0.19175571203231812,0.09989793598651886,-0.008322340436279774,0.22856223583221436,-0.22310668230056763,0.0440082810819149,0.29918745160102844,-0.15219013392925262,0.17746560275554657,0.22168438136577606,-0.23648042976856232,0.042233243584632874,-0.18785585463047028,0.05323478952050209,0.13624215126037598,0.04309939593076706,-0.15448425710201263,-0.08463572710752487,-0.06853833794593811,0.12940147519111633,0.10447824746370316,0.21447722613811493,-0.1803196519613266,-0.07354197651147842,-0.2803299129009247,0.19059665501117706,0.1640876829624176,0.26676762104034424,-0.20466673374176025,0.05089128389954567,0.06617312133312225,-0.1885686218738556,-0.02974948287010193,0.22100475430488586,-0.17637163400650024,0.04940809682011604,0.17646870017051697,0.0009484628681093454,-0.056139204651117325,0.07484471797943115,-0.19065427780151367,0.06851423531770706,-0.21746967732906342,0.31267815828323364,-0.09030625969171524,0.3111743927001953,-0.08409130573272705,0.08615338802337646,-0.26217618584632874,-0.0058870865032076836,-0.11074629426002502,0.30155831575393677,-0.1359354555606842,-0.18698087334632874,0.3996477425098419,-0.13891816139221191,-0.12878167629241943,0.4257478415966034,0.018453706055879593,0.1255934089422226,-0.41294190287590027,0.10976206511259079,-0.23787835240364075,0.24933351576328278,-0.14658066630363464,0.08904332667589188,-0.28010112047195435,0.13761012256145477,-0.11517658084630966,0.4151923954486847,0.027461981400847435,0.029514752328395844,-0.21043439209461212,-0.06489842385053635,-0.1756618618965149,0.32395297288894653,0.015969431027770042,-0.0109024029225111,0.23613998293876648,-0.037322841584682465,-0.03617042303085327,0.1419411450624466,0.08531219512224197,-0.23122934997081757,0.28291821479797363,-0.04658733680844307,-0.19470590353012085,0.30534467101097107,0.08574330061674118,0.1008744090795517,-0.3493938744068146,0.10595118254423141,-0.011497600004076958,-0.07914670556783676,-0.07771359384059906,-0.19997596740722656,0.055914394557476044,0.14554309844970703,0.17623403668403625,-0.030152272433042526,-0.015825418755412102,0.052385617047548294,-0.18191152811050415,-0.025757309049367905,0.22503797709941864,-0.1021934375166893,-0.1278287172317505,-0.18122164905071259,0.0032127618324011564,0.08760648965835571,0.04101690277457237,-0.2753349542617798,0.13316814601421356,-0.19340726733207703,0.124570332467556,0.11188200116157532,0.12935996055603027,-0.23486557602882385,-0.15215826034545898,0.0063971783965826035,0.16005559265613556,0.17374593019485474,0.05462517961859703,-0.09826179593801498,-0.09198092669248581,0.10252241790294647,-0.22688299417495728,-0.002692887093871832,0.14534370601177216,-0.14399753510951996,-0.10303434729576111,0.011442728340625763,-0.04107727110385895,-0.17514224350452423,0.16883859038352966,-0.1880943924188614,-0.13082656264305115,-0.09133251756429672,0.0654778927564621,-0.009565118700265884,0.07401486486196518,-0.28047308325767517,0.20544582605361938,0.050446562469005585,0.22898253798484802,-0.12979957461357117,-0.11499199271202087,-0.19885289669036865,0.1571672558784485,-0.04585763067007065,-0.1204703226685524,0.20206066966056824,-0.0603797473013401,-0.1713206171989441,0.17883017659187317,-0.0069110761396586895,0.183061420917511,-0.11436552554368973,-0.07467949390411377,-0.16481786966323853,0.2912263870239258,0.12497035413980484,0.2601430416107178,-0.08291713893413544,0.1032242476940155,-0.2335764765739441,0.039297692477703094,-0.1450790911912918,0.307017982006073,-0.03405555337667465,-0.08929925411939621,-0.11683590710163116,0.22582091391086578,0.16161876916885376,-0.04588381573557854,0.23519720137119293,-0.02727888897061348,-0.22540952265262604,0.22134123742580414,0.08806263655424118,-0.2609513998031616,0.23520582914352417,0.0814034566283226,-0.09585941582918167,0.0323643833398819,0.003950020298361778,0.1171536073088646,-0.12332837283611298,0.30916714668273926,-0.24461330473423004,0.3456214666366577,-0.252826064825058,0.28292226791381836,-0.215477854013443,0.21878904104232788,-0.30814051628112793,0.1929067075252533,0.1708429604768753,-0.4548112154006958,0.39732876420021057,0.3926108777523041,-0.20262770354747772,0.40176287293434143,-0.4567188322544098,0.2521483898162842,-0.32629817724227905,0.2434406727552414,-0.17818890511989594,0.2023327499628067,-0.38125529885292053,0.19855521619319916,-0.3638554513454437,0.4459252953529358,-0.21979516744613647,0.40768927335739136,-0.2011893391609192,0.44947898387908936,-0.3229701817035675,0.37766367197036743,-0.1999768763780594,0.3350476920604706,0.45185890793800354,-0.2572573721408844,0.36992302536964417,0.26100245118141174,-0.26846250891685486,0.2986317276954651,0.27636823058128357,-0.4163307249546051,0.20070447027683258,0.21500979363918304,-0.25768718123435974,0.4023102819919586,-0.3712962567806244,0.16989538073539734,-0.222224622964859,0.25280988216400146,0.009034833870828152,-0.25320136547088623,0.011235129088163376,0.0630066841840744,0.10638047754764557,0.2532862424850464,0.1038520485162735,-0.2747884690761566,0.19915428757667542,-0.08761495351791382,-0.2422938346862793,0.24990062415599823,0.004419878125190735,-0.3142958879470825,-0.18402650952339172,-0.04535311087965965,0.19413511455059052,0.16038468480110168,0.11737646907567978,-0.16088226437568665,-0.20527753233909607,0.013490130193531513,0.2897989749908447,0.22611719369888306,-0.11949675530195236,-0.23202313482761383,-0.23785951733589172,-0.06274446845054626,0.26113927364349365,0.01769500970840454,0.04724927246570587,-0.0910256952047348,0.13869744539260864,-0.09844199568033218,-0.25763896107673645,0.14825177192687988,-0.11614449322223663,-0.14926619827747345,-0.013353345915675163,-0.1443316489458084,-0.3571816682815552,0.09989463537931442,0.10145841538906097,-0.3585920035839081,-0.016049496829509735,-0.041870806366205215,0.16903544962406158,-0.09946365654468536,-0.16689619421958923,0.19992737472057343,0.1883815973997116,0.18053928017616272,0.04007364809513092,-0.21094554662704468,0.08330077677965164,0.0382373221218586,-0.04540984332561493,-0.15588292479515076,-0.013540471903979778,-0.25237491726875305,-0.09583193063735962,0.06727378070354462,-0.003256053663790226,0.07922940701246262,0.030435405671596527,-0.08536819368600845,-0.1350163221359253,-0.015245713293552399,0.07006660848855972,0.10329630970954895,0.11748268455266953,-0.017794601619243622,-0.048805978149175644,0.11647965013980865,-0.036861222237348557,-0.08971541374921799,0.025279918685555458,-0.19375480711460114,0.032696787267923355,-0.06440640240907669,-0.17965516448020935,-0.15821965038776398,0.11632964015007019,-0.1284395307302475,0.07080819457769394,0.11470885574817657,-0.03360047936439514,-0.03495101258158684,-0.017420265823602676,-0.14514172077178955,-0.015644174069166183,0.11117476224899292,0.00016509754641447216,0.14253954589366913,-0.1499754935503006,-0.22820711135864258,-0.23243007063865662,0.26514044404029846,0.2548278570175171,0.02806442230939865,0.0009905413025990129,-0.05439035966992378,-0.07776082307100296,0.22104886174201965,-0.20237277448177338,-0.11783693730831146,0.1571662276983261,-0.16310538351535797,-0.11349169909954071,0.06577513366937637,0.2131766676902771,0.12329518795013428,-0.17068316042423248,-0.07062947750091553,-0.10126551240682602,0.07475795596837997,0.13671134412288666,0.2451082020998001,-0.11060404777526855,-0.073585644364357,-0.19638384878635406,0.18309244513511658,0.012687907554209232,0.07002797722816467,-0.18559397757053375,0.012639994733035564,-0.1957734078168869,0.1080515906214714,-0.18984927237033844,-0.01830917038023472,0.2485266774892807,-0.23317410051822662,-0.279529333114624,-0.012907181866466999,-0.12349666655063629,-0.19756023585796356,0.003756169229745865,-0.17765450477600098,-0.13730774819850922,0.033975645899772644,0.13243639469146729,0.10281768441200256,-0.24540191888809204,-0.05271845683455467,0.3872651755809784,-0.20392519235610962,0.0622851587831974,-0.31288379430770874,0.19329345226287842,-0.1895204484462738,0.12542089819908142,0.09657656401395798,-0.14446038007736206,0.2902555465698242,-0.058284517377614975,-0.08991493284702301,0.2278701812028885,0.03223298490047455,0.06836821138858795,-0.40219101309776306,-0.01961774006485939,-0.1162278801202774,0.3340756595134735,-0.22059588134288788,0.18816602230072021,-0.29439422488212585,0.016326280310750008,0.04357410967350006,0.3270217180252075,0.03012029454112053,0.14393478631973267,-0.29375123977661133,-0.02867932803928852,-0.06466569751501083,0.38024917244911194,-0.10492999106645584,-0.18958792090415955,0.3217109441757202,0.07980699837207794,-0.09376645088195801,0.14196521043777466,-0.17400744557380676,-0.017659954726696014,0.2493850141763687,-0.11978229135274887,-0.030056674033403397,0.3191700875759125,0.05781428515911102,0.18360468745231628,-0.268240362405777,0.04239293560385704,-0.2936483323574066,-0.15548135340213776,0.39513060450553894,0.21736349165439606,0.1338195502758026,-0.13413964211940765,-0.021024776622653008,-0.1301247626543045,0.14265583455562592,-0.21111300587654114,-0.3605779707431793,0.3987038731575012,-0.21599869430065155,-0.32823649048805237,0.35067543387413025,0.09269192814826965,0.19599804282188416,-0.30777114629745483,-0.18081825971603394,-0.40403029322624207,0.45668378472328186,0.09313464909791946,0.3114299178123474,-0.1328907459974289,-0.08529973030090332,-0.25154149532318115,0.4423352777957916,0.17097167670726776,0.1874352991580963,-0.14648815989494324,-0.12136072665452957,-0.4007904529571533,0.23218391835689545,-0.25299084186553955,-0.1378173828125,0.25270965695381165,-0.2879636287689209,-0.26889869570732117,0.35007670521736145,-0.11801839619874954,-0.21378034353256226,0.27407175302505493,-0.10537975281476974,-0.30143970251083374,0.2257581353187561,0.011228754185140133,0.15108495950698853,-0.3208143413066864,-0.3865600824356079,0.12587186694145203,0.2786044478416443,0.29220065474510193,-0.19853833317756653,-0.13548055291175842,-0.3620653450489044,0.22544749081134796,0.16649702191352844,-0.314146488904953,0.18455708026885986,0.21930594742298126,-0.16521702706813812,0.005401936825364828,0.14937952160835266,0.22721439599990845,-0.08173958957195282,-0.1503196805715561,-0.3571794927120209,0.1657286435365677,0.1790981888771057,0.2469971925020218,0.0012989419046789408,-0.39066097140312195,-0.2885510325431824,0.23777922987937927,0.2462426722049713,0.39794135093688965,-0.14911937713623047,-0.15337835252285004,-0.4198099374771118,0.085462786257267,0.24516068398952484,-0.24142467975616455,0.15803685784339905,0.3711341619491577,-0.29983991384506226,0.09988271445035934,0.3787911832332611,-0.318075031042099,0.23161430656909943,0.1792919635772705,-0.3048463761806488,0.09504380822181702,0.3466564118862152,0.3871634900569916,-0.1339789777994156,-0.30270373821258545,0.36865103244781494,-0.023060806095600128,-0.2253330945968628,-0.35074180364608765,0.15523584187030792,0.459451287984848,0.26934778690338135,-0.19897300004959106,-0.23047974705696106,0.15141990780830383,-0.031142663210630417,-0.30741095542907715,0.1995076686143875,-0.012669224292039871,-0.44966262578964233,-0.24420520663261414,-0.03265330195426941,0.3215172290802002,0.2994993329048157,0.04692372679710388,-0.3249901235103607,-0.16375094652175903,0.04518090561032295,0.26073935627937317,0.16736361384391785,-0.18881908059120178,-0.17872323095798492,-0.30441561341285706,0.06677547097206116,0.3563803434371948,0.35685935616493225,0.05753332003951073,-0.20301280915737152,0.16059193015098572,-0.08541198074817657,-0.39584973454475403,0.17454403638839722,-0.029587365686893463,-0.19442109763622284,0.1419515609741211,0.024141576141119003,-0.3991808295249939,0.24347041547298431,0.056945815682411194,-0.3678373396396637,-0.26616379618644714,-0.034377820789813995,0.3260757029056549,0.27166715264320374,-0.18882867693901062,-0.21665549278259277,-0.3812423050403595,-0.015787897631525993,0.329118549823761,0.3918564021587372,-0.14152057468891144,-0.2627093195915222,0.4004133939743042,-0.006387749686837196,-0.40419965982437134,0.2641391456127167,-0.14574991166591644,-0.4341912865638733,-0.288278192281723,0.20399826765060425,0.4519050419330597,0.2871857285499573,-0.053833894431591034,-0.2928965985774994,-0.16687768697738647,0.04044787958264351,0.22885172069072723,0.31644880771636963,-0.002464693272486329,-0.43881088495254517,-0.1489735245704651,0.14775435626506805,0.21282264590263367,0.24214111268520355,0.025182897225022316,-0.4259112775325775,0.23732581734657288,-0.04728085547685623,-0.428737610578537,0.35538250207901,-0.026704343035817146,-0.24141481518745422,0.18356671929359436,0.04299641028046608,-0.40994784235954285,0.43145763874053955,-0.23387297987937927,-0.4592200517654419,-0.18376721441745758,0.08092958480119705,0.17915140092372894,-0.033588822931051254,-0.08823909610509872,-0.07680084556341171,-0.11626478284597397,0.0019290191121399403,-0.014572207815945148,-0.023082971572875977,-0.07725740224123001,0.0658760815858841,0.025889188051223755,0.026525892317295074,-0.050250034779310226,-0.08760061860084534,-0.010782713070511818,-0.03347872942686081,-0.05250284820795059,0.5571704506874084,-0.4309473931789398,0.7737694382667542,-0.628796398639679,0.009228875860571861,0.9786339998245239,0.9087042212486267,-0.851391613483429,0.4007262587547302,0.104860320687294,-0.5526793599128723,-0.3166046142578125,0.03264167532324791,-0.9759833812713623,0.4934488832950592,0.7642516493797302,-0.0402483269572258,0.29266291856765747,-0.08354644477367401,0.1162688359618187,0.2555778920650482,-0.11136374622583389,0.04962872713804245,0.09406355023384094,-0.08886604011058807,-0.07100880891084671,-0.029411256313323975,-0.11134853214025497,-0.00504401046782732,0.05402692034840584,0.07429880648851395,-0.08051522076129913,0.4148915708065033,-0.46673280000686646,-0.038483161479234695,0.14712367951869965,-0.15446944534778595,0.2138034701347351,0.03786194697022438,0.40490907430648804,0.16152159869670868,0.08689561486244202,-0.21002253890037537,-0.03577841818332672,0.09376002103090286,-0.5998058319091797,0.4431815445423126,0.7381623983383179,-0.10914434492588043,0.24442844092845917,-0.14335131645202637,0.24848750233650208,0.1601397842168808,-0.3610912263393402,-0.03657270967960358,-0.23334066569805145,-0.14457125961780548,-0.16893824934959412,0.2156268209218979,0.004851467441767454,0.15954403579235077,0.530331552028656,-0.08574941009283066,-0.27429816126823425,0.16580821573734283,-0.11652956157922745,-0.16899648308753967,-0.03169203922152519,0.20826290547847748,-0.017068980261683464,-0.1437433809041977,-0.13010980188846588,-0.19203075766563416,-0.020240580663084984,-0.11785553395748138,0.11991341412067413,0.05335930362343788,0.281501442193985,-0.226118266582489,-0.1582484096288681,-0.18767251074314117,-0.26392680406570435,-0.25797390937805176,0.2819101810455322,0.3850930333137512,-0.04581564664840698,0.08827713876962662,-0.13618092238903046,-0.16145019233226776,0.14451509714126587,-0.15101806819438934,0.32657039165496826,0.06613998115062714,0.4949316382408142,-0.4079475402832031,-0.3117345869541168,-0.30518901348114014,0.08547259122133255,0.2815079391002655,-0.052415598183870316,-0.0608622245490551,0.37170422077178955,0.42831841111183167,-0.09500649571418762,0.26037973165512085,0.15035052597522736,0.0233523640781641,-0.22247079014778137,0.17602494359016418,-0.3258459270000458,0.32098257541656494,0.33484959602355957,0.13908298313617706,0.05313001200556755,0.2019980102777481,0.13435877859592438,-0.24558217823505402,-0.17921321094036102,0.06951575726270676,0.23981501162052155,0.08814796805381775,-0.2724575698375702,-0.24458591639995575,0.16650214791297913,0.1542738527059555,-0.23971664905548096,0.12020870298147202,-0.07876361161470413,0.14747582376003265,0.07761450111865997,0.40927523374557495,-0.4126897156238556,-0.4724750518798828,0.369030624628067,0.38516685366630554,-0.05528203770518303,0.3799533545970917,-0.025363702327013016,0.26295384764671326,-0.41483011841773987,0.17703384160995483,-0.4832076132297516,0.14316226541996002,0.33846214413642883,-0.1078486517071724,0.03151519224047661,-0.462459921836853,-0.047200433909893036,0.4942997992038727,-0.34745433926582336,-0.3968149423599243,-0.09488721936941147,-0.39417406916618347,-0.36325961351394653,-0.027078650891780853,0.36165621876716614,-0.17135190963745117,0.2090548872947693,-0.24519804120063782,-0.39260438084602356,-0.3949708640575409,0.0879417210817337,0.26937249302864075,-0.3751501739025116,-0.2937758266925812,0.0023133910726755857,0.3226414620876312,-0.21826426684856415,0.021905789151787758,0.42563700675964355,0.45249152183532715,0.06905612349510193,0.4967583417892456,0.25074198842048645,-0.16849011182785034,-0.05854938551783562,0.11580421030521393,0.21512500941753387,-0.36276546120643616,0.1543947458267212,0.023959727957844734,-0.2676229476928711,-0.046147823333740234,-0.09854086488485336,0.043383385986089706,-0.17481869459152222,-0.18860793113708496,0.018325716257095337,-0.1969131976366043,0.15071973204612732,-0.015092880465090275,0.17612069845199585,0.10549493134021759,-0.11445445567369461,0.1495048552751541,-0.09188377112150192,-0.07087436318397522,0.006508110091090202,-0.016778215765953064,0.24203656613826752,0.11751308292150497,-0.14590096473693848,0.019255273044109344,-0.3250120282173157,-0.09661420434713364,-0.0233932938426733,-0.10248856991529465,-0.07113545387983322,-0.14206917583942413,0.13265523314476013,-0.1182599887251854,0.17604807019233704,0.3451501131057739,-0.4324101507663727,-0.19264589250087738,0.09680930525064468,0.038058288395404816,-0.15612022578716278,-0.11161681264638901,0.2976606488227844,0.13255003094673157,0.15523982048034668,-0.38506534695625305,-0.19023793935775757,0.2426275759935379,-0.3475019037723541,-0.30792176723480225,0.4013063311576843,0.18035583198070526,-0.1453104019165039,-0.028250904753804207,0.5992953181266785,-0.40526115894317627,-0.5395307540893555,-0.4002206325531006,0.33430299162864685,-0.3496558368206024,0.37691929936408997,-0.6431818604469299,-0.2921087145805359,-0.5536935329437256,0.5358542799949646,-0.08045946061611176,-0.32095247507095337,-0.061550941318273544,-0.3056372404098511,0.24139027297496796,0.7640706300735474,-0.5476181507110596,0.14460615813732147,0.41184094548225403,-0.18398422002792358,0.5064302086830139,0.6664468050003052,-0.5849387645721436,-0.6195473074913025,0.20042075216770172,0.10148175805807114,0.31878378987312317,-0.04613631218671799,-0.3724879026412964,0.1129668727517128,0.19334128499031067,0.7651523351669312,-0.21713262796401978,-0.24771462380886078,0.11416725069284439,-0.296427845954895,0.302541047334671,0.23490896821022034,0.006618283689022064,-0.14491625130176544,0.11133506894111633,-0.25706785917282104,0.17069773375988007,-0.25323912501335144,-0.3330649435520172,-0.0860309973359108,0.16070280969142914,0.14858703315258026,0.06558945775032043,-0.19319988787174225,0.10028044879436493,0.06733988970518112,0.02537267655134201,-0.02371223270893097,0.10081789642572403,-0.1515151858329773,-0.07068761438131332,-0.04536337032914162,-0.12421121448278427,0.16306617856025696,-0.13433821499347687,0.11255400627851486,-0.1641489714384079,0.06021769717335701,-0.03376273438334465,-0.13606615364551544,0.09754150360822678,0.09312500804662704,-0.018096312880516052,0.015327980741858482,0.22545383870601654,0.26050448417663574,-0.24629031121730804,0.10329815745353699,-0.21575742959976196,-0.1974279284477234,-0.07787555456161499,0.08685868233442307,-0.24528025090694427,-0.21701231598854065,-0.1301821917295456,0.12968812882900238,-0.10458954423666,-0.09648995101451874,0.004295468796044588,-0.13454951345920563,-0.2239236682653427,0.06825660169124603,-0.030451396480202675,-0.3470367193222046,-0.010356335900723934,-0.08326802402734756,-0.1948171854019165,0.12883734703063965,0.00010373071563662961,-0.13032114505767822,0.10118545591831207,-0.04036954790353775,-0.3140595555305481,0.3076009452342987,0.03371712192893028,0.14584286510944366,0.06600926071405411,-0.044842883944511414,0.20377150177955627,0.23084276914596558,0.555395245552063,-0.2729610204696655,-0.09962321817874908,-0.19482117891311646,0.08259525895118713,0.022303247824311256,0.35037827491760254,-0.39712008833885193,-0.2723265290260315,-0.3331630825996399,-0.26309093832969666,-0.40743058919906616,-0.12884044647216797,-0.19040407240390778,-0.13964496552944183,-0.16166137158870697,0.7037044167518616,0.3281876742839813,0.30344414710998535,0.2542470097541809,0.10823817551136017,0.007716135587543249,-0.12095855921506882,-0.03387778252363205,0.1050514280796051,-0.0522582046687603,-0.13884805142879486,-0.35135048627853394,0.13503743708133698,0.13158315420150757,0.2644600570201874,0.25633010268211365,0.07041454315185547,0.17277836799621582,-0.05169285088777542,-0.13382203876972198,0.07404200732707977,0.10644873976707458,0.14497405290603638,0.1263279765844345,0.03884945064783096,-0.24450086057186127,-0.03918137773871422,-0.08570029586553574,-0.09137601405382156,-0.623977541923523,-0.1348862498998642,-0.304433673620224,-0.06392764300107956,0.20531262457370758,0.30748361349105835,0.03817716985940933,-0.03394835814833641,-0.13087305426597595,0.014096184633672237,0.17422080039978027,-0.011984151788055897,0.004220979753881693,0.14474351704120636,-0.03331019729375839,0.19852614402770996,-0.050148092210292816,0.29052332043647766,0.10806397348642349,0.06109714135527611,-0.1964670568704605,-0.15122798085212708,-0.09595594555139542,0.07404544204473495,0.07214037328958511,0.015414080582559109,-0.26207679510116577,-0.011684607714414597,-0.047194067388772964,0.22682678699493408,-0.09926794469356537,-0.1589219868183136,-0.3995343744754791,0.0704880878329277,0.18482886254787445,-0.17498137056827545,0.04007720947265625,0.12097267806529999,-0.14246080815792084,-0.01758093759417534,0.006241081282496452,-0.12702351808547974,0.09105159342288971,0.04795824736356735,-0.041096098721027374,0.03232612833380699,0.11719315499067307,0.34866297245025635,0.20977535843849182,-0.16747738420963287,-0.1305367648601532,0.07386163622140884,-0.06042082980275154,0.3164120614528656,-0.14958804845809937,0.03006579913198948,-0.34042489528656006,0.023813219740986824,0.14248895645141602,0.016307029873132706,0.0435304120182991,0.009936808608472347,-0.13793376088142395,0.07932193577289581,-0.09691642224788666,0.07867775112390518,-0.2695525586605072,0.057853084057569504,0.06125621125102043,-0.03418368101119995,-0.17767375707626343,0.022576257586479187,-0.18762485682964325,0.11601395159959793,-0.23892523348331451,0.2278173267841339,0.11334799975156784,-0.2647046446800232,-0.014583400450646877,0.05064353719353676,-0.05914575979113579,0.1471693068742752,0.13245193660259247,-0.011319317854940891,0.30674001574516296,0.11654812097549438,-0.03667960688471794,0.09064981341362,0.15970566868782043,-0.15016067028045654,-0.0036687254905700684,-0.014751211740076542,-0.6231437921524048,0.5159528255462646,0.09187036752700806,-0.011011291295289993,0.09435407817363739,-0.031712647527456284,-0.10338594764471054,0.12920255959033966,-0.015312611125409603,0.31988269090652466,-0.1697990447282791,0.08470670133829117,-0.11442818492650986,0.08194539695978165,-0.060563068836927414,-0.03087308444082737,0.04230821505188942,0.009162342175841331,-0.09727213531732559,-0.16010349988937378,-0.2692970931529999,0.23531773686408997,-0.11924796551465988,0.16337214410305023,-0.10115248709917068,0.061651408672332764,-0.10414870083332062,0.2387312352657318,0.12983204424381256,0.22769463062286377,-0.07100953161716461,-0.034031935036182404,-0.2024153470993042,-0.10553513467311859,0.05441734939813614,0.2514213025569916,-0.13670295476913452,-0.005823240615427494,0.06621793657541275,-0.11679230630397797,0.1853059083223343,-0.043975889682769775,-0.286582887172699,0.09094754606485367,0.13140620291233063,-0.0714726373553276,0.0001723573950584978,0.14616630971431732,-0.5974481701850891,0.15825191140174866,0.0156304519623518,-0.16682514548301697,-0.004638880491256714,0.3795991837978363,0.5317829251289368,0.3606768846511841,-0.7926172614097595,-0.6215370297431946,-0.5567526817321777,0.23613427579402924,0.5002797245979309,0.34562334418296814,-0.18665648996829987,-0.10065443068742752,-0.21202437579631805,-0.1921369582414627,-0.23136237263679504,-0.302807092666626,0.06702865660190582,-0.367210328578949,0.019993098452687263,0.23637655377388,0.2092311829328537,0.202443465590477,0.1372169852256775,-0.1713496595621109,0.30213409662246704,0.19431716203689575,0.3406146764755249,-0.06264065951108932,-0.02128375507891178,-0.3095138967037201,-0.17522285878658295,0.2951139807701111,0.46405431628227234,0.3327103555202484,0.08451379835605621,0.3618120551109314,0.15673978626728058,0.04200693592429161,0.28826215863227844,-0.0026109882164746523,-0.03309716284275055,-0.019229209050536156,0.053146183490753174,-0.1900508552789688,0.598861813545227,-0.1173442080616951,-0.6275081634521484,-0.33368122577667236,-0.4368375539779663,0.06546444445848465,-0.05338310822844505,0.07709496468305588,0.11777280271053314,0.24810479581356049,-0.18306510150432587,-0.030438963323831558,-0.2527042627334595,0.2734621465206146,0.12164623290300369,-0.11573503166437149,-0.01395376119762659,-0.18597546219825745,-0.032751597464084625,-0.04898538440465927,0.13969719409942627,0.4176642596721649,0.027145303785800934,0.22769677639007568,-0.01900910772383213,0.1592518389225006,-0.04631664231419563,0.4309200644493103,-0.009597436524927616,-0.030817611142992973,-0.35852473974227905,-0.09608824551105499,0.028147509321570396,0.1857280135154724,0.06373871862888336,0.10599145293235779,-0.37693458795547485,0.0332864411175251,0.004530643112957478,-0.22318635880947113,0.06584344059228897,0.07339265942573547,-0.1339152455329895,0.16103877127170563,0.016346784308552742,-0.022731851786375046,-0.11261405050754547,-0.26193130016326904,-0.24480566382408142,0.21793431043624878,-0.0797395408153534,-0.008528635837137699,0.04114074632525444,-0.11885802447795868,-0.03472517430782318,0.17036181688308716,0.06639064848423004,0.10914250463247299,-0.23684756457805634,-0.10764358937740326,-0.17079901695251465,0.2847178280353546,-0.061168499290943146,-0.13393783569335938,0.028781885281205177,-0.0750018060207367,-0.22356730699539185,-0.06585375219583511,0.13206793367862701,0.13564132153987885,-0.3727665841579437,-0.06980208307504654,-0.14620086550712585,-0.012073363177478313,0.06936834752559662,0.15303321182727814,-0.2994839549064636,-0.04240339621901512,-0.2863030433654785,0.3210424780845642,0.196851909160614,0.11126182973384857,-0.08685169368982315,0.06105576455593109,-0.2700900733470917,0.16067105531692505,-0.01748502068221569,-0.24735839664936066,0.3007314205169678,-0.1138482615351677,-0.2163664698600769,0.16500812768936157,-0.21390289068222046,-0.10228022933006287,-0.01115577481687069,0.2362872213125229,-0.21503885090351105,0.604725182056427,0.020563684403896332,0.010680393315851688,0.1137581393122673,0.22746561467647552,0.2002354860305786,0.0022797619458287954,-0.18577058613300323,-0.13482022285461426,-0.17085246741771698,0.25060954689979553,0.06372541189193726,0.16722428798675537,0.11001338809728622,-0.08146850764751434,-0.23288334906101227,0.12274158000946045,-0.023272326216101646,-0.12459217756986618,-0.34228143095970154,-0.09683209657669067,0.05709731578826904,0.14781048893928528,0.15471716225147247,0.10149586200714111,-0.283804714679718,-0.15934567153453827,0.2524389922618866,0.12264677882194519,-0.07886090129613876,0.045401547104120255,-0.30895060300827026,-0.10062353312969208,-0.14608609676361084,0.29654258489608765,0.1898670494556427,-0.06819278001785278,0.19317732751369476,0.15268146991729736,0.1511295884847641,0.11193045973777771,0.13272297382354736,-0.08211065083742142,0.17264926433563232,-0.036279283463954926,-0.20846150815486908,-0.13489097356796265,-0.29926595091819763,-0.04821797460317612,-0.24095751345157623,-0.27100834250450134,-0.24832575023174286,0.047775037586688995,0.1597856730222702,-0.03707161545753479,-0.028853580355644226,0.011169577948749065,0.07595294713973999,-0.15521404147148132,0.04858267679810524,-0.005567528307437897,-0.06656540930271149,0.146847665309906,-0.041161179542541504,0.16418249905109406,0.01444730069488287,-0.011126655153930187,0.0057773105800151825,-0.08045339584350586,0.011052691377699375,0.03388330712914467,0.00481068342924118,0.12334799766540527,-0.04454654082655907,-0.0012291521998122334,0.08501340448856354,-0.015375646762549877,0.16575339436531067,0.031188512220978737,-0.12792988121509552,-0.11252069473266602,0.042007844895124435,-0.1153092011809349,0.076189786195755,0.14873744547367096,-0.16529569029808044,-0.07775925099849701,-0.026825789362192154,-0.09407598525285721,-0.039859313517808914,-0.0544409304857254,-0.09784239530563354,0.05759642273187637,0.04437056556344032,-0.35755661129951477,-0.044116415083408356,0.0535147562623024,-0.23153163492679596,-0.042256519198417664,-0.14364825189113617,-0.014033815823495388,0.20712141692638397,-0.15704944729804993,-0.28123366832733154,-0.13324299454689026,-0.15978297591209412,0.087227001786232,0.18179190158843994,0.11425527185201645,-0.14911557734012604,-0.01435224711894989,0.02894909866154194,-0.0002888062736019492,-0.08546924591064453,-0.1509658396244049,0.11682174354791641,-0.06974191963672638,-0.07341238856315613,-0.20017971098423004,0.16189558804035187,0.09930802881717682,0.02490311488509178,0.03447561338543892,0.04710743948817253,0.014984841458499432,0.0518522784113884,0.18542267382144928,-0.04505451023578644,-0.1286201775074005,-0.08280233293771744,0.07635791599750519,-0.0006911319214850664,-0.032621704041957855,-0.15153683722019196,0.1705455780029297,-0.0963362380862236,0.0326077975332737,0.1051628515124321,0.08769071102142334,0.04555486515164375,-0.06033860519528389,0.08056449145078659,-0.03372928500175476,0.516486406326294,-0.05258636176586151,-0.3033962547779083,0.04867307469248772,-0.0535646416246891,0.1512770652770996,0.021330000832676888,-0.03233296051621437,-0.06761851161718369,-0.03026501089334488,-0.13785381615161896,-0.11472506076097488,0.12928491830825806,0.16373410820960999,-0.10495650768280029,-0.03861355409026146,-0.04939136281609535,-0.14956487715244293,-0.02176072634756565,-0.13945448398590088,0.09199129790067673,0.132476344704628,-0.11905159056186676,0.04035387560725212,-0.03238412365317345,0.1982533037662506,0.3173180818557739,0.22456365823745728,0.0022659783717244864,0.030269628390669823,-0.1043199747800827,0.030659250915050507,-0.10949139297008514,0.03517891839146614,-0.14444750547409058,-0.20259934663772583,-0.01392140332609415,0.03309755027294159,-0.06845692545175552,0.04956051707267761,0.11280488222837448,-0.2082081139087677,-0.14546942710876465,0.1300758570432663,0.054013192653656006,0.07977161556482315,0.040760353207588196,0.244595006108284,0.0011806893162429333,-0.06711879372596741,-0.05983788147568703,-0.06368445605039597,-0.07083167135715485,-0.047317083925008774,0.2234477996826172,0.0035651205107569695,0.11684037744998932,0.07713218778371811,0.0023050084710121155,0.14120012521743774,0.12243489176034927,-0.16101793944835663,-0.006684575695544481,-0.02848655916750431,-0.25636857748031616,0.16959893703460693,-0.14862671494483948,-0.3934619128704071,-0.19587309658527374,-0.2982160449028015,0.36442238092422485,0.07675751298666,0.0030922216828912497,0.01917179487645626,-0.18193551898002625,-0.1754884421825409,0.3415071964263916,0.054662074893713,0.16661371290683746,-0.10277310758829117,-0.22865521907806396,-0.21507176756858826,-0.08015535026788712,0.24679557979106903,0.39958620071411133,-0.04146004468202591,0.22971267998218536,-0.05336032062768936,-0.14811252057552338,0.1629302203655243,-0.04545294865965843,-0.16625985503196716,0.1526324301958084,0.06712839007377625,-0.27494943141937256,-0.10466355830430984,-0.23137634992599487,-0.2232472151517868,-0.21341471374034882,-0.17862601578235626,-0.2081078439950943,-0.1019616648554802,-0.05769623816013336,0.046181488782167435,0.06239611282944679,0.15475226938724518,0.14607438445091248,0.002653821837157011,-0.10183703899383545,0.005978104658424854,-0.09804293513298035,0.02383522130548954,0.008101769722998142,-0.10667920112609863,0.05479797348380089,0.1494988054037094,0.08413182944059372,-0.13141851127147675,-0.16623210906982422,0.07505742460489273,0.14044123888015747,0.07369931787252426,0.2732582688331604,-0.10363359749317169,-0.09080950915813446,-0.08180468529462814,0.028406187891960144,0.13291926681995392,0.13312989473342896,-0.19053460657596588,0.036551207304000854,-0.1646515130996704,0.12349662184715271,0.03598320484161377,-0.09046927094459534,0.20915983617305756,-0.05707456171512604,-0.21872392296791077,0.0579935684800148,0.014730159193277359,0.042835064232349396,0.1845000982284546,-0.039745841175317764,0.02995356172323227,-0.05384505167603493,-0.3771795928478241,0.11463934928178787,-0.042667947709560394,-0.0353754498064518,-0.1809234917163849,-0.22405876219272614,-0.10424137860536575,0.10123146325349808,0.39885398745536804,-0.021282806992530823,-0.17171216011047363,-0.16744868457317352,0.03426290675997734,0.022948995232582092,0.020206887274980545,0.07625600695610046,-0.0762525126338005,0.28871074318885803,0.0914708822965622,0.2852163314819336,0.16118955612182617,-0.025597767904400826,0.1190190538764,-0.06205247342586517,0.08341345191001892,0.16342392563819885,0.1114664375782013,-0.0754547119140625,-0.16467946767807007,-0.15296848118305206,-0.08127224445343018,0.09126240015029907,-0.15870344638824463,0.3065182864665985,-0.17938128113746643,-0.0027240070048719645,0.04186919331550598,0.2707151472568512,-0.4485492408275604,-0.050618432462215424,-0.03444019705057144,-0.05124713480472565,0.0602492056787014,-0.19549234211444855,0.047392066568136215,-0.11164764314889908,0.09722618013620377,-0.4780578315258026,0.04426691681146622,0.5596732497215271,-0.0503438375890255,0.26578155159950256,-0.12956345081329346,0.2089446634054184,-0.18753936886787415,0.12777943909168243,-0.18135030567646027,0.13831251859664917,-0.12381932139396667,0.2791457772254944,0.008861281909048557,-0.05177857354283333,0.16476160287857056,-0.08085095137357712,-0.12567654252052307,0.08907873928546906,0.10037846118211746,0.13874652981758118,-0.3024359941482544,0.018618421629071236,0.029219668358564377,0.11711426079273224,-0.20235095918178558,0.23647446930408478,-0.30037111043930054,-0.15077568590641022,-0.25567907094955444,0.08231579512357712,0.014842173084616661,0.019297806546092033,0.11047498881816864,0.11604596674442291,-0.14503639936447144,0.23361173272132874,-0.06885800510644913,-0.2306235134601593,0.1548345685005188,-0.07719526439905167,-0.2382686585187912,0.0392879843711853,0.06633859872817993,-0.09520125389099121,0.1723412275314331,-0.053376417607069016,-0.1941044181585312,0.38357216119766235,-0.2345040887594223,0.09336833655834198,0.19590212404727936,0.004705356899648905,0.022760096937417984,0.42832648754119873,-0.1365700513124466,0.09262802451848984,-0.014393506571650505,0.5464923977851868,0.1676425337791443,0.14595626294612885,0.05448053777217865,-0.06443113088607788,0.07366035878658295,0.1807108223438263,0.19603538513183594,0.070773184299469,-0.04786347597837448,-0.0850868746638298,-0.531416118144989,0.3095817565917969,0.4332844913005829,-0.8204025030136108,0.20340174436569214,-0.8563045859336853,-0.3999624252319336,-0.7792070508003235,0.9512583017349243,-1.0397753715515137,-0.6914634704589844,-0.7893489003181458,0.34368759393692017,-0.9531581997871399,0.2675221264362335,-0.7332008481025696,0.07485902309417725,-0.1946384608745575,-0.0537438690662384,-0.03268226608633995,0.07647355645895004,0.15674202144145966,-0.15386544167995453,0.2174137532711029,-0.3139413595199585,0.08408952504396439,0.18506652116775513,0.12477951496839523,0.08620965480804443,-0.0984954982995987,-0.03424867242574692,0.04525694623589516,0.07118584960699081,-0.24409988522529602,-0.18008875846862793,-0.11098191887140274,-0.23647180199623108,0.38553372025489807,0.019941678270697594,-0.23047494888305664,0.1719549298286438,-0.05728510394692421,0.19734424352645874,0.06146595999598503,0.06377512961626053,0.010645830072462559,-0.03086990863084793,0.249768927693367,-0.2026044875383377,-0.16470547020435333,-0.1406291276216507,0.26199260354042053,0.25002849102020264,0.24262166023254395,0.056654881685972214,0.2600770592689514,-0.11083714663982391,-0.08915278315544128,-0.18316131830215454,-0.10727278888225555,-0.046759650111198425,0.40810900926589966,0.34343039989471436,-0.04180840775370598,0.04503379762172699,-0.02072911150753498,-0.23594780266284943,0.006294896360486746,-0.1357317417860031,0.014702161774039268,0.01589612476527691,0.13709089159965515,-0.03344600647687912,0.009982964023947716,0.08907672017812729,0.2868809700012207,0.14822296798229218,0.0442354716360569,0.18031767010688782,-0.02209237962961197,0.1234612911939621,-0.13139519095420837,-0.013310188427567482,0.27101656794548035,0.588967502117157,-0.049484506249427795,0.24973580241203308,0.5058513879776001,0.30422788858413696,0.0942760482430458,-0.09915284067392349,0.19968962669372559,0.12374991178512573,-0.2501019537448883,-0.09143073856830597,-0.407665878534317,-0.2792433798313141,0.003398291999474168,-0.0712524875998497,-0.07154010981321335,0.29598236083984375,-0.2603350579738617,0.09636682271957397,0.10231848806142807,0.10283512622117996,-0.031425923109054565,-0.10157658159732819,0.07389803975820541,-0.26742079854011536,-0.2626200020313263,0.042762696743011475,-0.20904403924942017,0.17474503815174103,0.009504387155175209,0.04877347871661186,-0.3351430296897888,-0.03532012179493904,0.28280705213546753,-0.42786645889282227,-0.20556522905826569,-0.0192871131002903,-0.03270447999238968,-0.16489320993423462,0.07016699761152267,-0.005538900848478079,0.16124112904071808,-0.06040334329009056,0.2463115006685257,0.023744534701108932,0.2776587903499603,0.17337484657764435,-0.018088240176439285,0.12788809835910797,-0.35694798827171326,-0.1153876930475235,-0.020800041034817696,-0.0813140869140625,0.12198833376169205,-0.29703354835510254,0.15980017185211182,-0.18533988296985626,0.12415006756782532,0.1983671486377716,-0.06045892834663391,0.06373212486505508,-0.2898884415626526,-0.44739365577697754,0.27789226174354553,-0.24690331518650055,0.07917054742574692,0.01410386897623539,-0.3740139901638031,0.278124064207077,0.3129129111766815,0.2898768484592438,-0.6715726256370544,0.28526878356933594,0.30984896421432495,-0.233305886387825,0.5363991856575012,-0.2262049913406372,0.17976991832256317,0.1382838636636734,0.38560056686401367,0.351790189743042,-0.3506465256214142,0.1896340548992157,0.24338065087795258,-0.11482460796833038,-0.21758636832237244,0.03340129554271698,0.4452708661556244,0.014901571907103062,0.21008558571338654,0.22079354524612427,-0.41386792063713074,-0.014951983466744423,-0.1538049727678299,-0.3514457941055298,-0.0737958699464798,-0.08435457944869995,0.11777748912572861,-0.1204802393913269,-0.011762651614844799,0.03997248411178589,0.23823973536491394,-0.10674314200878143,0.0404188446700573,0.13074541091918945,0.18813490867614746,-0.05131802335381508,0.17357072234153748,0.2070348560810089,0.28995421528816223,-0.31637057662010193,-0.1789124608039856,-0.3843899965286255,-0.013911350630223751,-0.01851600594818592,0.12315485626459122,-0.34550735354423523,0.15585857629776,0.221116840839386,-0.10769925266504288,-0.13412131369113922,0.04711723327636719,0.13488923013210297,0.11250930279493332,-0.24232758581638336,-0.3494950532913208,-0.21546737849712372,0.7840349078178406,0.17043691873550415,0.0254543274641037,-0.10190565139055252,0.26369228959083557,0.07517354190349579,0.01807348243892193,-0.20954658091068268,-0.19313473999500275,0.3036007881164551,-0.07210075110197067,-0.08777754008769989,-0.16770166158676147,0.17823044955730438,-0.34528762102127075,-0.4252122938632965,0.47853848338127136,-0.20341473817825317,0.3928484618663788,-0.09116313606500626,-0.2146962285041809,0.4265551269054413,0.549730658531189,0.29213303327560425,-0.3795338273048401,0.4848887622356415,0.10619447380304337,-0.11978889256715775,0.03993724659085274,-0.03223245218396187,0.36081162095069885,0.028510039672255516,0.13950107991695404,-0.043798912316560745,-0.12038619816303253,0.159650519490242,0.1534871906042099,-0.07904892414808273,0.04427671059966087,-0.1704324185848236,0.10947311669588089,-0.20273566246032715,0.2821333706378937,0.19582772254943848,0.10871389508247375,0.05588573217391968,-0.32007354497909546,-0.18085995316505432,-0.12572592496871948,-0.1504608690738678,0.2463720589876175,0.058432437479496,0.2985200881958008,0.044374313205480576,-0.18243849277496338,0.23720696568489075,0.1442016065120697,-0.15013480186462402,0.18561482429504395,-0.25220146775245667,-0.09842831641435623,-0.16856148838996887,-0.07926654070615768,-0.01740342006087303,-0.12993957102298737,-0.28302717208862305,-0.004690564703196287,0.19767077267169952,0.3239000141620636,-0.13578662276268005,0.0742066502571106,0.027153924107551575,-0.06580880284309387,-0.00092397874686867,-0.507198691368103,-0.001870097708888352,-0.14732536673545837,-0.022592326626181602,-0.056158918887376785,-0.032074760645627975,-0.04391057416796684,-0.1541266292333603,0.09480926394462585,-0.0115531450137496,-0.1695713847875595,-0.07762546837329865,-0.078933946788311,-0.28042036294937134,-0.15607339143753052,-0.12646540999412537,-0.27934595942497253,-0.11012057960033417,0.07578680664300919,0.10049589723348618,-0.05326157063245773,0.01170310191810131,-0.001977793872356415,0.13860654830932617,0.0513218529522419,0.1273120790719986,-0.14483867585659027,-0.01987297087907791,0.15857413411140442,0.13901235163211823,0.009161910973489285,0.05230944603681564,-0.07623697072267532,-0.07223432511091232,0.03314235061407089,0.0007912647561170161,0.02556353248655796,-0.025714652612805367,-0.036167897284030914,-0.015648238360881805,-0.0918300449848175,0.07945156842470169,-0.14004124701023102,0.05601770803332329,-0.010466087609529495,0.09686699509620667,-0.07961763441562653,-0.28225308656692505,0.12121965736150742,-0.20783770084381104,0.04811275750398636,0.029222404584288597,-0.019029736518859863,0.017108652740716934,-0.01325296051800251,0.19362814724445343,-0.08700288087129593,0.1790042221546173,0.2566792666912079,0.07782047986984253,0.037192799150943756,0.0023867792915552855,-0.11889822781085968,0.32223260402679443,0.06147075816988945,-0.09277307242155075,-0.06674429774284363,0.006471306085586548,-0.07294229418039322,0.08006986230611801,-0.09394483268260956,0.08712925016880035,-0.17521217465400696,-0.15168166160583496,-0.002696263138204813,0.09382357448339462,0.011630642227828503,-0.2022937834262848,0.029862618073821068,0.09599720686674118,0.11848081648349762,0.25842273235321045,0.10572236031293869,-0.016391156241297722,-0.06082421913743019,0.034579839557409286,-0.004604794550687075,0.018053770065307617,0.11286871880292892,-0.13599929213523865,0.10538052767515182,0.051277291029691696,-0.18163955211639404,0.00899591390043497,0.21678879857063293,0.10285267233848572,0.11148255318403244,0.09672791510820389,-0.035799525678157806,0.08290563523769379,-0.1362377256155014,-0.15485267341136932,0.13548670709133148,0.09848404675722122,-0.21021291613578796,0.15522199869155884,0.027814917266368866,0.056176889687776566,-0.12628300487995148,0.03050311654806137,-0.02042488567531109,-0.009199286811053753,-0.21631008386611938,-0.05071446672081947,-0.034775905311107635,-0.024028152227401733,0.0832354724407196,0.08461061865091324,0.19942553341388702,-0.010354267433285713,-0.1763550490140915,0.03311803564429283,0.1600423902273178,0.14110924303531647,0.0398397296667099,-0.09861831367015839,-0.10144685953855515,-0.03424125909805298,-0.0011885681888088584,0.05315250903367996,0.16497375071048737,-0.12339051812887192,-0.03285500407218933,0.1860794872045517,0.05239315330982208,0.16477687656879425,0.006666216533631086,-0.08650942146778107,0.09088318794965744,0.048576146364212036,-0.10662546008825302,0.004536487627774477,-0.12274851649999619,0.060666535049676895,-0.16628313064575195,-0.03395283222198486,0.01992679014801979,-0.055775873363018036,-0.11100703477859497,0.009164773859083652,-0.027364274486899376,0.21691329777240753,-0.11057370156049728,0.09583643078804016,0.11393050849437714,-0.2551848590373993,0.1482226401567459,0.0036596576683223248,-0.28138527274131775,0.0847468301653862,-0.10765346884727478,-0.23633696138858795,-0.10169389098882675,-0.05388098210096359,0.28463271260261536,0.21231815218925476,0.06420404464006424,-0.17097552120685577,-0.12652622163295746,0.003834349801763892,0.28493744134902954,0.09090785682201385,0.0689878836274147,-0.1144929900765419,-0.1703372746706009,-0.09047658741474152,0.08897511661052704,0.16788949072360992,0.08549822121858597,-0.18393568694591522,0.16351763904094696,-0.08414722979068756,-0.19074557721614838,0.10317525267601013,-0.03819815441966057,-0.203525573015213,0.23320208489894867,-0.005853285547345877,-0.13941076397895813,-0.06988222151994705,-0.21879778802394867,0.17216914892196655,-0.05312925577163696,0.0186347384005785,-0.08881799876689911,-0.017020519822835922,-0.12462807446718216,0.10265795886516571,-0.08165805786848068,0.0056435950100421906,0.19999994337558746,-0.02647666074335575,0.0212983638048172,0.016496265307068825,-0.029773401096463203,0.13828417658805847,0.050514452159404755,-0.1738336682319641,0.09393435716629028,0.05630064010620117,0.09099260717630386,0.14331330358982086,-0.15855029225349426,-0.1865990310907364,-0.13378094136714935,0.18052537739276886,0.07822594046592712,-0.058641210198402405,-0.1111200600862503,-0.07545563578605652,-0.17141872644424438,0.251695454120636,0.1749333292245865,0.15518903732299805,-0.12826767563819885,-0.2256714105606079,-0.10809275507926941,0.23100106418132782,0.04362833499908447,-0.014038273133337498,-0.043809324502944946,-0.16707809269428253,0.04976247623562813,0.1524111032485962,-0.1864776462316513,-0.13544024527072906,0.3302273154258728,0.04155570641160011,-0.1057141050696373,0.048432063311338425,0.08482037484645844,-0.09876012057065964,0.015573096461594105,0.13389171659946442,-0.0668831542134285,-0.18090006709098816,0.10756668448448181,0.013196397572755814,-0.0726659968495369,-0.09890571236610413,-0.004244172479957342,-0.010990309529006481,-0.058659132570028305,-0.08387327939271927,0.08988232910633087,0.011795992031693459,-0.07914097607135773,0.033358134329319,-0.12928292155265808,-0.10043712705373764,0.08151280879974365,-0.10986059904098511,0.12846094369888306,-0.0073213716968894005,-0.11762112379074097,-0.12802132964134216,0.13595128059387207,0.08374541997909546,-0.013892684131860733,-0.19825632870197296,-0.09700777381658554,-0.028656641021370888,0.03503945469856262,0.0641624927520752,0.05391644313931465,-0.034298188984394073,-0.07506771385669708,0.17286519706249237,0.10710690170526505,0.13238419592380524,-0.08914105594158173,-0.15267063677310944,0.01259352546185255,0.06214179843664169,-0.024163849651813507,-0.03237232565879822,0.06043369323015213,0.0713205486536026,0.073196180164814,0.029607677832245827,-0.03513619676232338,-0.10071359574794769,-0.09048470854759216,0.1439184993505478,0.13207073509693146,-0.18045735359191895,0.16982488334178925,0.09204962849617004,-0.10226093977689743,0.04264097288250923,-0.021756861358880997,0.11206558346748352,0.2263813316822052,-0.014425613917410374,0.0939297005534172,0.21439741551876068,-0.020973002538084984,0.1668705940246582,-0.0730338916182518,-0.0035013239830732346,-0.07838079333305359,-0.05324530601501465,0.15096847712993622,0.11483047902584076,-0.27264079451560974,-0.13806359469890594,-0.09071099013090134,0.2275797575712204,-0.05982329323887825,0.19179217517375946,-0.2190123200416565,-0.25363048911094666,-0.05075988546013832,-0.012959163635969162,-0.13295696675777435,-0.26201358437538147,0.16663998365402222,-0.1307767778635025,-0.1407782882452011,0.2099103480577469,-0.04239273816347122,-0.13199247419834137,0.18363060057163239,-0.19495487213134766,-0.0034605301916599274,0.08640207350254059,0.1870688498020172,-0.17953866720199585,0.25134918093681335,0.0665428638458252,-0.010077825747430325,-0.23088082671165466,-0.007573057431727648,-0.15549412369728088,0.2471904754638672,0.02927914820611477,0.19108623266220093,-0.10290637612342834,-0.17117635905742645,-0.09003625810146332,0.07238023728132248,-0.2351488620042801,0.20338091254234314,-0.07405144721269608,0.022325070574879646,0.11188016086816788,-0.0354856438934803,-0.013716774992644787,-0.09725964069366455,0.1397208720445633,-0.01184624619781971,0.1260254979133606,-0.06480325013399124,0.008410915732383728,0.03010878898203373,-0.010296513326466084,-0.06634179502725601,0.12614943087100983,-0.25580766797065735,0.038357555866241455,-0.14010395109653473,0.07708702981472015,0.012955037876963615,-0.1685783863067627,-0.20064590871334076,0.012294461019337177,0.031021663919091225,0.18659724295139313,-0.1845443844795227,-0.15440434217453003,0.14694036543369293,0.04422552138566971,0.04444986581802368,-0.25668323040008545,-0.055709827691316605,-0.20964866876602173,0.016616016626358032,-0.2394322156906128,-0.2994411885738373,-0.03438616916537285,0.049570176750421524,-0.19732286036014557,0.33647018671035767,0.0888708233833313,0.26098665595054626,0.005052613560110331,-0.15449056029319763,0.1840631067752838,0.1512434184551239,-0.37356266379356384,-0.2071639448404312,0.048746298998594284,0.05655190348625183,-0.16147194802761078,-0.1852453202009201,0.022994941100478172,-0.10352937132120132,0.0490984208881855,0.21115924417972565,-0.009164951741695404,-0.07587571442127228,0.003845799248665571,-0.09235526621341705,0.19079631567001343,0.08264356851577759,0.06177832931280136,-0.09939263015985489,-0.07733152061700821,0.008731460198760033,-0.030427372083067894,0.14652426540851593,0.6628298163414001,-0.04424715414643288,-0.30186307430267334,-0.012931695207953453,0.09106867760419846,-0.10348380357027054,-0.1402451992034912,0.2737523019313812,0.21864868700504303,0.4542674422264099,-0.15858061611652374,0.012287434190511703,0.018496587872505188,0.09750000387430191,-0.20725922286510468,-0.1689777970314026,-0.1250946819782257,0.028388788923621178,0.05790901929140091,0.11347907781600952,-0.06354960054159164,-0.17776286602020264,0.14719121158123016,-0.10726721584796906,-0.07725796103477478,-0.03016325645148754,-0.14591073989868164,-0.09309182316064835,0.12147434800863266,-0.054503343999385834,0.0048600672744214535,-0.23387935757637024,-0.17043252289295197,-0.005600472912192345,-0.08275046944618225,0.11922089755535126,-0.08573465794324875,-0.21840927004814148,-0.09325706213712692,-0.1876663863658905,0.21945834159851074,0.16377657651901245,-0.056373149156570435,-0.12111761420965195,-0.04129994660615921,-0.04508843272924423,0.10687227547168732,0.044501014053821564,0.14945097267627716,0.03100769966840744,-0.10803480446338654,-0.04164331778883934,0.06221510097384453,-0.14771436154842377,-0.2085534632205963,0.17139320075511932,0.002254299819469452,0.04912768304347992,-0.18620213866233826,0.08129443228244781,-0.10350087285041809,-0.0032416360918432474,0.020427057519555092,0.018574755638837814,-0.07365383952856064,0.05643228441476822,0.2412695735692978,0.03223893418908119,0.16310584545135498,0.13093289732933044,0.02409004606306553,0.1400483399629593,0.12344870716333389,-0.040450483560562134,0.3513525128364563,-0.10056007653474808,0.004561473615467548,-0.08492740243673325,-0.021433090791106224,0.12678222358226776,0.11216160655021667,0.19709965586662292,-0.22110691666603088,-0.09136930853128433,0.003439296968281269,0.1352948546409607,0.11035305261611938,0.1866205483675003,-0.13794828951358795,-0.13320139050483704,-0.06507251411676407,0.24084874987602234,0.19083820283412933,0.06218782439827919,-0.09718374162912369,0.1439266800880432,-0.024369973689317703,-0.0515076145529747,0.20152947306632996,0.07535363733768463,-0.14149940013885498,0.22458206117153168,-0.05896759033203125,-0.26737770438194275,-0.07063861936330795,0.01979750581085682,-0.06486719846725464,0.05032508075237274,-0.0640423372387886,-0.12690205872058868,-0.0915776789188385,-0.3055955767631531,-0.05831259489059448,-0.06943491101264954,-0.0067930459044873714,0.11215467005968094,0.04382716864347458,-0.06438292562961578,0.11839991807937622,-0.27053362131118774,0.04804931581020355,-0.029686087742447853,-0.09747173637151718,-0.3582663834095001,0.07290468364953995,-0.07678952068090439,-0.1470595747232437,0.015998102724552155,-0.025251517072319984,0.11269219219684601,0.08817485719919205,0.16340313851833344,-0.012890039011836052,-0.06879594922065735,-0.08294038474559784,0.11324086785316467,-0.08611991256475449,-0.19638679921627045,-0.19341707229614258,-0.16418391466140747,-0.02908411994576454,-0.08263229578733444,-0.050748422741889954,-0.11551085859537125,0.22564050555229187,-0.03136519342660904,0.048436641693115234,-0.1194361075758934,-0.03858119994401932,-0.06607792526483536,-0.12182611972093582,0.15053234994411469,-0.21202796697616577,-0.043400608003139496,0.12916438281536102,-0.24129942059516907,-0.3073475658893585,-0.24634979665279388,-0.17256127297878265,-0.009114808402955532,0.12021864205598831,0.1437695026397705,0.12962612509727478,-0.25958725810050964,-0.13662931323051453,-0.015497028827667236,-0.0014324062503874302,0.05764930322766304,-0.020017782226204872,-0.17886441946029663,0.46718281507492065,0.5020447969436646,0.40825963020324707,-0.01941435970366001,0.10297344624996185,0.2120860069990158,-0.25117915868759155,-0.000010489793567103334,-0.3169565200805664,-0.052038662135601044,-0.18652154505252838,0.05529377982020378,0.06289322674274445,-0.13724875450134277,-0.05515444651246071,-0.08114559203386307,0.12216360867023468,0.2622990310192108,0.13776732981204987,0.07528173178434372,-0.12125726044178009,-0.1178743913769722,-0.06181880459189415,-0.03633352741599083,-0.03542923554778099,0.11660539358854294,-0.11047127097845078,0.1544111967086792,0.13127009570598602,-0.0902419239282608,0.08275306224822998,-0.000058692763559520245,0.06974217295646667,-0.0009686071425676346,0.2226552665233612,-0.0005477304803207517,0.025264229625463486,0.005507137160748243,-0.08881881088018417,0.07674668729305267,0.06226763129234314,-0.14248211681842804,0.15584500133991241,0.10095812380313873,-0.15932370722293854,-0.09192091226577759,-0.021747397258877754,0.048163749277591705,0.10225390642881393,0.13502930104732513,0.10347480326890945,-0.1031356081366539,-0.0711546316742897,0.03360447660088539,-0.0006613141158595681,0.034231748431921005,-0.06308341771364212,-0.05829203128814697,-0.03177442029118538,0.030869262292981148,0.05877764895558357,0.09598401188850403,-0.11380428075790405,-0.025644779205322266,-0.11322859674692154,0.2867829203605652,0.12904441356658936,0.06785721331834793,-0.24583740532398224,-0.049781061708927155,0.13656431436538696,-0.03262374922633171,-0.028372706845402718,0.11072752624750137,-0.12692400813102722,0.12962816655635834,0.18705663084983826,-0.25350409746170044,-0.03312503919005394,-0.09285372495651245,0.058412227779626846,-0.0742369145154953,0.06601228564977646,-0.08421458303928375,0.25300586223602295,0.34370049834251404,0.1145067811012268,-0.08439842611551285,-0.12064254283905029,-0.23567518591880798,-0.4504702687263489,-0.23256850242614746,0.27184149622917175,-0.24853895604610443,-0.14128586649894714,0.05758291110396385,-0.38402536511421204,-0.44277048110961914,-0.25003933906555176,0.009085099212825298,-0.10071014612913132,-0.13103273510932922,0.10684999078512192,0.15858148038387299,-0.0803566724061966,0.1410135179758072,0.1277799755334854,0.20666304230690002,0.029609376564621925,-0.13304118812084198,-0.011218773201107979,0.03381241858005524,-0.014632045291364193,0.12473737448453903,-0.011583850719034672,0.026980014517903328,-0.04674259573221207,-0.33464357256889343,0.1369599997997284,-0.12149591743946075,-0.10153874009847641,-0.12259246408939362,-0.14485830068588257,-0.12595248222351074,-0.1885407418012619,-0.10025147348642349,-0.3439239263534546,-0.1623898297548294,0.09464103728532791,-0.29709455370903015,0.09477206319570541,-0.3270142376422882,-0.13830901682376862,-0.02007812075316906,0.14531831443309784,-0.03919783979654312,-0.09965086728334427,0.3121581971645355,-0.1852870136499405,0.0493871308863163,0.1874643862247467,-0.1889548897743225,0.032997217029333115,0.2577621340751648,-0.0907333493232727,0.1953609138727188,0.10656634718179703,0.19368389248847961,0.01653812639415264,-0.2357558161020279,0.02553773671388626,-0.0662824958562851,0.14626842737197876,0.17906568944454193,0.13318200409412384,-0.06316737830638885,-0.07666691392660141,-0.10526957362890244,0.14563341438770294,-0.01621473953127861,0.0492517352104187,-0.21481843292713165,-0.17303581535816193,-0.21826758980751038,0.19477109611034393,-0.18744932115077972,-0.015117677859961987,0.24755221605300903,-0.25392135977745056,0.07636835426092148,0.030500203371047974,-0.13638153672218323,0.018980037420988083,0.1393137276172638,0.1562805324792862,0.06134488061070442,-0.05808066204190254,-0.14181052148342133,-0.1350884735584259,0.2760825753211975,0.19026626646518707,0.0035954900085926056,0.1200714260339737,-0.04487346485257149,0.04974519833922386,0.01729031279683113,-0.16666068136692047,-0.05707354098558426,0.11364545673131943,0.05852775648236275,0.08813151717185974,0.047697365283966064,-0.18655696511268616,0.06710171699523926,0.1530434638261795,-0.014747321605682373,0.093712717294693,-0.5807448029518127,0.8304784893989563,0.505744993686676,-0.49808618426322937,-0.05108014866709709,-0.28054362535476685,0.032069962471723557,0.41888412833213806,-0.9197463393211365,1.0338037014007568,0.603462278842926,0.2126302272081375,-0.3369767963886261,0.246389701962471,-0.7668694853782654,0.2444036304950714,-0.3500831425189972,0.016162319108843803,-0.4090801477432251,0.27061861753463745,0.06314630806446075,0.3898490369319916,0.15370698273181915,0.14271105825901031,0.29363054037094116,0.021122625097632408,0.1786520779132843,-0.2716091275215149,-0.06528693437576294,-0.1384253203868866,0.07067384570837021,0.2440914511680603,-0.09943962842226028,-0.022029059007763863,0.29949480295181274,0.11116991192102432,0.030236070975661278,-0.13149450719356537,-0.2579154074192047,-0.30119848251342773,0.08758915215730667,-0.0032398884650319815,-0.2578268051147461,0.10971353203058243,0.11299051344394684,0.016538400202989578,-0.14682909846305847,-0.14086146652698517,-0.10433807224035263,0.08672642707824707,-0.4567622244358063,0.2984696924686432,0.012426592409610748,-0.19235482811927795,-0.34613433480262756,-0.06390433758497238,0.15125714242458344,-0.20385012030601501,-0.002521541668102145,0.18071886897087097,-0.17328967154026031,-0.04441935196518898,0.13543860614299774,0.3659578561782837,-0.0006563367205671966,0.09099506586790085,-0.13298583030700684,-0.08671682327985764,0.03104810230433941,-0.26469436287879944,-0.016135377809405327,0.18139749765396118,0.11608166247606277,0.09888453036546707,0.13421063125133514,0.09575071930885315,0.12285777181386948,0.16453443467617035,-0.02748013101518154,0.14919257164001465,-0.23801952600479126,0.3339981436729431,-0.11705827713012695,0.012090140953660011,-0.08646423369646072,-0.02853504754602909,-0.04941502586007118,0.22174599766731262,0.14618036150932312,-0.09767885506153107,0.1677856147289276,-0.24261921644210815,-0.22751033306121826,0.20449136197566986,-0.05343988165259361,-0.20041507482528687,-0.1737632155418396,-0.08974207937717438,-0.012901402078568935,-0.0465947762131691,-0.23447363078594208,0.34486618638038635,0.15808413922786713,-0.14750346541404724,-0.22566159069538116,0.0206473246216774,-0.052018821239471436,0.11521551012992859,0.010932081378996372,0.16548357903957367,-0.0293890330940485,0.16711145639419556,0.000011652792636596132,-0.08869221806526184,-0.37490978837013245,0.45872485637664795,-0.14776813983917236,0.17004618048667908,0.022936755791306496,-0.1910429745912552,0.28679409623146057,0.0163009911775589,-0.026010852307081223,0.05810345709323883,0.07610922306776047,0.15828576683998108,0.35977575182914734,0.3491348922252655,0.1011950746178627,-0.18442963063716888,0.07649627327919006,0.08262594044208527,-0.16644327342510223,-0.08124396204948425,-0.1772516965866089,0.006478968076407909,-0.08897335082292557,0.1304122805595398,0.3158075213432312,-0.023793192580342293,0.07747608423233032,-0.21625128388404846,-0.2902141809463501,-0.37220698595046997,0.29852113127708435,-0.061361007392406464,0.09877734631299973,0.1784723550081253,0.12414345890283585,-0.20390258729457855,-0.018074149265885353,-0.12990878522396088,0.1323564350605011,-0.16281801462173462,-0.002729251515120268,-0.14819279313087463,-0.03438180312514305,0.18418657779693604,0.15048359334468842,0.2475765347480774,-0.20743992924690247,-0.3059508800506592,0.24417775869369507,0.07281192392110825,-0.07464347034692764,-0.18773896992206573,-0.14827893674373627,-0.11926776170730591,-0.09641900658607483,0.1700969636440277,-0.0631008967757225,0.08163519203662872,0.013216960243880749,0.14160706102848053,-0.23261620104312897,0.32355231046676636,-0.33954906463623047,-0.1485113948583603,-0.835187554359436,0.5504893064498901,-0.22171469032764435,0.30857619643211365,0.07524019479751587,0.4191265404224396,0.32479724287986755,-0.49108344316482544,0.12620770931243896,-0.07164061069488525,-0.30892816185951233,0.07035909593105316,0.7103806734085083,0.15244832634925842,0.0133674880489707,0.016783457249403,-0.004870321601629257,-0.011899272911250591,0.26836806535720825,0.4165138006210327,0.10845889896154404,-0.08608454465866089,-0.16647203266620636,-0.17357981204986572,0.30115440487861633,-0.32346081733703613,-0.22166180610656738,0.011698771268129349,0.22300322353839874,-0.47888681292533875,-0.1624414175748825,-0.1014549732208252,-0.1662585586309433,0.09808242321014404,0.15501241385936737,-0.2111501395702362,-0.39855003356933594,-0.0874745175242424,0.029953358694911003,-0.29534876346588135,-0.06173761561512947,0.19852887094020844,0.12807586789131165,0.0010512834414839745,-0.0431848019361496,-0.233907088637352,0.1304135024547577,-0.18127043545246124,-0.1847030371427536,0.08111892640590668,-0.03855111822485924,0.18578381836414337,-0.20158767700195312,0.08314228802919388,0.18738363683223724,-0.010716211050748825,-0.2865387201309204,-0.10153377801179886,0.12472472339868546,-0.141093447804451,0.2149779051542282,0.01943543553352356,0.07151630520820618,-0.09888274222612381,0.11074652522802353,-0.2963542938232422,-0.04486947879195213,0.034542012959718704,-0.2641555070877075,-0.041588377207517624,0.09617391228675842,0.0698588415980339,0.21814535558223724,-0.0030842169653624296,0.035776134580373764,0.03484737500548363,-0.29816070199012756,-0.32797959446907043,0.20098087191581726,0.2038046270608902,0.028004879131913185,-0.5293939709663391,0.20269204676151276,-0.38028931617736816,-0.278759241104126,-0.03190675005316734,-0.0947098433971405,0.45856329798698425,0.19977779686450958,-0.11720090359449387,0.20617903769016266,-0.09256462007761002,-0.1589524745941162,0.08528196066617966,-0.02209516428411007,0.04365136846899986,0.16962561011314392,-0.155612051486969,-0.05050647631287575,0.26558542251586914,0.12998421490192413,-0.47008034586906433,-0.06350112706422806,0.13085012137889862,0.31792834401130676,0.057277433574199677,-0.017673898488283157,0.001272384775802493,-0.12716802954673767,0.1425994485616684,0.06873318552970886,0.1411665380001068,-0.02320118248462677,0.00641905702650547,0.06594345718622208,0.03152815252542496,-0.007816493511199951,-0.08456194400787354,0.13630416989326477,0.20499946177005768,0.031581081449985504,-0.09958934038877487,-0.20013375580310822,-0.21089182794094086,-0.09652586281299591,-0.12696950137615204,0.2267880141735077,0.042873915284872055,-0.0707925483584404,-0.06052577868103981,-0.37732645869255066,-0.09628620743751526,0.17911377549171448,0.2021750509738922,-0.026584601029753685,-0.23457002639770508,-0.16365331411361694,-0.01869863271713257,0.09138756990432739,-0.18440072238445282,-0.06216242536902428,0.1540665328502655,0.11967644095420837,-0.011412074789404869,-0.08296842873096466,0.00027613964630290866,0.0792514979839325,-0.21069097518920898,0.21719151735305786,0.09066405892372131,-0.29146191477775574,-0.1925121545791626,-0.1563461273908615,-0.2794474959373474,0.23380199074745178,0.05124566704034805,-0.11553719639778137,-0.04543313384056091,0.22622671723365784,-0.09222942590713501,0.6202555298805237,-0.11434296518564224,-0.05673762783408165,-0.20445162057876587,-0.029447516426444054,0.08103751391172409,-0.08676367253065109,0.11055212467908859,0.029744351282715797,-0.1288710981607437,0.09437347203493118,0.08614931255578995,-0.0021418919786810875,-0.20181146264076233,0.041652385145425797,-0.20894603431224823,0.1391160488128662,-0.037159860134124756,-0.06485889852046967,-0.13852199912071228,0.028317609801888466,0.12482476234436035,0.20055633783340454,-0.14451780915260315,-0.03202296048402786,0.09572288393974304,0.23497126996517181,-0.3605736792087555,0.2374131679534912,-0.06910177320241928,0.0017123466823250055,0.02134423702955246,-0.30246567726135254,-0.053138602524995804,0.04530657082796097,0.04628456383943558,-0.04447471350431442,0.19617804884910583,-0.19607612490653992,-0.045474641025066376,0.1268235743045807,-0.03042793832719326,0.005233250092715025,0.06131235510110855,-0.14631952345371246,-0.04200253635644913,0.04786067083477974,-0.1716715395450592,0.1689525693655014,-0.3334781229496002,-0.005856109783053398,-0.17167575657367706,0.18668712675571442,0.027986694127321243,0.04570605605840683,0.1660822182893753,-0.06877065449953079,0.15808260440826416,0.17243807017803192,-0.11177343130111694,-0.2796950042247772,-0.27517151832580566,0.08113011717796326,0.14570191502571106,0.32893016934394836,-0.12099327892065048,-0.01686561107635498,-0.11509422957897186,0.18288554251194,-0.010649018920958042,0.10411190986633301,-0.10668626427650452,0.04763147234916687,-0.11098164319992065,0.21384984254837036,0.14672961831092834,0.6313515305519104,-0.552655816078186,-0.005048970226198435,0.0979343056678772,-0.12787577509880066,-0.03507012873888016,0.09208264201879501,-0.04363640397787094,-0.057823266834020615,0.05926057696342468,-0.20903195440769196,0.007807347923517227,-0.12042493373155594,0.3179751932621002,-0.03388507664203644,0.06536218523979187,0.07953952252864838,0.06907791644334793,0.24688559770584106,-0.12150947749614716,0.06757285445928574,-0.032369762659072876,0.20217378437519073,0.11249874532222748,0.13750028610229492,-0.0905231386423111,0.10626538097858429,0.16016744077205658,-0.08657961338758469,0.08269504457712173,0.21796634793281555,-0.21659478545188904,-0.13740184903144836,-0.24416327476501465,0.10779368132352829,0.24987360835075378,0.1220039576292038,0.10859381407499313,0.020933661609888077,-0.03345436230301857,0.2433357834815979,0.07239007204771042,-0.09221179038286209,-0.258207231760025,-0.16496913135051727,-0.022182807326316833,0.19874092936515808,0.1892814040184021,0.40224960446357727,-0.17319649457931519,0.1014188900589943,0.20591074228286743,-0.0008230720995925367,0.01051945611834526,0.19767996668815613,-0.13737525045871735,0.09672490507364273,0.13913457095623016,-0.2516959607601166,-0.23085178434848785,0.13522212207317352,0.051608528941869736,-0.050392258912324905,0.10003475844860077,-0.13751640915870667,0.2510034739971161,0.14522436261177063,-0.00048195250565186143,0.08273590356111526,-0.08108816295862198,0.03244016692042351,-0.10381559282541275,0.16017667949199677,-0.035881634801626205,0.11320994794368744,-0.014360501430928707,0.00262075406499207,0.04531385004520416,0.011083407327532768,-0.13431788980960846,-0.18137478828430176,0.03241154924035072,0.12399496883153915,-0.005482221953570843,0.04216621443629265,0.11377424001693726,0.04811938852071762,-0.03667135536670685,-0.08599229156970978,-0.06102638691663742,0.2041473239660263,-0.0807650238275528,-0.14997993409633636,-0.10529051721096039,0.012507584877312183,0.20250117778778076,0.4760313630104065,0.03251511603593826,0.06716282665729523,-0.04443557187914848,-0.05830744653940201,-0.15987300872802734,0.06399623304605484,-0.04815782606601715,-0.09482759237289429,0.02638852782547474,-0.055424150079488754,0.17148728668689728,-0.1537172794342041,0.13976843655109406,0.12380136549472809,-0.10744132101535797,-0.02418183907866478,0.10421167314052582,-0.09877227246761322,-0.09303662925958633,-0.09682115167379379,-0.08401221036911011,0.03322627767920494,0.0005574740935117006,0.041789013892412186,0.1411118507385254,-0.18361796438694,-0.15084384381771088,-0.22584117949008942,0.10067503899335861,-0.03420787304639816,-0.09008771926164627,-0.043432485312223434,-0.1007147803902626,-0.078408382833004,-0.042152196168899536,-0.03318670392036438,-0.05243607610464096,0.162822887301445,-0.1188025027513504,-0.298854798078537,-0.31462085247039795,0.014288685284554958,0.0621020570397377,0.07835686951875687,0.10387629270553589,-0.13056394457817078,0.08904226124286652,-0.025175567716360092,-0.17237578332424164,0.016699161380529404,-0.06534010916948318,0.023018591105937958,-0.119916170835495,-0.09417299181222916,0.027275346219539642,-0.2104903906583786,-0.10330982506275177,0.06461664289236069,-0.1523607075214386,-0.08962411433458328,0.03549188748002052,0.053936026990413666,0.12895579636096954,0.29438868165016174,0.26322105526924133,-0.13803784549236298,-0.09200920909643173,-0.3073658049106598,0.30377671122550964,0.23046162724494934,0.15317480266094208,-0.0635588988661766,-0.10919767618179321,-0.066827692091465,-0.13959018886089325,-0.20779557526111603,0.004955209791660309,-0.1682184785604477,-0.11452701687812805,-0.2071099430322647,0.010554848238825798,0.1676875352859497,-0.20650136470794678,-0.358883261680603,-0.15836970508098602,-0.019501881673932076,-0.018881816416978836,-0.029797645285725594,0.20922613143920898,0.10185947269201279,0.051364801824092865,-0.18750964105129242,0.015599031001329422,-0.013406628742814064,0.1052282378077507,-0.7798377871513367,-0.0005130126373842359,-0.03991475701332092,-0.422206848859787,-0.08634325116872787,0.31684860587120056,-0.10944974422454834,-0.14079177379608154,0.09754429757595062,-0.060890790075063705,-0.15128982067108154,-0.07481413334608078,0.06765817105770111,-0.13574860990047455,0.13244330883026123,0.02712535485625267,-0.23385736346244812,0.026983803138136864,-0.025966495275497437,-0.12174344062805176,-0.14216741919517517,-0.2078208476305008,0.05260255187749863,-0.10523175448179245,0.01114574633538723,0.31742849946022034,-0.16599464416503906,0.052679192274808884,-0.09590621292591095,-0.05614209920167923,0.1423613429069519,0.06706619262695312,-0.12216046452522278,-0.11235711723566055,0.05180542171001434,-0.08231378346681595,-0.1585317701101303,0.001994528342038393,-0.10806555300951004,-0.0301064383238554,0.06926422566175461,0.15772749483585358,0.06692895293235779,-0.07916881144046783,-0.09820164740085602,-0.1301785260438919,0.18221905827522278,-0.18565095961093903,0.038265254348516464,-0.19463932514190674,-0.14497575163841248,-0.09532346576452255,-0.1082799881696701,0.14925172924995422,0.040350284427404404,0.022439096122980118,0.18847137689590454,-0.057565029710531235,-0.17049232125282288,-0.21917536854743958,-0.3431074321269989,-0.062359634786844254,0.004288457799702883,-0.05967172235250473,-0.1007339134812355,-0.06727208942174911,0.20720438659191132,0.11703423410654068,0.12560544908046722,-0.00506889121606946,-0.18478351831436157,-0.06611103564500809,-0.07645069807767868,0.15743573009967804,-0.13020998239517212,0.07099118828773499,-0.05257108435034752,-0.0814116969704628,0.14913980662822723,0.14681358635425568,-0.043959490954875946,-0.011898514814674854,0.08869614452123642,-0.0791366696357727,-0.16653375327587128,-0.07873664796352386,-0.14840592443943024,-0.17735852301120758,-0.11865199357271194,0.050296228379011154,0.05744354799389839,-0.13506676256656647,0.04678208753466606,0.09025529772043228,-0.025902163237333298,-0.02491120435297489,-0.05178355798125267,0.17296358942985535,0.11219366639852524,0.020636677742004395,-0.1760876476764679,0.15835268795490265,0.05092909187078476,-0.14500953257083893,0.006385748740285635,0.2065885215997696,-0.055350542068481445,-0.07766371965408325,0.23346781730651855,-0.041946299374103546,0.11107374727725983,0.08024131506681442,0.00014217723219189793,-0.1308102309703827,0.20252294838428497,0.025401804596185684,0.46770986914634705,-0.24408908188343048,-0.0507110171020031,0.030010614544153214,0.08148036897182465,-0.029879435896873474,0.12594953179359436,-0.04721134528517723,-0.12101093679666519,-0.12860107421875,0.18498940765857697,0.0960945338010788,-0.1280369758605957,-0.05389334261417389,0.07529935985803604,-0.03984489664435387,-0.05746382102370262,0.17218628525733948,-0.1498388648033142,-0.005730567034333944,0.14886166155338287,0.17464430630207062,0.1061415895819664,-0.1394154280424118,-0.19822028279304504,-0.023517079651355743,0.1093960776925087,-0.22752773761749268,0.35704323649406433,0.08366542309522629,-0.040203917771577835,-0.10119841992855072,-0.08677928894758224,0.09545136243104935,-0.06320216506719589,-0.2210806906223297,0.006456272676587105,0.15740658342838287,-0.20772147178649902,0.11744263023138046,0.05081918463110924,-0.19101138412952423,0.15848183631896973,-0.037541165947914124,-0.010546375066041946,0.05019577592611313,-0.06852759420871735,0.030029626563191414,0.09405826777219772,-0.3550332486629486,0.37956714630126953,-0.09667479246854782,0.12297291308641434,0.1205819621682167,-0.05104103684425354,-0.16779251396656036,-0.15556824207305908,-0.37559348344802856,-0.369045615196228,0.06819772720336914,0.22421950101852417,0.17536073923110962,-0.09755567461252213,0.055945321917533875,0.19318369030952454,-0.31898048520088196,0.1187262088060379,0.07564496248960495,0.023943228647112846,-0.1217866912484169,-0.004953157622367144,0.20745772123336792,0.04863102734088898,0.06845622509717941,-0.06062157452106476,0.07712426781654358,0.24755573272705078,-0.5268253087997437,-0.20186109840869904,0.07294536381959915,-0.28944990038871765,0.006349530071020126,-0.12030206620693207,0.19272570312023163,-0.04131566733121872,-0.05957404896616936,0.22638317942619324,0.005989531055092812,0.035371892154216766,0.4301009178161621,-0.13527517020702362,-0.16251279413700104,0.12655244767665863,-0.06585752964019775,0.07219859957695007,-0.15315799415111542,0.1153048500418663,0.10739723592996597,-0.052935682237148285,-0.15170347690582275,0.005903372075408697,-0.09274162352085114,0.10396450757980347,0.07033920288085938,-0.11439990252256393,-0.1336442530155182,-0.09912548214197159,0.04408036172389984,-0.11692136526107788,-0.17419248819351196,0.21170666813850403,-0.2546830177307129,-0.2277110069990158,-0.3649841248989105,-0.0980353131890297,-0.14823441207408905,0.2651470899581909,0.0712379664182663,0.015347275882959366,-0.22347627580165863,-0.21004459261894226,0.04815420135855675,0.3524804711341858,-0.12632672488689423,-0.06792211532592773,-0.14091679453849792,0.09177201241254807,-0.008950193412601948,-0.10902651399374008,0.18145176768302917,0.13128933310508728,-0.42541229724884033,0.2858017683029175,0.03314174339175224,-0.22301863133907318,-0.14366595447063446,-0.16460715234279633,-0.07115232199430466,0.281416654586792,0.021864652633666992,-0.05995591729879379,0.1809602826833725,0.04889078438282013,-0.27257490158081055,-0.06422799080610275,0.17412148416042328,0.035996269434690475,0.11170148104429245,-0.1491306573152542,-0.23687539994716644,0.028635593131184578,0.11560264229774475,-0.13255034387111664,-0.013975701294839382,0.120789535343647,-0.19658830761909485,-0.06501159816980362,-0.10090228915214539,0.05833696573972702,-0.11598174273967743,-0.09241992235183716,-0.277113676071167,-0.10966578871011734,-0.028892122209072113,0.21803690493106842,0.03156604990363121,0.14409565925598145,-0.3710574209690094,-0.23478202521800995,0.08041486889123917,0.24142511188983917,-0.06210140511393547,-0.31732848286628723,-0.5490624308586121,0.03475309908390045,-0.12323826551437378,-0.028907276690006256,0.10702111572027206,0.0422474667429924,-0.20912691950798035,0.2894701659679413,0.028099047020077705,-0.19785980880260468,0.019132841378450394,0.04242953658103943,0.4847818911075592,0.21837489306926727,0.20543667674064636,-0.01203200500458479,-0.05045410990715027,0.1470373421907425,0.04527554661035538,0.2394660860300064,0.006629785057157278,0.0765504240989685,-0.2228580266237259,0.10795572400093079,0.07860136777162552,-0.09655579924583435,-0.03724979609251022,0.02439647912979126,0.05245432257652283,0.02519327774643898,0.21480843424797058,0.1949349045753479,0.08428443968296051,-0.029559679329395294,-0.18151018023490906,0.23914466798305511,0.08569049835205078,0.05519669130444527,-0.037752944976091385,-0.19751951098442078,-0.2055215686559677,0.039195604622364044,0.19628705084323883,0.12030651420354843,-0.14839324355125427,0.0006325577851384878,0.01054883562028408,0.4071209728717804,0.019390922039747238,-0.050510816276073456,0.13128136098384857,-0.13021448254585266,-0.08741842210292816,-0.0152768949046731,0.09775625914335251,-0.20712661743164062,-0.019165435805916786,0.25532546639442444,-0.1263904571533203,-0.2490270733833313,0.1543646603822708,-0.08030471950769424,0.05341363698244095,0.2774193286895752,-0.10261541604995728,-0.11280876398086548,0.14779262244701385,-0.2592567503452301,0.000032165895390789956,0.10641143471002579,0.028375912457704544,-0.05595555156469345,-0.021176965907216072,-0.07813404500484467,-0.0016655323561280966,0.2392096221446991,-0.007942947559058666,-0.10690981894731522,-0.07050599902868271,0.19930259883403778,-0.04746713116765022,-0.19870160520076752,0.10426247119903564,-0.11486957967281342,0.07486605644226074,0.07570480555295944,0.07633369415998459,-0.06108464300632477,-0.1802632063627243,-0.02630678378045559,0.23178908228874207,0.018865741789340973,0.13709700107574463,-0.08248079568147659,0.017111510038375854,-0.26634690165519714,0.02369195595383644,0.09055601060390472,-0.13703985512256622,-0.047287020832300186,-0.18080686032772064,0.0013146324781700969,0.05588110163807869,-0.17661865055561066,0.06379971653223038,0.11078324913978577,-0.13857117295265198,-0.03126377612352371,-0.14512281119823456,-0.05858951061964035,0.08642362058162689,0.19524578750133514,-0.0691024586558342,0.22727833688259125,-0.05367289483547211,0.06241202726960182,-0.08605723083019257,0.05080876871943474,-0.2296203225851059,-0.0010357374558225274,-0.20133978128433228,0.22621478140354156,0.18161626160144806,0.03449175879359245,0.013919725082814693,0.34332600235939026,-0.06460551917552948,-0.23806054890155792,-0.14622168242931366,0.19476206600666046,0.02077900618314743,0.06272721290588379,-0.1257704794406891,-0.16416607797145844,0.07203667610883713,0.061711978167295456,0.16755464673042297,-0.00545206293463707,-0.1953340321779251,-0.15687449276447296,-0.07033491879701614,0.3070595860481262,-0.1842229664325714,0.25273850560188293,-0.5231407880783081,0.07051024585962296,0.020407583564519882,-0.18782955408096313,-0.08317792415618896,0.0014050741447135806,-0.0390099473297596,-0.08983080089092255,0.05391239747405052,-0.1158294603228569,0.11764204502105713,0.3542284369468689,0.37906697392463684,0.04823463037610054,0.09954727441072464,0.12069540470838547,0.1421360820531845,-0.08385853469371796,0.2352554351091385,-0.029271265491843224,0.13784131407737732,0.00147567770909518,-0.1600431650876999,-0.17316189408302307,0.03204825147986412,0.14004872739315033,-0.05085860937833786,-0.12462054938077927,0.13109730184078217,-0.04490942135453224,-0.0015332018956542015,0.1891971379518509,0.7937237024307251,0.14193333685398102,0.5421299934387207,-0.8872528076171875,-0.6301186084747314,0.15166911482810974,0.6809856295585632,-0.050516560673713684,0.2725318670272827,0.39940980076789856,-0.9577858448028564,0.5601455569267273,0.029434990137815475,-0.9666794538497925,0.10252877324819565,-0.22043520212173462,-0.3440304398536682,-0.37405166029930115,0.24901393055915833,-0.26481494307518005,-0.0007292843656614423,0.15421365201473236,0.02984737604856491,-0.2296500951051712,-0.2805456519126892,-0.09201174229383469,0.05313749238848686,-0.11587785929441452,-0.09681855142116547,0.00922488048672676,0.26657283306121826,-0.10656183958053589,-0.031597841531038284,-0.22815605998039246,-0.026041746139526367,-0.34078386425971985,-0.09647948294878006,-0.05657348409295082,0.2374502420425415,-0.18562866747379303,-0.09184172749519348,0.05289550870656967,-0.4543253779411316,0.08465920388698578,-0.17883746325969696,0.01751428283751011,0.2937923073768616,-0.014432515949010849,-0.26941052079200745,0.12808822095394135,-0.08754231035709381,0.003652704879641533,-0.1333775818347931,-0.21097902953624725,-0.07239372283220291,-0.04903591051697731,0.07559604197740555,-0.3175947964191437,0.06001221016049385,-0.3377898335456848,-0.12638390064239502,0.09818419069051743,-0.06022993475198746,0.3903405964374542,-0.3430408835411072,0.15937183797359467,-0.1999499648809433,0.25614574551582336,0.22608916461467743,0.33322402834892273,0.3006151616573334,0.0019161960808560252,-0.1839265525341034,-0.13292382657527924,0.13319110870361328,-0.097720667719841,0.3827216923236847,0.07710767537355423,-0.16114647686481476,-0.2251739501953125,0.550973653793335,0.0035238200798630714,-0.31835126876831055,0.15376147627830505,0.03653404116630554,-0.04257061704993248,0.11667262762784958,-0.4359128773212433,0.2524895966053009,0.29442548751831055,0.08608635514974594,0.19594095647335052,-0.09913033992052078,-0.18807707726955414,-0.49714022874832153,-0.15069790184497833,-0.12844696640968323,0.27391549944877625,0.3302775025367737,0.37365013360977173,-0.034051358699798584,0.1777431219816208,-0.141008660197258,-0.0043768263421952724,0.05113841965794563,0.2957058250904083,-0.2253713458776474,0.35601967573165894,0.002695612609386444,0.06825361400842667,-0.24940139055252075,0.15303999185562134,0.13077197968959808,-0.23610219359397888,-0.14900612831115723,-0.3453277349472046,-0.06830368936061859,-0.1561800241470337,0.27599382400512695,0.1661066710948944,-0.1488351970911026,0.044590625911951065,0.04051240161061287,0.04773304983973503,0.12489655613899231,-0.211419939994812,-0.204060897231102,-0.162191241979599,0.026157597079873085,0.09132963418960571,-0.038721341639757156,0.1762208342552185,0.2645764946937561,-0.29688704013824463,0.156389057636261,0.22739094495773315,-0.07130871713161469,0.04508268088102341,0.25055786967277527,0.2223779261112213,-0.08295506238937378,0.17921225726604462,-0.0386844277381897,0.012601944617927074,-0.3108462691307068,0.09847792983055115,0.1294427365064621,0.1075638011097908,0.04629536345601082,0.18468785285949707,-0.33612683415412903,-0.2891164720058441,-0.11120128631591797,-0.06731395423412323,-0.14600522816181183,-0.30973854660987854,0.06980745494365692,0.09913699328899384,0.18499618768692017,0.24593403935432434,0.15598374605178833,0.05252394825220108,-0.01678888313472271,-0.1497047394514084,-0.30339714884757996,0.12831339240074158,-0.05115816742181778,0.1689072847366333,-0.4229435920715332,-0.12797890603542328,0.15205544233322144,-0.06847479194402695,0.24244767427444458,-0.2543514370918274,0.2913457155227661,0.027513517066836357,-0.1767774373292923,0.1249009296298027,-0.32971516251564026,-0.3745248019695282,-0.1990593820810318,0.11700849235057831,0.09611092507839203,-0.2400970757007599,0.27105897665023804,-0.06899216771125793,-0.07888515293598175,-0.13641293346881866,-0.24970462918281555,0.05442585051059723,0.18403548002243042,-0.14021259546279907,-0.18801192939281464,0.23557265102863312,-0.2011609673500061,-0.1636306792497635,0.1106770783662796,-0.24789957702159882,0.1792983114719391,-0.0014091134071350098,-0.09430519491434097,0.05751022696495056,0.4169446527957916,-0.04850440099835396,-0.24396976828575134,0.30601510405540466,-0.26865655183792114,-0.18137726187705994,0.05841792747378349,0.10166595131158829,0.2647549510002136,0.2584594786167145,-0.2195906788110733,-0.18257002532482147,-0.013076269067823887,0.2565780580043793,0.384013831615448,-0.03610933944582939,-0.20152465999126434,0.029299357905983925,-0.1890413463115692,0.1489524096250534,-0.05373121052980423,-0.11121572554111481,-0.3162611126899719,-0.032265227288007736,0.10611048340797424,0.2886350154876709,-0.03607473894953728,0.3238258957862854,-0.11918198317289352,-0.03727933019399643,-0.0701536312699318,-0.022841092199087143,0.1809171885251999,-0.2703598439693451,-0.36237409710884094,-0.10252184420824051,0.22629763185977936,0.054627448320388794,0.64952152967453,-0.19880902767181396,-0.09258248656988144,0.09095976501703262,-0.198694109916687,-0.298532634973526,0.1985069066286087,0.2556978166103363,-0.061589326709508896,0.06228839233517647,-0.49039795994758606,0.17459963262081146,0.3345988690853119,-0.18023955821990967,0.03392888978123665,-0.053058918565511703,-0.03185300901532173,0.1746288239955902,-0.20690734684467316,-0.23303720355033875,-0.11237628757953644,-0.47327739000320435,-0.015553115867078304,0.05883622169494629,0.0624491386115551,0.14481762051582336,-0.16105854511260986,0.16077689826488495,0.22628925740718842,-0.03125568851828575,-0.2117598056793213,0.17282521724700928,-0.16750550270080566,0.02872736193239689,-0.06600484251976013,0.11242961138486862,-0.02169082686305046,-0.08996502310037613,0.1968495398759842,0.1929810792207718,-0.4010791778564453,0.2934962809085846,0.19525645673274994,0.34407785534858704,-0.1217842623591423,-0.3440876603126526,-0.0664612427353859,0.056170932948589325,0.12147147208452225,0.010550773702561855,-0.7232952117919922,0.08756601065397263,-0.08732440322637558,-0.3666397035121918,-0.02207639068365097,0.2732904553413391,0.01671704836189747,-0.27465492486953735,-0.3130841553211212,-0.3494529128074646,-0.019959304481744766,0.031897757202386856,-0.08843932300806046,0.21299657225608826,0.0033451567869633436,0.37089911103248596,0.02142903581261635,-0.25391003489494324,-0.29237228631973267,0.154794380068779,-0.027537744492292404,-0.22478458285331726,-0.014805545099079609,0.05937671661376953,0.12651298940181732,0.15092411637306213,-0.14065954089164734,0.052518561482429504,0.16883382201194763,0.3106738328933716,-0.3304812014102936,0.21139460802078247,0.11145401746034622,-0.3615304231643677,-0.02764933556318283,0.07516320049762726,0.1495399922132492,-0.06749440729618073,0.06561645865440369,-0.04858587309718132,0.0013562582898885012,-0.33020251989364624,0.36499470472335815,-0.13403548300266266,0.14484432339668274,0.11075972020626068,-0.06395836919546127,-0.07997862994670868,0.4344836473464966,-0.11788935959339142,0.05588408187031746,0.25288909673690796,-0.15398049354553223,-0.13641522824764252,0.11691135913133621,-0.07041376829147339,0.05882715433835983,0.18187838792800903,-0.059286557137966156,0.035692308098077774,0.22330302000045776,0.08827594667673111,0.02137279324233532,-0.2116987407207489,-0.14256830513477325,0.26503026485443115,0.3118295967578888,-0.08822957426309586,-0.004105519037693739,-0.2655640244483948,-0.10378336161375046,-0.02902115136384964,0.2130153775215149,0.0143897058442235,0.1549726128578186,-0.09358599036931992,0.05829097703099251,-0.11827302724123001,0.5882353186607361,-0.21453224122524261,-0.12206126749515533,0.20692424476146698,-0.02625572495162487,-0.2251179963350296,0.03454273194074631,-0.03998987004160881,-0.23220068216323853,0.20090900361537933,0.1621866226196289,0.16784287989139557,-0.0469740629196167,-0.022797198966145515,-0.08818699419498444,-0.03266996517777443,0.06502056866884232,0.07916262745857239,0.012539597228169441,0.05723752826452255,0.2326979637145996,-0.4698654115200043,-0.10920453071594238,-0.0774112418293953,0.2844073176383972,-0.07359619438648224,0.11203598231077194,0.027213359251618385,-0.12528108060359955,-0.05666156858205795,-0.4224412441253662,0.056556571274995804,-0.009523792192339897,-0.0512339249253273,-0.1181582361459732,-0.3307499885559082,-0.7341116666793823,0.21876946091651917,0.1545148342847824,-0.06800524890422821,-0.08132149279117584,-0.22356827557086945,0.18658195436000824,0.18761801719665527,-0.07762947678565979,-0.2020096629858017,0.10461670160293579,0.11068389564752579,-0.30015429854393005,0.05048472061753273,0.28627970814704895,-0.06612713634967804,-0.12322604656219482,-0.06041647121310234,0.2781558334827423,-0.11578996479511261,-0.10590290278196335,0.27509352564811707,-0.10541615635156631,-0.1301725059747696,-0.2980985641479492,-0.24836526811122894,-0.08037839084863663,0.16004860401153564,-0.08504277467727661,-0.12647251784801483,-0.11884657293558121,-0.2096458226442337,0.21300140023231506,-0.23148855566978455,0.010233893990516663,0.13935121893882751,-0.08733925223350525,-0.03516428545117378,-0.07505744695663452,-0.06390178203582764,0.061571743339300156,0.2907334864139557,0.05398201942443848,-0.04966606944799423,-0.01316373236477375,0.3858378827571869,0.12588371336460114,-0.3604874014854431,-0.08785847574472427,0.03220658004283905,-0.11760126054286957,-0.10793684422969818,0.07895928621292114,0.0633140578866005,0.023043086752295494,-0.17920978367328644,0.023942360654473305,0.14626336097717285,-0.03722221031785011,0.06687890738248825,-0.17740465700626373,-0.1704784631729126,-0.1430540233850479,-0.22741268575191498,0.06029321253299713,0.13472649455070496,-0.07543953508138657,0.03161831572651863,0.15101051330566406,-0.2545357048511505,0.18290676176548004,0.06477907299995422,0.16203716397285461,0.12962225079536438,0.01657475344836712,-0.08133301138877869,0.00919877365231514,0.6653540730476379,0.1574321985244751,0.24838075041770935,0.17951755225658417,0.4216848611831665,-0.011882206425070763,0.31828922033309937,-0.050497934222221375,-0.2125988006591797,0.0009216583566740155,-0.06458733975887299,-0.05345733463764191,-0.09164783358573914,0.15329746901988983,0.15685006976127625,-0.06331376731395721,-0.13841956853866577,0.11465295404195786,-0.10044106096029282,0.03682935982942581,0.14692124724388123,-0.0464167445898056,-0.07175956666469574,-0.035398248583078384,0.1908494532108307,0.08763239532709122,0.1183532252907753,-0.05581525340676308,0.16075821220874786,-0.029489299282431602,0.6763496398925781,-0.03445493057370186,0.06638026982545853,0.19599966704845428,-0.48572012782096863,-0.21053186058998108,0.1321420818567276,-0.022084953263401985,-0.030900605022907257,0.29376867413520813,-0.04149243235588074,-0.040890999138355255,-0.4939732253551483,0.28915268182754517,-0.18660029768943787,-0.054781630635261536,0.15116317570209503,-0.21167626976966858,0.06917393952608109,-0.0741407573223114,-0.09980588406324387,-0.01331372931599617,-0.054976627230644226,0.10571376979351044,-0.11945341527462006,-0.06097428873181343,-0.21316079795360565,-0.06210289150476456,0.0724887028336525,-0.19871877133846283,0.012555749155580997,-0.023483004420995712,-0.10170286148786545,-0.049053046852350235,-0.012311648577451706,0.005233790259808302,0.055100563913583755,-0.2721952497959137,-0.1135544702410698,0.13363458216190338,-0.00977135170251131,-0.03700524568557739,-0.28227296471595764,0.027615219354629517,-0.10098335146903992,0.07836677134037018,-0.23620861768722534,0.07156579196453094,0.05918014794588089,-0.08831018209457397,-0.10301151871681213,0.018895668908953667,-0.1407763808965683,0.16644832491874695,-0.06449780613183975,-0.07887069880962372,-0.11539606750011444,-0.21949714422225952,0.05718154087662697,-0.02292618341743946,0.19619829952716827,-0.0578959584236145,0.08859097212553024,0.15478411316871643,0.06234537437558174,-0.09193100780248642,-0.0067415074445307255,0.0304277203977108,0.2161620408296585,0.07641631364822388,-0.1090521588921547,-0.03179963678121567,-0.16530556976795197,0.19380103051662445,-0.23820984363555908,-0.10071088373661041,0.10241376608610153,0.15603449940681458,0.17794816195964813,-0.17235152423381805,0.2205973118543625,0.18541309237480164,0.005828953348100185,-0.028800776228308678,0.2299792468547821,-0.11725970357656479,-0.1443626433610916,-0.08608365058898926,-0.1374579519033432,-0.14461983740329742,-0.15018224716186523,0.33741849660873413,0.12028796225786209,0.21623143553733826,-0.15207041800022125,0.007553362753242254,0.060490090399980545,0.07410761713981628,-0.09122639894485474,-0.1818166971206665,0.16255727410316467,-0.11073223501443863,0.05129656195640564,0.20563577115535736,-0.029215777292847633,-0.025308771058917046,0.2707739770412445,-0.0882846936583519,0.04810259863734245,-0.13574430346488953,0.09904477000236511,-0.10802140086889267,0.08104658126831055,0.396385133266449,0.1596992015838623,-0.025508921593427658,0.08945289999246597,-0.05013323575258255,-0.043639108538627625,-0.07227496802806854,-0.08573037385940552,0.09812571108341217,0.13507786393165588,0.1050272285938263,-0.16171325743198395,-0.19182461500167847,-0.1966029554605484,-0.18499276041984558,-0.09678521007299423,-0.15273886919021606,0.024411026388406754,-0.0967416763305664,-0.08514716476202011,-0.18852967023849487,0.22943730652332306,-0.13834577798843384,-0.11360333114862442,-0.09690473973751068,0.1908288598060608,0.08662696927785873,0.04731381684541702,-0.0831405371427536,-0.019797952845692635,-0.1457323580980301,0.04532779008150101,-0.016857661306858063,-0.038635529577732086,0.11113846302032471,0.05816340073943138,-0.09654808044433594,-0.003550775581970811,-0.011319960467517376,-0.06497035920619965,0.25146347284317017,-0.08128073811531067,-0.23869848251342773,-0.30847737193107605,-0.1073860302567482,-0.25450727343559265,0.08592703938484192,0.17402881383895874,0.06072831526398659,-0.02490352839231491,0.13736751675605774,0.11968360841274261,0.0981682538986206,0.037108901888132095,-0.042472124099731445,-0.09609655290842056,-0.08225695788860321,-0.10555420815944672,-0.16525991261005402,-0.19594575464725494,0.10224249958992004,-0.20862434804439545,0.1398686319589615,0.0011463830014690757,-0.06315518170595169,0.24241720139980316,0.03127589449286461,-0.1632501184940338,0.07837501168251038,-0.027423294261097908,-0.19846171140670776,0.02664841152727604,0.16616889834403992,0.0552874393761158,-0.1125834658741951,-0.10960403829813004,-0.15555155277252197,0.2523612976074219,-0.14390882849693298,0.019585544243454933,0.10343721508979797,-0.11127310991287231,0.050353534519672394,-0.1796155869960785,0.11830156296491623,0.10080212354660034,-0.13248509168624878,0.01385747455060482,0.13806529343128204,-0.07176809012889862,-0.04766250029206276,-0.08326371014118195,-0.1452406644821167,-0.09140384197235107,-0.006341977044939995,0.04375092312693596,0.030918849632143974,0.12739412486553192,0.10787037014961243,0.12540651857852936,0.20806552469730377,-0.17292343080043793,0.11724722385406494,0.2696498930454254,-0.06239655986428261,0.10914291441440582,-0.12456147372722626,-0.12329433858394623,0.029728073626756668,-0.02427026256918907,-0.11900734901428223,0.20089514553546906,0.04663166403770447,-0.13374853134155273,-0.06915024667978287,-0.19527356326580048,0.014181368984282017,0.1676068753004074,0.04684733599424362,-0.06676535308361053,-0.18983592092990875,0.21787232160568237,0.2688635587692261,0.18290802836418152,-0.02741461619734764,-0.21043667197227478,0.03298458829522133,0.008705303072929382,0.10176445543766022,-0.09361395984888077,-0.10933610796928406,-0.030437804758548737,-0.21570895612239838,0.020708242431282997,-0.024420980364084244,-0.23832717537879944,0.09261523932218552,0.2085469663143158,-0.027324670925736427,-0.016598759219050407,-0.14284539222717285,-0.25218701362609863,0.04091227054595947,-0.012141202576458454,0.06439223885536194,0.1989225596189499,-0.01563357003033161,0.025636374950408936,0.09095021337270737,0.28670620918273926,0.11960429698228836,0.022624444216489792,-0.24577657878398895,0.04058953374624252,-0.12152190506458282,0.04131411015987396,-0.057936254888772964,0.06841447204351425,0.17874741554260254,0.10574208945035934,0.14171744883060455,-0.15830475091934204,-0.24968627095222473,-0.009068569168448448,-0.011885417625308037,0.018060408532619476,-0.04102347046136856,-0.3236907124519348,0.05420698970556259,-0.09934820234775543,0.1904640942811966,0.20904898643493652,0.15791428089141846,-0.2478327751159668,0.0812305361032486,-0.014817013405263424,-0.036844778805971146,-0.11303294450044632,0.00961851142346859,-0.19133828580379486,-0.23752546310424805,-0.004815319087356329,0.251029908657074,-0.19532139599323273,-0.08422694355249405,0.32093191146850586,-0.13242390751838684,-0.02090504765510559,-0.05604645237326622,-0.48694249987602234,-0.03872036561369896,0.46869102120399475,-0.06709271669387817,-0.14344294369220734,0.3827804923057556,-0.10430781543254852,0.05562206730246544,-0.029363548383116722,0.1350746899843216,0.19855144619941711,-0.11658633500337601,-0.09260693192481995,-0.011908958666026592,